{"learner":{"attributes":{"scikit_learn":"{\"_estimator_type\": \"regressor\"}"},"feature_names":["elo_home","elo_away","elo_diff","form_home","form_away","form_diff","is_neutral"],"feature_types":["float","float","float","float","float","float","int"],"gradient_booster":{"model":{"cats":{"enc":[],"feature_segments":[],"sorted_idx":[]},"gbtree_model_param":{"num_parallel_tree":"1","num_trees":"500"},"iteration_indptr":[0,1,2,3,4,5,6,7,8,9,10,11,12,13,14,15,16,17,18,19,20,21,22,23,24,25,26,27,28,29,30,31,32,33,34,35,36,37,38,39,40,41,42,43,44,45,46,47,48,49,50,51,52,53,54,55,56,57,58,59,60,61,62,63,64,65,66,67,68,69,70,71,72,73,74,75,76,77,78,79,80,81,82,83,84,85,86,87,88,89,90,91,92,93,94,95,96,97,98,99,100,101,102,103,104,105,106,107,108,109,110,111,112,113,114,115,116,117,118,119,120,121,122,123,124,125,126,127,128,129,130,131,132,133,134,135,136,137,138,139,140,141,142,143,144,145,146,147,148,149,150,151,152,153,154,155,156,157,158,159,160,161,162,163,164,165,166,167,168,169,170,171,172,173,174,175,176,177,178,179,180,181,182,183,184,185,186,187,188,189,190,191,192,193,194,195,196,197,198,199,200,201,202,203,204,205,206,207,208,209,210,211,212,213,214,215,216,217,218,219,220,221,222,223,224,225,226,227,228,229,230,231,232,233,234,235,236,237,238,239,240,241,242,243,244,245,246,247,248,249,250,251,252,253,254,255,256,257,258,259,260,261,262,263,264,265,266,267,268,269,270,271,272,273,274,275,276,277,278,279,280,281,282,283,284,285,286,287,288,289,290,291,292,293,294,295,296,297,298,299,300,301,302,303,304,305,306,307,308,309,310,311,312,313,314,315,316,317,318,319,320,321,322,323,324,325,326,327,328,329,330,331,332,333,334,335,336,337,338,339,340,341,342,343,344,345,346,347,348,349,350,351,352,353,354,355,356,357,358,359,360,361,362,363,364,365,366,367,368,369,370,371,372,373,374,375,376,377,378,379,380,381,382,383,384,385,386,387,388,389,390,391,392,393,394,395,396,397,398,399,400,401,402,403,404,405,406,407,408,409,410,411,412,413,414,415,416,417,418,419,420,421,422,423,424,425,426,427,428,429,430,431,432,433,434,435,436,437,438,439,440,441,442,443,444,445,446,447,448,449,450,451,452,453,454,455,456,457,458,459,460,461,462,463,464,465,466,467,468,469,470,471,472,473,474,475,476,477,478,479,480,481,482,483,484,485,486,487,488,489,490,491,492,493,494,495,496,497,498,499,500],"tree_info":[0,0,0,0,0,0,0,0,0,0,0,0,0,0,0,0,0,0,0,0,0,0,0,0,0,0,0,0,0,0,0,0,0,0,0,0,0,0,0,0,0,0,0,0,0,0,0,0,0,0,0,0,0,0,0,0,0,0,0,0,0,0,0,0,0,0,0,0,0,0,0,0,0,0,0,0,0,0,0,0,0,0,0,0,0,0,0,0,0,0,0,0,0,0,0,0,0,0,0,0,0,0,0,0,0,0,0,0,0,0,0,0,0,0,0,0,0,0,0,0,0,0,0,0,0,0,0,0,0,0,0,0,0,0,0,0,0,0,0,0,0,0,0,0,0,0,0,0,0,0,0,0,0,0,0,0,0,0,0,0,0,0,0,0,0,0,0,0,0,0,0,0,0,0,0,0,0,0,0,0,0,0,0,0,0,0,0,0,0,0,0,0,0,0,0,0,0,0,0,0,0,0,0,0,0,0,0,0,0,0,0,0,0,0,0,0,0,0,0,0,0,0,0,0,0,0,0,0,0,0,0,0,0,0,0,0,0,0,0,0,0,0,0,0,0,0,0,0,0,0,0,0,0,0,0,0,0,0,0,0,0,0,0,0,0,0,0,0,0,0,0,0,0,0,0,0,0,0,0,0,0,0,0,0,0,0,0,0,0,0,0,0,0,0,0,0,0,0,0,0,0,0,0,0,0,0,0,0,0,0,0,0,0,0,0,0,0,0,0,0,0,0,0,0,0,0,0,0,0,0,0,0,0,0,0,0,0,0,0,0,0,0,0,0,0,0,0,0,0,0,0,0,0,0,0,0,0,0,0,0,0,0,0,0,0,0,0,0,0,0,0,0,0,0,0,0,0,0,0,0,0,0,0,0,0,0,0,0,0,0,0,0,0,0,0,0,0,0,0,0,0,0,0,0,0,0,0,0,0,0,0,0,0,0,0,0,0,0,0,0,0,0,0,0,0,0,0,0,0,0,0,0,0,0,0,0,0,0,0,0,0,0,0,0,0,0,0,0,0,0,0,0,0,0,0,0,0,0,0,0,0,0,0,0,0,0,0,0,0,0,0,0,0,0,0,0,0,0,0,0,0,0,0,0,0,0,0,0,0,0,0,0,0,0,0,0,0,0,0,0],"trees":[{"base_weights":[5.271857E-3,-3.0746573E-1,9.140925E-1,-8.1873477E-1,-1.4336184E-1,2.466238E0,5.446187E-1,-9.597015E-1,-4.171082E-1,8.516085E-1,-2.104704E-1,1.3539401E0,3.2709663E0,-2.8660986E-1,6.811042E-1,-6.383031E-2,-4.2417254E-2,1.9778911E-2,-2.6589531E-2,1.4396764E-3,8.451951E-2,-2.192556E-2,1.6869002E-3,5.3998705E-2,1.13555096E-1,2.4347885E-1,1.3773435E-1,1.08453E-2,-2.7189184E-2,5.6475807E-2,1.4606233E-2],"categories":[],"categories_nodes":[],"categories_segments":[],"categories_sizes":[],"default_left":[0,0,0,0,0,0,0,0,0,0,0,0,0,0,0,0,0,0,0,0,0,0,0,0,0,0,0,0,0,0,0],"id":0,"left_children":[1,3,5,7,9,11,13,15,17,19,21,23,25,27,29,-1,-1,-1,-1,-1,-1,-1,-1,-1,-1,-1,-1,-1,-1,-1,-1],"loss_changes":[1.532016E3,3.3623032E2,7.89754E2,5.4605957E1,2.0289873E2,2.3230945E2,1.2684549E2,2.4112854E1,2.3990204E1,1.3229054E2,1.5854752E2,2.560582E1,1.12098755E2,2.0610226E1,1.6679965E2,0E0,0E0,0E0,0E0,0E0,0E0,0E0,0E0,0E0,0E0,0E0,0E0,0E0,0E0,0E0,0E0],"parents":[2147483647,0,0,1,1,2,2,3,3,4,4,5,5,6,6,7,7,8,8,9,9,10,10,11,11,12,12,13,13,14,14],"right_children":[2,4,6,8,10,12,14,16,18,20,22,24,26,28,30,-1,-1,-1,-1,-1,-1,-1,-1,-1,-1,-1,-1,-1,-1,-1,-1],"split_conditions":[5.5714285E-1,-7.6666665E-1,1.2789211E3,1.6097253E3,1.2249148E3,1.517334E3,1.5292698E3,1.2789211E3,1.6395143E3,1.3153208E3,1.6263982E3,5.555556E-1,1.0993978E3,1.3952996E3,1.5163846E3,-6.383031E-2,-4.2417254E-2,1.9778911E-2,-2.6589531E-2,1.4396764E-3,8.451951E-2,-2.192556E-2,1.6869002E-3,5.3998705E-2,1.13555096E-1,2.4347885E-1,1.3773435E-1,1.08453E-2,-2.7189184E-2,5.6475807E-2,1.4606233E-2],"split_indices":[5,5,1,0,1,0,0,0,1,0,0,4,1,1,1,0,0,0,0,0,0,0,0,0,0,0,0,0,0,0,0],"split_type":[0,0,0,0,0,0,0,0,0,0,0,0,0,0,0,0,0,0,0,0,0,0,0,0,0,0,0,0,0,0,0],"sum_hessian":[5.388E3,4.009E3,1.379E3,9.73E2,3.036E3,2.64E2,1.115E3,7.19E2,2.54E2,1.91E2,2.845E3,1.12E2,1.52E2,1.57E2,9.58E2,1.84E2,5.35E2,3.1E1,2.23E2,9.7E1,9.4E1,1.471E3,1.374E3,8.8E1,2.4E1,3.5E1,1.17E2,5.3E1,1.04E2,4.44E2,5.14E2],"tree_param":{"num_deleted":"0","num_feature":"7","num_nodes":"31","size_leaf_vector":"1"}},{"base_weights":[1.6278228E-2,-5.769542E-1,8.238563E-1,-8.3982867E-1,-2.660284E-1,6.069839E-1,2.9156563E0,-1.1604445E0,-7.163716E-1,-3.9724877E-1,-1.02149114E-1,4.1222742E-1,1.2613697E0,4.8005114E0,2.509202E0,-6.2432703E-2,-4.974499E-2,-3.7056264E-2,-1.9174203E-2,1.2701826E-2,-2.0512203E-2,9.65356E-2,-5.5867354E-3,4.206198E-2,1.3861827E-2,9.0818964E-2,5.1801234E-2,1.202518E-1,2.9250693E-1,6.361006E-2,1.3368998E-1],"categories":[],"categories_nodes":[],"categories_segments":[],"categories_sizes":[],"default_left":[0,0,0,0,0,0,0,0,0,0,0,0,0,0,0,0,0,0,0,0,0,0,0,0,0,0,0,0,0,0,0],"id":1,"left_children":[1,3,5,7,9,11,13,15,17,19,21,23,25,27,29,-1,-1,-1,-1,-1,-1,-1,-1,-1,-1,-1,-1,-1,-1,-1,-1],"loss_changes":[2.59281E3,2.5467749E2,1.0376522E3,6.587512E1,3.0682129E1,2.6414514E2,1.5193665E2,5.3673706E0,9.681091E0,6.839966E0,1.2466007E1,9.2489075E1,5.736566E1,7.81358E1,3.2649414E1,0E0,0E0,0E0,0E0,0E0,0E0,0E0,0E0,0E0,0E0,0E0,0E0,0E0,0E0,0E0,0E0],"parents":[2147483647,0,0,1,1,2,2,3,3,4,4,5,5,6,6,7,7,8,8,9,9,10,10,11,11,12,12,13,13,14,14],"right_children":[2,4,6,8,10,12,14,16,18,20,22,24,26,28,30,-1,-1,-1,-1,-1,-1,-1,-1,-1,-1,-1,-1,-1,-1,-1,-1],"split_conditions":[6.731725E1,-1.073576E2,4.502279E2,-3.4503592E2,-1.0478415E1,2.9902307E2,1.0993978E3,1E0,2.1E0,1.1932513E3,-1.6E0,1.3952996E3,1.368191E3,1.2222222E0,1.4E0,-6.2432703E-2,-4.974499E-2,-3.7056264E-2,-1.9174203E-2,1.2701826E-2,-2.0512203E-2,9.65356E-2,-5.5867354E-3,4.206198E-2,1.3861827E-2,9.0818964E-2,5.1801234E-2,1.202518E-1,2.9250693E-1,6.361006E-2,1.3368998E-1],"split_indices":[2,2,2,2,2,2,1,3,3,1,5,1,1,3,3,0,0,0,0,0,0,0,0,0,0,0,0,0,0,0,0],"split_type":[0,0,0,0,0,0,0,0,0,0,0,0,0,0,0,0,0,0,0,0,0,0,0,0,0,0,0,0,0,0,0],"sum_hessian":[5.41E3,3.119E3,2.291E3,1.689E3,1.43E3,2.077E3,2.14E2,4.67E2,1.222E3,7.93E2,6.37E2,1.602E3,4.75E2,3.6E1,1.78E2,3E2,1.67E2,1.136E3,8.6E1,1.5E1,7.78E2,2E0,6.35E2,3.82E2,1.22E3,1.35E2,3.4E2,1.2E1,2.4E1,2.2E1,1.56E2],"tree_param":{"num_deleted":"0","num_feature":"7","num_nodes":"31","size_leaf_vector":"1"}},{"base_weights":[-9.120368E-3,-2.822446E-1,7.823813E-1,1.3623384E-1,-4.755683E-1,2.1090777E0,4.723485E-1,-1.19413905E-1,6.8215746E-1,-7.80515E-1,-1.7614287E-1,1.0008193E0,2.968594E0,7.822122E-1,2.0886408E-1,2.322115E-2,-1.761757E-2,8.360728E-2,2.7518515E-2,-5.2371163E-2,-3.316533E-2,1.304984E-2,-1.477923E-2,4.3863546E-2,1.3925174E-1,4.0658423E-1,1.4019327E-1,2.1181997E-2,8.614667E-2,3.011844E-3,4.4842273E-2],"categories":[],"categories_nodes":[],"categories_segments":[],"categories_sizes":[],"default_left":[0,0,0,0,0,0,0,0,0,0,0,0,0,0,0,0,0,0,0,0,0,0,0,0,0,0,0,0,0,0,0],"id":2,"left_children":[1,3,5,7,9,11,13,15,17,19,21,23,25,27,29,-1,-1,-1,-1,-1,-1,-1,-1,-1,-1,-1,-1,-1,-1,-1,-1],"loss_changes":[1.1671012E3,3.2483853E2,5.6842303E2,1.7724463E2,2.5050085E2,2.4620447E2,9.1505646E1,1.1779027E2,5.1696884E1,4.1680237E1,7.249964E1,2.2761223E1,1.01131226E2,1.7311078E2,6.2122192E1,0E0,0E0,0E0,0E0,0E0,0E0,0E0,0E0,0E0,0E0,0E0,0E0,0E0,0E0,0E0,0E0],"parents":[2147483647,0,0,1,1,2,2,3,3,4,4,5,5,6,6,7,7,8,8,9,9,10,10,11,11,12,12,13,13,14,14],"right_children":[2,4,6,8,10,12,14,16,18,20,22,24,26,28,30,-1,-1,-1,-1,-1,-1,-1,-1,-1,-1,-1,-1,-1,-1,-1,-1],"split_conditions":[5.1111114E-1,1.511681E3,1.2789211E3,1.5129602E3,1.6283717E3,1.5144126E3,1.4886017E3,1.2953768E3,1.3361613E3,1.4127769E3,1.6609979E3,2.2E0,9.8055743E2,1.813956E3,1.9552817E3,2.322115E-2,-1.761757E-2,8.360728E-2,2.7518515E-2,-5.2371163E-2,-3.316533E-2,1.304984E-2,-1.477923E-2,4.3863546E-2,1.3925174E-1,4.0658423E-1,1.4019327E-1,2.1181997E-2,8.614667E-2,3.011844E-3,4.4842273E-2],"split_indices":[5,1,1,0,0,0,1,1,1,0,1,3,1,0,0,0,0,0,0,0,0,0,0,0,0,0,0,0,0,0,0],"split_type":[0,0,0,0,0,0,0,0,0,0,0,0,0,0,0,0,0,0,0,0,0,0,0,0,0,0,0,0,0,0,0],"sum_hessian":[5.397E3,4.013E3,1.384E3,1.268E3,2.745E3,2.61E2,1.123E3,8.64E2,4.04E2,1.359E3,1.386E3,1.15E2,1.46E2,5.15E2,6.08E2,2.46E2,6.18E2,4.6E1,3.58E2,4.12E2,9.47E2,2.97E2,1.089E3,1.09E2,6E0,3E0,1.43E2,3.74E2,1.41E2,5.01E2,1.07E2],"tree_param":{"num_deleted":"0","num_feature":"7","num_nodes":"31","size_leaf_vector":"1"}},{"base_weights":[-2.1355622E-3,-3.287448E-1,6.1018324E-1,-6.9236493E-1,-1.8715283E-1,3.610304E-1,1.4236783E0,-7.505441E-1,5.926288E-2,-4.0316498E-1,-5.449274E-2,1.1122767E0,3.1263372E-1,1.3708317E0,3.4213397E-1,-5.4983158E-2,-3.33463E-2,6.776958E-2,-2.8100167E-3,-2.7711803E-2,-1.0206793E-2,-5.394217E-3,1.9865248E-2,-2.6374396E-3,7.9225436E-2,8.494432E-3,2.938489E-2,1.3545471E-1,6.1481483E-2],"categories":[],"categories_nodes":[],"categories_segments":[],"categories_sizes":[],"default_left":[0,0,0,0,0,0,0,0,0,0,0,0,0,0,0,0,0,0,0,0,0,0,0,0,0,0,0,0,0],"id":3,"left_children":[1,3,5,7,9,11,13,15,17,19,21,23,25,27,-1,-1,-1,-1,-1,-1,-1,-1,-1,-1,-1,-1,-1,-1,-1],"loss_changes":[1.0849125E3,1.8193884E2,3.8177344E2,4.3449097E1,7.2948235E1,5.2083145E1,1.1637671E2,2.5947205E1,1.0981266E1,2.8946487E1,3.8126995E1,4.810089E1,5.322351E1,7.9230774E1,0E0,0E0,0E0,0E0,0E0,0E0,0E0,0E0,0E0,0E0,0E0,0E0,0E0,0E0,0E0],"parents":[2147483647,0,0,1,1,2,2,3,3,4,4,5,5,6,6,7,7,8,8,9,9,10,10,11,11,12,12,13,13],"right_children":[2,4,6,8,10,12,14,16,18,20,22,24,26,28,-1,-1,-1,-1,-1,-1,-1,-1,-1,-1,-1,-1,-1,-1,-1],"split_conditions":[4E-1,-7.6666665E-1,1.1571429E0,1.7860459E3,1.4980988E3,2.2222222E-1,2.7E0,1.2304426E3,7.5E-1,-1.5714286E-1,1.9198519E3,1.3715559E3,1.813956E3,1E-1,3.4213397E-1,-5.4983158E-2,-3.33463E-2,6.776958E-2,-2.8100167E-3,-2.7711803E-2,-1.0206793E-2,-5.394217E-3,1.9865248E-2,-2.6374396E-3,7.9225436E-2,8.494432E-3,2.938489E-2,1.3545471E-1,6.1481483E-2],"split_indices":[5,5,5,0,0,4,5,0,3,5,0,0,0,4,0,0,0,0,0,0,0,0,0,0,0,0,0,0,0],"split_type":[0,0,0,0,0,0,0,0,0,0,0,0,0,0,0,0,0,0,0,0,0,0,0,0,0,0,0,0,0],"sum_hessian":[5.423E3,3.537E3,1.886E3,9.9E2,2.547E3,1.445E3,4.41E2,9.19E2,7.1E1,9.68E2,1.579E3,8.6E1,1.359E3,4.38E2,3E0,1.75E2,7.44E2,5E0,6.6E1,5.49E2,4.19E2,1.413E3,1.66E2,2.5E1,6.1E1,8.96E2,4.63E2,4E1,3.98E2],"tree_param":{"num_deleted":"0","num_feature":"7","num_nodes":"29","size_leaf_vector":"1"}},{"base_weights":[-1.5165661E-3,-5.1858E-1,7.0057243E-1,-8.533908E-1,-3.2711628E-1,4.977855E-1,2.1258101E0,-1.0304798E0,-7.2155625E-1,-4.307313E-1,-8.6021E-2,3.343396E-1,9.354434E-1,1.7251111E0,3.4539433E0,-5.5975344E-2,-4.5307264E-2,-3.257661E-2,-4.6522003E-2,-1.6200198E-2,-2.446216E-2,-2.658424E-4,-1.5773928E-2,4.0675517E-2,1.2732034E-2,8.195015E-2,3.587611E-2,1.14914075E-1,7.300858E-2,3.9613357E-1,1.5923676E-1],"categories":[],"categories_nodes":[],"categories_segments":[],"categories_sizes":[],"default_left":[0,0,0,0,0,0,0,0,0,0,0,0,0,0,0,0,0,0,0,0,0,0,0,0,0,0,0,0,0,0,0],"id":4,"left_children":[1,3,5,7,9,11,13,15,17,19,21,23,25,27,29,-1,-1,-1,-1,-1,-1,-1,-1,-1,-1,-1,-1,-1,-1,-1,-1],"loss_changes":[1.9610405E3,1.9903064E2,6.6082324E2,2.5486023E1,4.9398804E1,1.4312778E2,1.4519531E2,4.0961914E0,8.772308E0,8.409241E0,1.1021592E1,5.5557114E1,8.214804E1,2.982837E1,5.1853943E1,0E0,0E0,0E0,0E0,0E0,0E0,0E0,0E0,0E0,0E0,0E0,0E0,0E0,0E0,0E0,0E0],"parents":[2147483647,0,0,1,1,2,2,3,3,4,4,5,5,6,6,7,7,8,8,9,9,10,10,11,11,12,12,13,13,14,14],"right_children":[2,4,6,8,10,12,14,16,18,20,22,24,26,28,30,-1,-1,-1,-1,-1,-1,-1,-1,-1,-1,-1,-1,-1,-1,-1,-1],"split_conditions":[6.542232E1,-1.9227997E2,4.1085013E2,-3.4503592E2,-1.0478415E1,2.686514E2,5.941327E2,1.3759705E3,1E0,1.4754512E3,1E0,1.4654596E3,1.648007E3,1.768677E3,1.5936807E3,-5.5975344E-2,-4.5307264E-2,-3.257661E-2,-4.6522003E-2,-1.6200198E-2,-2.446216E-2,-2.658424E-4,-1.5773928E-2,4.0675517E-2,1.2732034E-2,8.195015E-2,3.587611E-2,1.14914075E-1,7.300858E-2,3.9613357E-1,1.5923676E-1],"split_indices":[2,2,2,2,2,2,2,0,6,0,6,0,0,0,0,0,0,0,0,0,0,0,0,0,0,0,0,0,0,0,0],"split_type":[0,0,0,0,0,0,0,0,0,0,0,0,0,0,0,0,0,0,0,0,0,0,0,0,0,0,0,0,0,0,0],"sum_hessian":[5.4E3,3.11E3,2.29E3,1.13E3,1.98E3,2.006E3,2.84E2,4.79E2,6.51E2,1.384E3,5.96E2,1.462E3,5.44E2,2.2E2,6.4E1,2.74E2,2.05E2,4.91E2,1.6E2,4.93E2,8.91E2,4.42E2,1.54E2,2.07E2,1.255E3,1.27E2,4.17E2,6.7E1,1.53E2,2E0,6.2E1],"tree_param":{"num_deleted":"0","num_feature":"7","num_nodes":"31","size_leaf_vector":"1"}},{"base_weights":[5.790534E-3,-4.152129E-1,7.754111E-1,-6.970618E-1,-1.4672278E-1,5.8148164E-1,2.3083432E0,-9.5439994E-1,-5.998158E-1,-2.9247335E-1,3.475042E-2,3.9633015E-1,1.039191E0,1.8443118E0,3.3970485E0,-5.0602395E-2,-4.0371142E-2,-3.4734122E-2,-2.4579525E-2,-6.280174E-4,-1.60232E-2,8.678726E-2,1.3027635E-3,2.7256249E-2,1.2457653E-2,5.85995E-2,4.225873E-2,1.0118548E-1,6.0113873E-2,5.5102217E-3,1.7789437E-1],"categories":[],"categories_nodes":[],"categories_segments":[],"categories_sizes":[],"default_left":[0,0,0,0,0,0,0,0,0,0,0,0,0,0,0,0,0,0,0,0,0,0,0,0,0,0,0,0,0,0,0],"id":5,"left_children":[1,3,5,7,9,11,13,15,17,19,21,23,25,27,29,-1,-1,-1,-1,-1,-1,-1,-1,-1,-1,-1,-1,-1,-1,-1,-1],"loss_changes":[1.7574799E3,2.6512512E2,5.685532E2,4.2065063E1,4.756626E1,1.4385101E2,1.0182715E2,2.9577637E0,1.2311951E1,7.774109E0,1.1625708E1,2.6392258E1,1.1432678E1,1.4866821E1,3.2546204E1,0E0,0E0,0E0,0E0,0E0,0E0,0E0,0E0,0E0,0E0,0E0,0E0,0E0,0E0,0E0,0E0],"parents":[2147483647,0,0,1,1,2,2,3,3,4,4,5,5,6,6,7,7,8,8,9,9,10,10,11,11,12,12,13,13,14,14],"right_children":[2,4,6,8,10,12,14,16,18,20,22,24,26,28,30,-1,-1,-1,-1,-1,-1,-1,-1,-1,-1,-1,-1,-1,-1,-1,-1],"split_conditions":[1.0883369E2,-1.073576E2,4.502279E2,-3.4503592E2,1.852407E1,2.9902307E2,5.941327E2,1.1E0,-1.9227997E2,6.25E-1,1.1111111E-1,1.7E0,1.1E0,1.1E0,1.1E0,-5.0602395E-2,-4.0371142E-2,-3.4734122E-2,-2.4579525E-2,-6.280174E-4,-1.60232E-2,8.678726E-2,1.3027635E-3,2.7256249E-2,1.2457653E-2,5.85995E-2,4.225873E-2,1.0118548E-1,6.0113873E-2,5.5102217E-3,1.7789437E-1],"split_indices":[2,2,2,2,2,2,2,3,2,4,3,3,4,4,3,0,0,0,0,0,0,0,0,0,0,0,0,0,0,0,0],"split_type":[0,0,0,0,0,0,0,0,0,0,0,0,0,0,0,0,0,0,0,0,0,0,0,0,0,0,0,0,0,0,0],"sum_hessian":[5.422E3,3.505E3,1.917E3,1.709E3,1.796E3,1.703E3,2.14E2,4.66E2,1.243E3,9.96E2,8E2,1.214E3,4.89E2,1.52E2,6.2E1,3.3E2,1.36E2,6.59E2,5.84E2,9.1E1,9.05E2,3E0,7.97E2,6.02E2,6.12E2,2.87E2,2.02E2,1.17E2,3.5E1,3E0,5.9E1],"tree_param":{"num_deleted":"0","num_feature":"7","num_nodes":"31","size_leaf_vector":"1"}},{"base_weights":[1.4307308E-2,1.2485605E0,-1.1326939E-1,7.34903E-1,2.5304735E0,-3.1900194E-1,2.4226135E-1,1.4504606E0,5.264098E-1,4.5616727E0,2.0853863E0,-6.0127926E-1,-1.900142E-1,1.15166344E-1,6.794641E-1,1.5893532E-2,8.837124E-2,1.2870674E-2,4.5696568E-2,2.7989578E-1,1.3624129E-1,9.78081E-2,2.6594254E-1,-1.4419143E-2,-3.317664E-2,4.1020272E-4,-1.5377072E-2,1.3148493E-2,-6.125621E-3,3.954342E-2,6.3645723E-3],"categories":[],"categories_nodes":[],"categories_segments":[],"categories_sizes":[],"default_left":[0,0,0,0,0,0,0,0,0,0,0,0,0,0,0,0,0,0,0,0,0,0,0,0,0,0,0,0,0,0,0],"id":6,"left_children":[1,3,5,7,9,11,13,15,17,19,21,23,25,27,29,-1,-1,-1,-1,-1,-1,-1,-1,-1,-1,-1,-1,-1,-1,-1,-1],"loss_changes":[8.488173E2,3.303382E2,3.5739465E2,5.3045135E1,1.2000726E2,1.1249652E2,9.936151E1,2.8307907E1,2.9043816E1,3.1499878E1,3.9009033E1,1.8608002E1,4.955983E1,4.884149E1,2.4597809E1,0E0,0E0,0E0,0E0,0E0,0E0,0E0,0E0,0E0,0E0,0E0,0E0,0E0,0E0,0E0,0E0],"parents":[2147483647,0,0,1,1,2,2,3,3,4,4,5,5,6,6,7,7,8,8,9,9,10,10,11,11,12,12,13,13,14,14],"right_children":[2,4,6,8,10,12,14,16,18,20,22,24,26,28,30,-1,-1,-1,-1,-1,-1,-1,-1,-1,-1,-1,-1,-1,-1,-1,-1],"split_conditions":[1.2789211E3,1.5E0,2.4285714E-1,1.0859171E3,1.0993978E3,-7.888889E-1,1.1E0,5E-1,1E0,1.7888889E0,2.5E0,1.5175099E3,1.5556858E3,1.6338943E3,1E0,1.5893532E-2,8.837124E-2,1.2870674E-2,4.5696568E-2,2.7989578E-1,1.3624129E-1,9.78081E-2,2.6594254E-1,-1.4419143E-2,-3.317664E-2,4.1020272E-4,-1.5377072E-2,1.3148493E-2,-6.125621E-3,3.954342E-2,6.3645723E-3],"split_indices":[1,3,5,1,1,5,5,3,3,5,5,1,1,1,6,0,0,0,0,0,0,0,0,0,0,0,0,0,0,0,0],"split_type":[0,0,0,0,0,0,0,0,0,0,0,0,0,0,0,0,0,0,0,0,0,0,0,0,0,0,0,0,0,0,0],"sum_hessian":[5.388E3,5.04E2,4.884E3,3.61E2,1.43E2,3.094E3,1.79E3,8E1,2.81E2,2.4E1,1.19E2,9.69E2,2.125E3,1.388E3,4.02E2,1.8E1,6.2E1,1.67E2,1.14E2,1.4E1,1E1,1.16E2,3E0,1.62E2,8.07E2,7.91E2,1.334E3,8.56E2,5.32E2,3.34E2,6.8E1],"tree_param":{"num_deleted":"0","num_feature":"7","num_nodes":"31","size_leaf_vector":"1"}},{"base_weights":[5.605945E-3,-4.147053E-1,6.682963E-1,-6.894554E-1,-2.0941575E-1,4.6538925E-1,1.88521E0,-9.140647E-1,-5.8213603E-1,-3.266078E-1,-5.691956E-2,3.395549E-1,8.99628E-1,1.6837709E0,3.87084E0,-5.0517052E-2,-3.9413825E-2,-3.552141E-2,-2.3662092E-2,-9.497875E-3,-2.0344147E-2,9.1865666E-2,-3.1909046E-3,4.313137E-2,1.3205509E-2,7.081235E-2,3.5278764E-2,8.248474E-2,2.7386847E-1,9.978742E-2,2.1008681E-1],"categories":[],"categories_nodes":[],"categories_segments":[],"categories_sizes":[],"default_left":[0,0,0,0,0,0,0,0,0,0,0,0,0,0,0,0,0,0,0,0,0,0,0,0,0,0,0,0,0,0,0],"id":7,"left_children":[1,3,5,7,9,11,13,15,17,19,21,23,25,27,29,-1,-1,-1,-1,-1,-1,-1,-1,-1,-1,-1,-1,-1,-1,-1,-1],"loss_changes":[1.5186034E3,1.8792725E2,5.213711E2,3.3691895E1,3.4095184E1,9.874606E1,1.13722046E2,4.582367E0,1.3068665E1,1.171022E1,1.0811998E1,5.5262955E1,3.959085E1,2.5930298E1,7.74704E0,0E0,0E0,0E0,0E0,0E0,0E0,0E0,0E0,0E0,0E0,0E0,0E0,0E0,0E0,0E0,0E0],"parents":[2147483647,0,0,1,1,2,2,3,3,4,4,5,5,6,6,7,7,8,8,9,9,10,10,11,11,12,12,13,13,14,14],"right_children":[2,4,6,8,10,12,14,16,18,20,22,24,26,28,30,-1,-1,-1,-1,-1,-1,-1,-1,-1,-1,-1,-1,-1,-1,-1,-1],"split_conditions":[9.285301E1,-1.4633168E2,4.1085013E2,-3.4503592E2,-1.0478415E1,2.9902307E2,7.434934E2,1.3759705E3,1.4829774E3,1.4754512E3,-1.6E0,1.4653064E3,1.6711162E3,2.7E0,1.7779066E3,-5.0517052E-2,-3.9413825E-2,-3.552141E-2,-2.3662092E-2,-9.497875E-3,-2.0344147E-2,9.1865666E-2,-3.1909046E-3,4.313137E-2,1.3205509E-2,7.081235E-2,3.5278764E-2,8.248474E-2,2.7386847E-1,9.978742E-2,2.1008681E-1],"split_indices":[2,2,2,2,2,2,2,0,0,0,5,0,0,5,0,0,0,0,0,0,0,0,0,0,0,0,0,0,0,0,0],"split_type":[0,0,0,0,0,0,0,0,0,0,0,0,0,0,0,0,0,0,0,0,0,0,0,0,0,0,0,0,0,0,0],"sum_hessian":[5.45E3,3.335E3,2.115E3,1.425E3,1.91E3,1.814E3,3.01E2,4.58E2,9.67E2,1.079E3,8.31E2,1.408E3,4.06E2,2.75E2,2.6E1,2.55E2,2.03E2,4.41E2,5.26E2,4.01E2,6.78E2,2E0,8.29E2,1.76E2,1.232E3,1.09E2,2.97E2,2.74E2,1E0,5E0,2.1E1],"tree_param":{"num_deleted":"0","num_feature":"7","num_nodes":"31","size_leaf_vector":"1"}},{"base_weights":[1.2824939E-2,-3.2963526E-1,8.1978875E-1,-5.289242E-1,5.1901378E-2,5.8382785E-1,1.8006488E0,-7.8044266E-1,-4.1327256E-1,1.387478E0,4.0465903E-2,4.3378592E-1,9.195346E-1,1.6214546E0,3.6350217E0,-4.9455952E-2,-3.6817003E-2,-2.476904E-2,-1.5942654E-2,2.4438424E-2,1.0191373E-1,-6.9205174E-3,5.807839E-3,3.4405943E-2,1.4025631E-2,8.115506E-2,3.751137E-2,9.597651E-2,5.6884002E-2,8.94163E-2,1.984446E-1],"categories":[],"categories_nodes":[],"categories_segments":[],"categories_sizes":[],"default_left":[0,0,0,0,0,0,0,0,0,0,0,0,0,0,0,0,0,0,0,0,0,0,0,0,0,0,0,0,0,0,0],"id":8,"left_children":[1,3,5,7,9,11,13,15,17,19,21,23,25,27,29,-1,-1,-1,-1,-1,-1,-1,-1,-1,-1,-1,-1,-1,-1,-1,-1],"loss_changes":[1.4998105E3,2.8977246E2,3.7295618E2,7.23667E1,1.977808E1,6.519876E1,9.646625E1,6.3420105E0,1.3071869E1,5.184698E0,1.758786E1,3.4950256E1,4.6430817E1,3.889624E1,8.973663E0,0E0,0E0,0E0,0E0,0E0,0E0,0E0,0E0,0E0,0E0,0E0,0E0,0E0,0E0,0E0,0E0],"parents":[2147483647,0,0,1,1,2,2,3,3,4,4,5,5,6,6,7,7,8,8,9,9,10,10,11,11,12,12,13,13,14,14],"right_children":[2,4,6,8,10,12,14,16,18,20,22,24,26,28,30,-1,-1,-1,-1,-1,-1,-1,-1,-1,-1,-1,-1,-1,-1,-1,-1],"split_conditions":[1.5377718E2,-1.0478415E1,4.1085013E2,-2.5982205E2,1.1048319E3,2.9902307E2,7.434934E2,1.1658689E3,-1.073576E2,1.0993978E3,4.1662243E1,1.6640527E3,1.5936807E3,1.8903204E3,1.2222222E0,-4.9455952E-2,-3.6817003E-2,-2.476904E-2,-1.5942654E-2,2.4438424E-2,1.0191373E-1,-6.9205174E-3,5.807839E-3,3.4405943E-2,1.4025631E-2,8.115506E-2,3.751137E-2,9.597651E-2,5.6884002E-2,8.94163E-2,1.984446E-1],"split_indices":[2,2,2,2,0,2,2,0,2,0,2,0,0,0,3,0,0,0,0,0,0,0,0,0,0,0,0,0,0,0,0],"split_type":[0,0,0,0,0,0,0,0,0,0,0,0,0,0,0,0,0,0,0,0,0,0,0,0,0,0,0,0,0,0,0],"sum_hessian":[5.425E3,3.809E3,1.616E3,2.502E3,1.307E3,1.304E3,3.12E2,7.86E2,1.716E3,1E1,1.297E3,9.03E2,4.01E2,2.86E2,2.6E1,1.33E2,6.53E2,9.15E2,8.01E2,5E0,5E0,3.85E2,9.12E2,3.38E2,5.65E2,7.6E1,3.25E2,1.75E2,1.11E2,5E0,2.1E1],"tree_param":{"num_deleted":"0","num_feature":"7","num_nodes":"31","size_leaf_vector":"1"}},{"base_weights":[-4.801484E-3,-3.6388242E-1,6.3467693E-1,-6.5038997E-1,-1.8531549E-1,4.641687E-1,1.8831537E0,-8.5632807E-1,-5.8768004E-1,-3.1047395E-1,-3.1357665E-2,3.22465E-1,8.564177E-1,1.6022071E0,3.098027E0,-1.177249E-2,-4.4010215E-2,-3.515642E-2,-2.5062416E-2,-1.5908083E-2,7.4313045E-3,-2.7619507E-3,3.1097788E-2,2.5887117E-2,9.628958E-3,7.705609E-2,3.7539646E-2,3.33172E-2,8.749046E-2,1.3659182E-1,2.6573545E-1],"categories":[],"categories_nodes":[],"categories_segments":[],"categories_sizes":[],"default_left":[0,0,0,0,0,0,0,0,0,0,0,0,0,0,0,0,0,0,0,0,0,0,0,0,0,0,0,0,0,0,0],"id":9,"left_children":[1,3,5,7,9,11,13,15,17,19,21,23,25,27,29,-1,-1,-1,-1,-1,-1,-1,-1,-1,-1,-1,-1,-1,-1,-1,-1],"loss_changes":[1.2509686E3,1.7829578E2,4.1591437E2,1.6644714E1,4.140396E1,9.548685E1,7.477527E1,4.2766724E0,9.804871E0,4.2501373E0,1.5049221E1,3.201587E1,3.1664764E1,2.5252502E1,1.9580719E1,0E0,0E0,0E0,0E0,0E0,0E0,0E0,0E0,0E0,0E0,0E0,0E0,0E0,0E0,0E0,0E0],"parents":[2147483647,0,0,1,1,2,2,3,3,4,4,5,5,6,6,7,7,8,8,9,9,10,10,11,11,12,12,13,13,14,14],"right_children":[2,4,6,8,10,12,14,16,18,20,22,24,26,28,30,-1,-1,-1,-1,-1,-1,-1,-1,-1,-1,-1,-1,-1,-1,-1,-1],"split_conditions":[1.0411597E2,-1.5838968E2,4.369484E2,1.2900867E3,-1.0478415E1,2.9902307E2,6.46642E2,9.9287225E2,-2.9146085E2,2.7E0,1.9552817E3,1.6623058E3,1.5299146E3,1.2E0,2.7E0,-1.177249E-2,-4.4010215E-2,-3.515642E-2,-2.5062416E-2,-1.5908083E-2,7.4313045E-3,-2.7619507E-3,3.1097788E-2,2.5887117E-2,9.628958E-3,7.705609E-2,3.7539646E-2,3.33172E-2,8.749046E-2,1.3659182E-1,2.6573545E-1],"split_indices":[2,2,2,0,2,2,2,0,2,4,0,0,0,3,3,0,0,0,0,0,0,0,0,0,0,0,0,0,0,0,0],"split_type":[0,0,0,0,0,0,0,0,0,0,0,0,0,0,0,0,0,0,0,0,0,0,0,0,0,0,0,0,0,0,0],"sum_hessian":[5.446E3,3.488E3,1.958E3,1.338E3,2.15E3,1.724E3,2.34E2,3.09E2,1.029E3,1.185E3,9.65E2,1.268E3,4.56E2,1.92E2,4.2E1,1.2E1,2.97E2,4.37E2,5.92E2,1.166E3,1.9E1,9.32E2,3.3E1,5.05E2,7.63E2,5.9E1,3.97E2,2.7E1,1.65E2,3.8E1,4E0],"tree_param":{"num_deleted":"0","num_feature":"7","num_nodes":"31","size_leaf_vector":"1"}},{"base_weights":[-2.5805421E-2,-4.097372E-1,5.1201016E-1,-6.2358236E-1,-2.4996457E-1,3.6405152E-1,1.5492444E0,-7.760307E-1,-5.369727E-1,-3.3320034E-1,-1.0117356E-1,2.023328E-1,5.380076E-1,1.4341296E0,2.9575195E0,-4.106022E-2,-3.177754E-2,-2.3996342E-2,-3.4949597E-2,-1.7100556E-2,5.3949957E-3,-5.9625896E-4,-1.7468033E-2,1.4668757E-2,3.1662371E-3,4.061859E-2,2.1070652E-2,8.099068E-2,5.3918965E-2,4.1619074E-2,1.638849E-1],"categories":[],"categories_nodes":[],"categories_segments":[],"categories_sizes":[],"default_left":[0,0,0,0,0,0,0,0,0,0,0,0,0,0,0,0,0,0,0,0,0,0,0,0,0,0,0,0,0,0,0],"id":10,"left_children":[1,3,5,7,9,11,13,15,17,19,21,23,25,27,29,-1,-1,-1,-1,-1,-1,-1,-1,-1,-1,-1,-1,-1,-1,-1,-1],"loss_changes":[1.105511E3,1.06493225E2,3.4147772E2,1.7078674E1,2.209153E1,5.475885E1,4.03869E1,2.3848267E0,7.449005E0,4.518059E0,1.4224495E1,1.2778549E1,2.9604279E1,1.5092163E1,1.0469162E1,0E0,0E0,0E0,0E0,0E0,0E0,0E0,0E0,0E0,0E0,0E0,0E0,0E0,0E0,0E0,0E0],"parents":[2147483647,0,0,1,1,2,2,3,3,4,4,5,5,6,6,7,7,8,8,9,9,10,10,11,11,12,12,13,13,14,14],"right_children":[2,4,6,8,10,12,14,16,18,20,22,24,26,28,30,-1,-1,-1,-1,-1,-1,-1,-1,-1,-1,-1,-1,-1,-1,-1,-1],"split_conditions":[6.731725E1,-1.6135422E2,4.1085013E2,-3.4503592E2,-1.0478415E1,1.984231E2,7.434934E2,1.4430209E3,1E0,2.7E0,1E0,1.7616831E3,1.6640527E3,1.8903204E3,1.2222222E0,-4.106022E-2,-3.177754E-2,-2.3996342E-2,-3.4949597E-2,-1.7100556E-2,5.3949957E-3,-5.9625896E-4,-1.7468033E-2,1.4668757E-2,3.1662371E-3,4.061859E-2,2.1070652E-2,8.099068E-2,5.3918965E-2,4.1619074E-2,1.638849E-1],"split_indices":[2,2,2,2,2,2,2,0,6,4,6,0,0,0,3,0,0,0,0,0,0,0,0,0,0,0,0,0,0,0,0],"split_type":[0,0,0,0,0,0,0,0,0,0,0,0,0,0,0,0,0,0,0,0,0,0,0,0,0,0,0,0,0,0,0],"sum_hessian":[5.352E3,3.123E3,2.229E3,1.334E3,1.789E3,1.952E3,2.77E2,4.8E2,8.54E2,1.146E3,6.43E2,1.013E3,9.39E2,2.58E2,1.9E1,3.59E2,1.21E2,6.35E2,2.19E2,1.124E3,2.2E1,4.74E2,1.69E2,6.11E2,4.02E2,2.78E2,6.61E2,1.67E2,9.1E1,3E0,1.6E1],"tree_param":{"num_deleted":"0","num_feature":"7","num_nodes":"31","size_leaf_vector":"1"}},{"base_weights":[7.0352727E-3,-2.3307018E-1,8.007864E-1,-4.2252406E-1,4.8393015E-2,6.0758466E-1,1.899063E0,-5.9674746E-1,-2.8081563E-1,2.8416E-1,-6.353426E-3,1.1338903E0,4.8101094E-1,3.5332546E-1,1.7751895E0,-3.552806E-2,-2.6146686E-2,-1.4485518E-2,1.1129952E-2,-8.219631E-3,2.3038449E-2,3.5576837E-3,-1.1381347E-2,5.162366E-2,1.409783E-1,1.5203851E-2,3.629093E-2,7.64944E-2,1.5968727E-1],"categories":[],"categories_nodes":[],"categories_segments":[],"categories_sizes":[],"default_left":[0,0,0,0,0,0,0,0,0,0,0,0,0,0,0,0,0,0,0,0,0,0,0,0,0,0,0,0,0],"id":11,"left_children":[1,3,5,7,9,11,13,15,17,19,21,23,25,-1,27,-1,-1,-1,-1,-1,-1,-1,-1,-1,-1,-1,-1,-1,-1],"loss_changes":[1.0232981E3,2.1986058E2,2.6319513E2,6.0578186E1,2.1442965E1,7.0039734E1,1.05631775E2,8.779785E0,6.16539E0,2.4900753E1,2.3133255E1,3.1749725E1,3.6840378E1,0E0,5.83208E1,0E0,0E0,0E0,0E0,0E0,0E0,0E0,0E0,0E0,0E0,0E0,0E0,0E0,0E0],"parents":[2147483647,0,0,1,1,2,2,3,3,4,4,5,5,6,6,7,7,8,8,9,9,10,10,11,11,12,12,14,14],"right_children":[2,4,6,8,10,12,14,16,18,20,22,24,26,-1,28,-1,-1,-1,-1,-1,-1,-1,-1,-1,-1,-1,-1,-1,-1],"split_conditions":[1.984231E2,-1.0478415E1,4.7595395E2,-1.9227997E2,1.3952996E3,1.2953035E3,9.8055743E2,-3.505817E2,2.7E0,6.542232E1,1E0,2.2E0,3.0816272E2,3.5332546E-1,7.434934E2,-3.552806E-2,-2.6146686E-2,-1.4485518E-2,1.1129952E-2,-8.219631E-3,2.3038449E-2,3.5576837E-3,-1.1381347E-2,5.162366E-2,1.409783E-1,1.5203851E-2,3.629093E-2,7.64944E-2,1.5968727E-1],"split_indices":[2,2,2,2,1,1,1,2,4,2,6,3,2,0,2,0,0,0,0,0,0,0,0,0,0,0,0,0,0],"split_type":[0,0,0,0,0,0,0,0,0,0,0,0,0,0,0,0,0,0,0,0,0,0,0,0,0,0,0,0,0],"sum_hessian":[5.367E3,4.121E3,1.246E3,2.463E3,1.658E3,1.061E3,1.85E2,1.103E3,1.36E3,3.12E2,1.346E3,2.04E2,8.57E2,3E0,1.82E2,4.3E2,6.73E2,1.337E3,2.3E1,8.8E1,2.24E2,9.97E2,3.49E2,1.94E2,1E1,4.99E2,3.58E2,1.57E2,2.5E1],"tree_param":{"num_deleted":"0","num_feature":"7","num_nodes":"29","size_leaf_vector":"1"}},{"base_weights":[-1.6137386E-3,9.035517E-1,-9.281343E-2,3.728322E-1,1.7107573E0,-3.3663243E-1,1.5011138E-1,-6.598391E-2,8.011925E-1,9.004658E-1,2.0440648E0,-8.896034E-2,-4.7754046E-1,4.9833715E-1,-1.1564295E-1,9.280248E-3,-2.926296E-2,1.4223588E-1,3.7014227E-2,5.72451E-2,-5.323088E-2,1.5730096E-1,8.7338924E-2,-1.4473378E-2,6.4682364E-3,-3.3151936E-2,-1.9439822E-2,1.4183584E-2,4.310127E-2,-9.847942E-3,2.4397615E-2],"categories":[],"categories_nodes":[],"categories_segments":[],"categories_sizes":[],"default_left":[0,0,0,0,0,0,0,0,0,0,0,0,0,0,0,0,0,0,0,0,0,0,0,0,0,0,0,0,0,0,0],"id":12,"left_children":[1,3,5,7,9,11,13,15,17,19,21,23,25,27,29,-1,-1,-1,-1,-1,-1,-1,-1,-1,-1,-1,-1,-1,-1,-1,-1],"loss_changes":[4.4643756E2,2.1121173E2,2.9112384E2,5.6517815E1,5.0799927E1,8.550809E1,2.2793555E2,1.9614529E1,1.6454582E1,2.9566822E1,3.922351E1,3.9057648E1,2.5366913E1,8.286493E1,6.86344E1,0E0,0E0,0E0,0E0,0E0,0E0,0E0,0E0,0E0,0E0,0E0,0E0,0E0,0E0,0E0,0E0],"parents":[2147483647,0,0,1,1,2,2,3,3,4,4,5,5,6,6,7,7,8,8,9,9,10,10,11,11,12,12,13,13,14,14],"right_children":[2,4,6,8,10,12,14,16,18,20,22,24,26,28,30,-1,-1,-1,-1,-1,-1,-1,-1,-1,-1,-1,-1,-1,-1,-1,-1],"split_conditions":[1.2789211E3,1.4945795E3,1.6263982E3,1.3153208E3,1.2222222E0,1.488385E3,1.648007E3,1.1932513E3,1.3160654E3,1.1E0,1.0993978E3,1.451206E3,1.4289076E3,1.821378E3,1.9552817E3,9.280248E-3,-2.926296E-2,1.4223588E-1,3.7014227E-2,5.72451E-2,-5.323088E-2,1.5730096E-1,8.7338924E-2,-1.4473378E-2,6.4682364E-3,-3.3151936E-2,-1.9439822E-2,1.4183584E-2,4.310127E-2,-9.847942E-3,2.4397615E-2],"split_indices":[1,0,0,0,3,1,1,1,0,4,1,0,0,0,0,0,0,0,0,0,0,0,0,0,0,0,0,0,0,0,0],"split_type":[0,0,0,0,0,0,0,0,0,0,0,0,0,0,0,0,0,0,0,0,0,0,0,0,0,0,0,0,0,0,0],"sum_hessian":[5.407E3,4.94E2,4.913E3,2.99E2,1.95E2,2.452E3,2.461E3,1.48E2,1.51E2,5.8E1,1.37E2,8.9E2,1.562E3,1.065E3,1.396E3,1E2,4.8E1,3E0,1.48E2,5.2E1,6E0,2.7E1,1.1E2,4.64E2,4.26E2,5.03E2,1.059E3,6.71E2,3.94E2,1.231E3,1.65E2],"tree_param":{"num_deleted":"0","num_feature":"7","num_nodes":"31","size_leaf_vector":"1"}},{"base_weights":[-1.2141278E-2,-3.1884673E-1,4.7471356E-1,-5.044944E-1,-1.2496947E-1,3.6247125E-1,1.6603144E0,-7.514865E-1,-4.6132237E-1,-2.3876688E-1,-1.15926135E-2,2.3238371E-1,7.076613E-1,2.6322708E-1,1.5900743E0,-5.2765436E-3,-3.9152972E-2,-3.0007932E-2,-2.0314422E-2,1.6092008E-2,-1.2527525E-2,-1.1738448E-3,5.910627E-2,3.9902676E-2,8.325006E-3,5.699822E-2,3.0327633E-2,6.682137E-2,1.13594115E-1],"categories":[],"categories_nodes":[],"categories_segments":[],"categories_sizes":[],"default_left":[0,0,0,0,0,0,0,0,0,0,0,0,0,0,0,0,0,0,0,0,0,0,0,0,0,0,0,0,0],"id":13,"left_children":[1,3,5,7,9,11,13,15,17,19,21,23,25,-1,27,-1,-1,-1,-1,-1,-1,-1,-1,-1,-1,-1,-1,-1,-1],"loss_changes":[8.102024E2,1.19694244E2,2.7825333E2,1.7659393E1,2.1002441E1,8.582425E1,3.6765778E1,4.947586E0,1.0734558E1,5.4441795E0,1.1516429E1,5.1722755E1,2.203775E1,0E0,2.755899E1,0E0,0E0,0E0,0E0,0E0,0E0,0E0,0E0,0E0,0E0,0E0,0E0,0E0,0E0],"parents":[2147483647,0,0,1,1,2,2,3,3,4,4,5,5,6,6,7,7,8,8,9,9,10,10,11,11,12,12,14,14],"right_children":[2,4,6,8,10,12,14,16,18,20,22,24,26,-1,28,-1,-1,-1,-1,-1,-1,-1,-1,-1,-1,-1,-1,-1,-1],"split_conditions":[9.285301E1,-1.073576E2,4.7595395E2,1.21906E3,-1.0478415E1,2.9902307E2,9.8055743E2,9.9287225E2,-3.1075116E2,1.1932513E3,1.962693E3,1.245431E3,1.5936807E3,2.6322708E-1,6.46642E2,-5.2765436E-3,-3.9152972E-2,-3.0007932E-2,-2.0314422E-2,1.6092008E-2,-1.2527525E-2,-1.1738448E-3,5.910627E-2,3.9902676E-2,8.325006E-3,5.699822E-2,3.0327633E-2,6.682137E-2,1.13594115E-1],"split_indices":[2,2,2,0,2,2,1,0,2,1,1,1,0,0,2,0,0,0,0,0,0,0,0,0,0,0,0,0,0],"split_type":[0,0,0,0,0,0,0,0,0,0,0,0,0,0,0,0,0,0,0,0,0,0,0,0,0,0,0,0,0],"sum_hessian":[5.424E3,3.328E3,2.096E3,1.699E3,1.629E3,1.916E3,1.8E2,2.5E2,1.449E3,8.12E2,8.17E2,1.393E3,5.23E2,2E0,1.78E2,1.2E1,2.38E2,4.08E2,1.041E3,1.6E1,7.96E2,8.1E2,7E0,1.44E2,1.249E3,9.7E1,4.26E2,1.32E2,4.6E1],"tree_param":{"num_deleted":"0","num_feature":"7","num_nodes":"29","size_leaf_vector":"1"}},{"base_weights":[6.2916783E-4,-2.9671898E-1,4.7657558E-1,-5.008447E-1,-1.584987E-1,3.6568996E-1,1.4440142E0,-5.794817E-1,-3.5019824E-1,-2.3438306E-1,4.5775753E-3,2.645062E-1,6.885289E-1,1.0841502E0,2.1883042E0,-3.5825867E-2,-2.6129583E-2,-1.8738115E-2,2.6439518E-2,-1.0622411E-2,-2.2976806E-2,3.1685676E-2,-9.949254E-4,2.3745494E-2,6.608657E-3,5.0091833E-2,2.8722692E-2,6.589686E-2,3.4506824E-2,3.3350164E-1,9.7673796E-2],"categories":[],"categories_nodes":[],"categories_segments":[],"categories_sizes":[],"default_left":[0,0,0,0,0,0,0,0,0,0,0,0,0,0,0,0,0,0,0,0,0,0,0,0,0,0,0,0,0,0,0],"id":14,"left_children":[1,3,5,7,9,11,13,15,17,19,21,23,25,27,29,-1,-1,-1,-1,-1,-1,-1,-1,-1,-1,-1,-1,-1,-1,-1,-1],"loss_changes":[7.710286E2,9.4457275E1,2.2403223E2,1.5732239E1,2.4786304E1,6.116742E1,5.4886597E1,6.4166565E0,1.0266018E1,6.581436E0,9.867618E0,3.98039E1,1.5278656E1,1.2430588E1,5.8726013E1,0E0,0E0,0E0,0E0,0E0,0E0,0E0,0E0,0E0,0E0,0E0,0E0,0E0,0E0,0E0,0E0],"parents":[2147483647,0,0,1,1,2,2,3,3,4,4,5,5,6,6,7,7,8,8,9,9,10,10,11,11,12,12,13,13,14,14],"right_children":[2,4,6,8,10,12,14,16,18,20,22,24,26,28,30,-1,-1,-1,-1,-1,-1,-1,-1,-1,-1,-1,-1,-1,-1,-1,-1],"split_conditions":[9.285301E1,-1.5838968E2,4.502279E2,1.4980988E3,1.852407E1,3.0816272E2,5.941327E2,1.2238508E3,2.3E0,2.3E0,2.0939865E1,1.6623058E3,1.6909205E3,1.893477E3,1.5936807E3,-3.5825867E-2,-2.6129583E-2,-1.8738115E-2,2.6439518E-2,-1.0622411E-2,-2.2976806E-2,3.1685676E-2,-9.949254E-4,2.3745494E-2,6.608657E-3,5.0091833E-2,2.8722692E-2,6.589686E-2,3.4506824E-2,3.3350164E-1,9.7673796E-2],"split_indices":[2,2,2,0,2,2,2,0,3,4,2,0,0,0,0,0,0,0,0,0,0,0,0,0,0,0,0,0,0,0,0],"split_type":[0,0,0,0,0,0,0,0,0,0,0,0,0,0,0,0,0,0,0,0,0,0,0,0,0,0,0,0,0,0,0],"sum_hessian":[5.446E3,3.352E3,2.094E3,1.352E3,2E3,1.88E3,2.14E2,8.86E2,4.66E2,1.365E3,6.35E2,1.433E3,4.47E2,1.46E2,6.8E1,2.56E2,6.3E2,4.54E2,1.2E1,1.246E3,1.19E2,2.3E1,6.12E2,5.52E2,8.81E2,1.17E2,3.3E2,9E1,5.6E1,2E0,6.6E1],"tree_param":{"num_deleted":"0","num_feature":"7","num_nodes":"31","size_leaf_vector":"1"}},{"base_weights":[-2.5663816E-3,-2.029318E-1,6.7729366E-1,-4.3831524E-1,-2.8890513E-2,5.2666897E-1,1.6457096E0,-6.0777575E-1,-3.784525E-1,-1.3599321E-1,1.10121205E-1,8.488004E-1,4.0218443E-1,3.4420135E0,1.4687756E0,-3.81391E-2,-2.7565906E-2,-3.0885851E-2,-1.7810695E-2,3.3860184E-2,-7.1913167E-3,1.9392308E-2,1.1773696E-3,3.711326E-2,1.3302626E-1,8.381715E-3,3.360106E-2,1.0147307E-1,2.7793577E-1,6.88904E-2,2.747117E-1],"categories":[],"categories_nodes":[],"categories_segments":[],"categories_sizes":[],"default_left":[0,0,0,0,0,0,0,0,0,0,0,0,0,0,0,0,0,0,0,0,0,0,0,0,0,0,0,0,0,0,0],"id":15,"left_children":[1,3,5,7,9,11,13,15,17,19,21,23,25,27,29,-1,-1,-1,-1,-1,-1,-1,-1,-1,-1,-1,-1,-1,-1,-1,-1],"loss_changes":[7.3608905E2,1.7093452E2,1.7833282E2,1.766745E1,3.576492E1,4.228055E1,4.6894897E1,3.4824066E0,6.6742554E0,8.687988E0,2.50754E1,5.4816635E1,4.8600174E1,2.9819336E1,4.7403137E1,0E0,0E0,0E0,0E0,0E0,0E0,0E0,0E0,0E0,0E0,0E0,0E0,0E0,0E0,0E0,0E0],"parents":[2147483647,0,0,1,1,2,2,3,3,4,4,5,5,6,6,7,7,8,8,9,9,10,10,11,11,12,12,13,13,14,14],"right_children":[2,4,6,8,10,12,14,16,18,20,22,24,26,28,30,-1,-1,-1,-1,-1,-1,-1,-1,-1,-1,-1,-1,-1,-1,-1,-1],"split_conditions":[1.984231E2,-9.76347E1,4.7595395E2,-3.4503592E2,6.542232E1,1.6623058E3,1.5964167E3,1.1864841E3,1.21906E3,1.1130127E3,-1.7777778E-1,2.2E0,3.1075116E2,5.484673E2,2.7E0,-3.81391E-2,-2.7565906E-2,-3.0885851E-2,-1.7810695E-2,3.3860184E-2,-7.1913167E-3,1.9392308E-2,1.1773696E-3,3.711326E-2,1.3302626E-1,8.381715E-3,3.360106E-2,1.0147307E-1,2.7793577E-1,6.88904E-2,2.747117E-1],"split_indices":[2,2,2,2,2,0,0,0,0,0,5,3,2,2,5,0,0,0,0,0,0,0,0,0,0,0,0,0,0,0,0],"split_type":[0,0,0,0,0,0,0,0,0,0,0,0,0,0,0,0,0,0,0,0,0,0,0,0,0,0,0,0,0,0,0],"sum_hessian":[5.402E3,4.173E3,1.229E3,1.773E3,2.4E3,1.065E3,1.64E2,4.6E2,1.313E3,1.356E3,1.044E3,2.95E2,7.7E2,1.3E1,1.51E2,1.19E2,3.41E2,1.09E2,1.204E3,1.2E1,1.344E3,2.47E2,7.97E2,2.8E2,1.5E1,4.13E2,3.57E2,9E0,4E0,1.49E2,2E0],"tree_param":{"num_deleted":"0","num_feature":"7","num_nodes":"31","size_leaf_vector":"1"}},{"base_weights":[-1.3586832E-2,-3.0066133E-1,3.6794788E-1,-4.7809464E-1,-1.8103473E-1,2.4750553E-1,1.1951683E0,-5.4119927E-1,-3.4737515E-1,-2.3623161E-1,-6.855151E-2,6.650867E-1,1.7970063E-1,1.1378856E0,2.5265047E-1,-3.342321E-2,-2.516728E-2,-9.031434E-3,-2.44296E-2,-1.32525135E-2,-6.52816E-3,-1.1774448E-2,1.8940952E-3,2.2124136E-2,5.72109E-2,5.771273E-3,2.5375744E-2,4.8390273E-2,8.758028E-2],"categories":[],"categories_nodes":[],"categories_segments":[],"categories_sizes":[],"default_left":[0,0,0,0,0,0,0,0,0,0,0,0,0,0,0,0,0,0,0,0,0,0,0,0,0,0,0,0,0],"id":16,"left_children":[1,3,5,7,9,11,13,15,17,19,21,23,25,27,-1,-1,-1,-1,-1,-1,-1,-1,-1,-1,-1,-1,-1,-1,-1],"loss_changes":[5.9287415E2,6.541385E1,2.3110556E2,9.976654E0,1.1420834E1,5.727353E1,5.882242E1,3.5737305E0,9.4521675E0,3.695816E0,1.0866992E1,2.9518814E1,3.6710045E1,2.8512299E1,0E0,0E0,0E0,0E0,0E0,0E0,0E0,0E0,0E0,0E0,0E0,0E0,0E0,0E0,0E0],"parents":[2147483647,0,0,1,1,2,2,3,3,4,4,5,5,6,6,7,7,8,8,9,9,10,10,11,11,12,12,13,13],"right_children":[2,4,6,8,10,12,14,16,18,20,22,24,26,28,-1,-1,-1,-1,-1,-1,-1,-1,-1,-1,-1,-1,-1,-1,-1],"split_conditions":[6.542232E1,-1.7093777E2,4.1085013E2,1.4980988E3,-1.0478415E1,1.2789211E3,2.7E0,1.2115177E3,1.8903204E3,1.747503E3,1.5065842E3,1.2222222E0,3.0816272E2,5.941327E2,2.5265047E-1,-3.342321E-2,-2.516728E-2,-9.031434E-3,-2.44296E-2,-1.32525135E-2,-6.52816E-3,-1.1774448E-2,1.8940952E-3,2.2124136E-2,5.72109E-2,5.771273E-3,2.5375744E-2,4.8390273E-2,8.758028E-2],"split_indices":[2,2,2,0,2,1,5,0,1,0,0,3,2,2,0,0,0,0,0,0,0,0,0,0,0,0,0,0,0],"split_type":[0,0,0,0,0,0,0,0,0,0,0,0,0,0,0,0,0,0,0,0,0,0,0,0,0,0,0,0,0],"sum_hessian":[5.411E3,3.088E3,2.323E3,1.242E3,1.846E3,2.029E3,2.94E2,8.35E2,4.07E2,1.237E3,6.09E2,2.82E2,1.747E3,2.91E2,3E0,1.87E2,6.48E2,1.88E2,2.19E2,9.7E2,2.67E2,2.37E2,3.72E2,1.94E2,8.8E1,1.462E3,2.85E2,2.3E2,6.1E1],"tree_param":{"num_deleted":"0","num_feature":"7","num_nodes":"29","size_leaf_vector":"1"}},{"base_weights":[-9.336923E-3,-2.4935238E-1,4.1735172E-1,-4.214482E-1,-8.3543815E-2,3.1548104E-1,1.5278184E0,-4.8947957E-1,-3.2440457E-1,-1.6630952E-1,3.0954499E-2,6.7866844E-1,2.4675459E-1,3.019277E-1,1.4041029E0,-2.545379E-2,-5.0761364E-3,-2.676394E-2,-1.3864683E-2,1.7547145E-2,-8.830443E-3,7.171529E-2,1.1553507E-3,2.5853863E-2,5.831042E-2,8.536031E-3,2.4646563E-2,5.894499E-2,1.2534577E-1],"categories":[],"categories_nodes":[],"categories_segments":[],"categories_sizes":[],"default_left":[0,0,0,0,0,0,0,0,0,0,0,0,0,0,0,0,0,0,0,0,0,0,0,0,0,0,0,0,0],"id":17,"left_children":[1,3,5,7,9,11,13,15,17,19,21,23,25,-1,27,-1,-1,-1,-1,-1,-1,-1,-1,-1,-1,-1,-1,-1,-1],"loss_changes":[5.496294E2,9.7931885E1,2.1788916E2,1.0884216E1,1.6612095E1,4.394519E1,8.1180756E1,7.3984985E0,6.704582E0,5.462467E0,7.9155083E0,2.136644E1,2.775772E1,0E0,3.6164734E1,0E0,0E0,0E0,0E0,0E0,0E0,0E0,0E0,0E0,0E0,0E0,0E0,0E0,0E0],"parents":[2147483647,0,0,1,1,2,2,3,3,4,4,5,5,6,6,7,7,8,8,9,9,10,10,11,11,12,12,14,14],"right_children":[2,4,6,8,10,12,14,16,18,20,22,24,26,-1,28,-1,-1,-1,-1,-1,-1,-1,-1,-1,-1,-1,-1,-1,-1],"split_conditions":[1.0411597E2,-1.073576E2,4.7595395E2,-4.888889E-1,1.852407E1,1.2789211E3,9.8055743E2,1.9953765E3,-3.0696545E2,1.1932513E3,-1.6E0,7.1428573E-1,3.1075116E2,3.019277E-1,7.434934E2,-2.545379E-2,-5.0761364E-3,-2.676394E-2,-1.3864683E-2,1.7547145E-2,-8.830443E-3,7.171529E-2,1.1553507E-3,2.5853863E-2,5.831042E-2,8.536031E-3,2.4646563E-2,5.894499E-2,1.2534577E-1],"split_indices":[2,2,2,5,2,1,1,1,2,1,5,4,2,0,2,0,0,0,0,0,0,0,0,0,0,0,0,0,0],"split_type":[0,0,0,0,0,0,0,0,0,0,0,0,0,0,0,0,0,0,0,0,0,0,0,0,0,0,0,0,0],"sum_hessian":[5.365E3,3.434E3,1.931E3,1.684E3,1.75E3,1.77E3,1.61E2,9.87E2,6.97E2,1.016E3,7.34E2,2.8E2,1.49E3,3E0,1.58E2,9.39E2,4.8E1,1.25E2,5.72E2,1.9E1,9.97E2,3E0,7.31E2,2.12E2,6.8E1,1.14E3,3.5E2,1.33E2,2.5E1],"tree_param":{"num_deleted":"0","num_feature":"7","num_nodes":"29","size_leaf_vector":"1"}},{"base_weights":[1.6146395E-2,-1.4646052E-1,3.2280883E-1,-3.4695977E-1,-6.761303E-2,2.1114743E-1,8.169632E-1,-4.465114E-1,-1.837866E-1,-8.637021E-2,3.5568666E-1,8.205155E-1,1.8270862E-1,7.829232E-1,2.2072814E-1,-2.8779004E-2,-1.8889524E-2,1.4522079E-3,-1.3588081E-2,-1.6468046E-2,-3.3814681E-3,2.5051514E-2,-3.6864404E-2,1.67668E-2,6.327662E-2,1.26448795E-2,-2.3102402E-3,4.5216795E-2,6.6438457E-4],"categories":[],"categories_nodes":[],"categories_segments":[],"categories_sizes":[],"default_left":[0,0,0,0,0,0,0,0,0,0,0,0,0,0,0,0,0,0,0,0,0,0,0,0,0,0,0,0,0],"id":18,"left_children":[1,3,5,7,9,11,13,15,17,19,21,23,25,27,-1,-1,-1,-1,-1,-1,-1,-1,-1,-1,-1,-1,-1,-1,-1],"loss_changes":[2.70535E2,5.59775E1,1.0345926E2,1.609906E1,2.0218792E1,2.635086E1,3.8395935E1,5.186432E0,7.165929E0,1.1044867E1,1.7502323E1,1.4097626E1,2.3619003E1,3.2040802E1,0E0,0E0,0E0,0E0,0E0,0E0,0E0,0E0,0E0,0E0,0E0,0E0,0E0,0E0,0E0],"parents":[2147483647,0,0,1,1,2,2,3,3,4,4,5,5,6,6,7,7,8,8,9,9,10,10,11,11,12,12,13,13],"right_children":[2,4,6,8,10,12,14,16,18,20,22,24,26,28,-1,-1,-1,-1,-1,-1,-1,-1,-1,-1,-1,-1,-1,-1,-1],"split_conditions":[4E-1,-7.6666665E-1,1.2857143E0,1.5018611E3,1.9509773E3,1.6666667E-1,2.7E0,1.2953035E3,9E-1,1.2221793E3,2.6E0,1.4523876E3,1E0,1E0,2.2072814E-1,-2.8779004E-2,-1.8889524E-2,1.4522079E-3,-1.3588081E-2,-1.6468046E-2,-3.3814681E-3,2.5051514E-2,-3.6864404E-2,1.67668E-2,6.327662E-2,1.26448795E-2,-2.3102402E-3,4.5216795E-2,6.6438457E-4],"split_indices":[5,5,5,0,0,4,5,0,3,0,4,0,6,6,0,0,0,0,0,0,0,0,0,0,0,0,0,0,0],"split_type":[0,0,0,0,0,0,0,0,0,0,0,0,0,0,0,0,0,0,0,0,0,0,0,0,0,0,0,0,0],"sum_hessian":[5.423E3,3.544E3,1.879E3,9.99E2,2.545E3,1.534E3,3.45E2,6.19E2,3.8E2,2.438E3,1.07E2,6.7E1,1.467E3,3.43E2,2E0,2.12E2,4.07E2,1.11E2,2.69E2,1.73E2,2.265E3,9.5E1,1.2E1,3.3E1,3.4E1,1.123E3,3.44E2,2.96E2,4.7E1],"tree_param":{"num_deleted":"0","num_feature":"7","num_nodes":"29","size_leaf_vector":"1"}},{"base_weights":[1.0712286E-2,7.1491444E-1,-5.961794E-2,3.7043577E-1,1.4705932E0,-1.3308105E-1,1.9128408E-1,1.0712173E0,2.3600547E-1,3.163134E0,1.1460427E0,-2.9875883E-1,-7.6837875E-2,1.4356336E-1,5.3160864E-1,3.0990604E-2,1.385182E-1,-6.0233423E-3,1.9558337E-2,2.3073593E-1,7.8609996E-2,5.1784243E-2,1.8389265E-1,-2.5968518E-4,-1.6301261E-2,2.0155609E-4,-8.730206E-3,1.0817203E-2,-7.150045E-3,-7.366858E-3,3.219894E-2],"categories":[],"categories_nodes":[],"categories_segments":[],"categories_sizes":[],"default_left":[0,0,0,0,0,0,0,0,0,0,0,0,0,0,0,0,0,0,0,0,0,0,0,0,0,0,0,0,0,0,0],"id":19,"left_children":[1,3,5,7,9,11,13,15,17,19,21,23,25,27,29,-1,-1,-1,-1,-1,-1,-1,-1,-1,-1,-1,-1,-1,-1,-1,-1],"loss_changes":[2.6725513E2,1.2682559E2,9.042881E1,3.1458187E1,7.99892E1,3.5302223E1,1.7899399E1,3.936208E1,1.5837739E1,4.755107E1,3.2042236E1,7.6574707E0,2.2432E1,2.0394064E1,1.0520428E1,0E0,0E0,0E0,0E0,0E0,0E0,0E0,0E0,0E0,0E0,0E0,0E0,0E0,0E0,0E0,0E0],"parents":[2147483647,0,0,1,1,2,2,3,3,4,4,5,5,6,6,7,7,8,8,9,9,10,10,11,11,12,12,13,13,14,14],"right_children":[2,4,6,8,10,12,14,16,18,20,22,24,26,28,30,-1,-1,-1,-1,-1,-1,-1,-1,-1,-1,-1,-1,-1,-1,-1,-1],"split_conditions":[1.2789211E3,1.5E0,5.5714285E-1,1.0487946E3,1.0993978E3,-7.6666665E-1,1.5E0,4.2857143E-1,0E0,1.7888889E0,2.5E0,1.451206E3,1.648007E3,1E0,1.3715559E3,3.0990604E-2,1.385182E-1,-6.0233423E-3,1.9558337E-2,2.3073593E-1,7.8609996E-2,5.1784243E-2,1.8389265E-1,-2.5968518E-4,-1.6301261E-2,2.0155609E-4,-8.730206E-3,1.0817203E-2,-7.150045E-3,-7.366858E-3,3.219894E-2],"split_indices":[1,3,5,1,1,5,5,4,5,5,5,1,1,6,1,0,0,0,0,0,0,0,0,0,0,0,0,0,0,0,0],"split_type":[0,0,0,0,0,0,0,0,0,0,0,0,0,0,0,0,0,0,0,0,0,0,0,0,0,0,0,0,0,0,0],"sum_hessian":[5.393E3,4.89E2,4.904E3,3.37E2,1.52E2,3.794E3,1.11E3,5.3E1,2.84E2,2.3E1,1.29E2,9.6E2,2.834E3,9.75E2,1.35E2,4.3E1,1E1,8.6E1,1.98E2,1.1E1,1.2E1,1.25E2,4E0,8.2E1,8.78E2,1.551E3,1.283E3,7.78E2,1.97E2,1.9E1,1.16E2],"tree_param":{"num_deleted":"0","num_feature":"7","num_nodes":"31","size_leaf_vector":"1"}},{"base_weights":[3.2991925E-3,6.0972154E-1,-5.986295E-2,2.2152339E-1,1.3319702E0,-2.1611948E-1,4.5059025E-2,2.2867668E0,1.698563E-1,1.2217101E0,3.8366497E0,1.757538E-2,-2.5321105E-1,-1.5329706E-3,3.2914376E-1,-2.8089806E-2,2.064132E-1,2.5525847E-2,3.8009663E-3,1.0968615E-1,4.958688E-2,2.1107106E-1,3.570051E-2,-3.7071405E-3,5.5669177E-2,-1.8089978E-2,-9.245716E-3,3.8985794E-3,-6.4363503E-3,2.0338984E-2,-4.9504056E-3],"categories":[],"categories_nodes":[],"categories_segments":[],"categories_sizes":[],"default_left":[0,0,0,0,0,0,0,0,0,0,0,0,0,0,0,0,0,0,0,0,0,0,0,0,0,0,0,0,0,0,0],"id":20,"left_children":[1,3,5,7,9,11,13,15,17,19,21,23,25,27,29,-1,-1,-1,-1,-1,-1,-1,-1,-1,-1,-1,-1,-1,-1,-1,-1],"loss_changes":[2.0708055E2,1.4254114E2,8.027911E1,3.4898724E1,4.3964447E1,1.7078194E1,3.8801727E1,4.464085E1,1.0323636E1,3.595407E1,4.902832E0,2.732297E1,1.2471207E1,2.546829E1,1.3799156E1,0E0,0E0,0E0,0E0,0E0,0E0,0E0,0E0,0E0,0E0,0E0,0E0,0E0,0E0,0E0,0E0],"parents":[2147483647,0,0,1,1,2,2,3,3,4,4,5,5,6,6,7,7,8,8,9,9,10,10,11,11,12,12,13,13,14,14],"right_children":[2,4,6,8,10,12,14,16,18,20,22,24,26,28,30,-1,-1,-1,-1,-1,-1,-1,-1,-1,-1,-1,-1,-1,-1,-1,-1],"split_conditions":[1.2789211E3,1.4E0,-2.75E-1,9.8055743E2,2.5E0,1.4653064E3,1.1E0,3.3333334E-1,1.0859171E3,1.0993978E3,3E0,1.4E0,9E-1,1.648007E3,1E0,-2.8089806E-2,2.064132E-1,2.5525847E-2,3.8009663E-3,1.0968615E-1,4.958688E-2,2.1107106E-1,3.570051E-2,-3.7071405E-3,5.5669177E-2,-1.8089978E-2,-9.245716E-3,3.8985794E-3,-6.4363503E-3,2.0338984E-2,-4.9504056E-3],"split_indices":[1,3,5,1,5,1,5,3,1,1,3,3,3,1,6,0,0,0,0,0,0,0,0,0,0,0,0,0,0,0,0],"split_type":[0,0,0,0,0,0,0,0,0,0,0,0,0,0,0,0,0,0,0,0,0,0,0,0,0,0,0,0,0,0,0],"sum_hessian":[5.403E3,5.09E2,4.894E3,3.32E2,1.77E2,1.966E3,2.928E3,7E0,3.25E2,1.71E2,6E0,2.69E2,1.697E3,2.516E3,4.12E2,3E0,4E0,6.9E1,2.56E2,3.1E1,1.4E2,5E0,1E0,2.49E2,2E1,6.53E2,1.044E3,1.548E3,9.68E2,3.49E2,6.3E1],"tree_param":{"num_deleted":"0","num_feature":"7","num_nodes":"31","size_leaf_vector":"1"}},{"base_weights":[-1.0917096E-2,-6.257145E-2,7.584387E-1,1.1092022E-1,-1.8929105E-1,1.5144083E0,4.7338754E-1,5.55516E-1,5.6378197E-2,-3.6359832E-1,-1.2232893E-1,1.3900887E0,2.3529314E-1,6.392167E-1,1.24413975E-1,1.8792165E-2,8.747253E-2,-1.592297E-2,6.827852E-3,-1.6422112E-2,-2.716924E-2,-3.046152E-3,-1.3474138E-2,2.1588205E-1,6.366765E-2,1.8822722E-2,6.40361E-2,5.899363E-4,5.6902666E-2],"categories":[],"categories_nodes":[],"categories_segments":[],"categories_sizes":[],"default_left":[0,0,0,0,0,0,0,0,0,0,0,0,0,0,0,0,0,0,0,0,0,0,0,0,0,0,0,0,0],"id":21,"left_children":[1,3,5,7,9,11,13,15,17,19,21,23,-1,25,27,-1,-1,-1,-1,-1,-1,-1,-1,-1,-1,-1,-1,-1,-1],"loss_changes":[2.1350401E2,1.10744255E2,7.191998E1,5.146119E1,3.3884087E1,2.9350815E1,1.4137993E1,4.8897995E1,5.6977715E1,4.83506E0,1.8971558E1,2.47005E1,0E0,2.7502235E1,9.117838E0,0E0,0E0,0E0,0E0,0E0,0E0,0E0,0E0,0E0,0E0,0E0,0E0,0E0,0E0],"parents":[2147483647,0,0,1,1,2,2,3,3,4,4,5,5,6,6,7,7,8,8,9,9,10,10,11,11,13,13,14,14],"right_children":[2,4,6,8,10,12,14,16,18,20,22,24,-1,26,28,-1,-1,-1,-1,-1,-1,-1,-1,-1,-1,-1,-1,-1,-1],"split_conditions":[1.2857143E0,1.5496257E3,1.2789211E3,1.197965E3,1.1E0,2.7E0,1.5684719E3,1.5E0,6.25E-1,1E0,1E0,9.8055743E2,2.3529314E-1,2.4E0,1.9E0,1.8792165E-2,8.747253E-2,-1.592297E-2,6.827852E-3,-1.6422112E-2,-2.716924E-2,-3.046152E-3,-1.3474138E-2,2.1588205E-1,6.366765E-2,1.8822722E-2,6.40361E-2,5.899363E-4,5.6902666E-2],"split_indices":[5,1,1,1,3,5,1,3,3,6,6,1,0,3,5,0,0,0,0,0,0,0,0,0,0,0,0,0,0],"split_type":[0,0,0,0,0,0,0,0,0,0,0,0,0,0,0,0,0,0,0,0,0,0,0,0,0,0,0,0,0],"sum_hessian":[5.372E3,5.035E3,3.37E2,2.125E3,2.91E3,9.1E1,2.46E2,2.31E2,1.894E3,8.06E2,2.104E3,8.9E1,2E0,1.66E2,8E1,2.02E2,2.9E1,3.33E2,1.561E3,6.77E2,1.29E2,1.486E3,6.18E2,2E0,8.7E1,1.19E2,4.7E1,7.3E1,7E0],"tree_param":{"num_deleted":"0","num_feature":"7","num_nodes":"29","size_leaf_vector":"1"}},{"base_weights":[8.699598E-3,5.7907504E-1,-4.7911465E-2,2.4661481E-1,1.1950209E0,-1.6221459E-1,8.51665E-2,-1.501643E-3,4.3360564E-1,2.4190593E0,9.0391123E-1,-3.2716092E-1,-1.1186597E-1,1.7092203E-1,-6.5724224E-2,-2.0389883E-2,3.529071E-3,1.668499E-2,4.426196E-2,8.743736E-2,1.7653391E-1,4.8801012E-2,-2.9050162E-2,5.264993E-3,-1.8248143E-2,1.017976E-2,-7.983635E-3,6.661503E-3,3.220691E-2,-3.8183928E-3,1.4125077E-1],"categories":[],"categories_nodes":[],"categories_segments":[],"categories_sizes":[],"default_left":[0,0,0,0,0,0,0,0,0,0,0,0,0,0,0,0,0,0,0,0,0,0,0,0,0,0,0,0,0,0,0],"id":22,"left_children":[1,3,5,7,9,11,13,15,17,19,21,23,25,27,29,-1,-1,-1,-1,-1,-1,-1,-1,-1,-1,-1,-1,-1,-1,-1,-1],"loss_changes":[1.7379868E2,9.908299E1,7.448048E1,1.4751238E1,5.8057083E1,2.1794403E1,2.9291384E1,4.074832E0,7.7495728E0,1.7141998E1,1.5490089E1,1.0118324E1,3.049207E1,2.5574432E1,2.5170618E1,0E0,0E0,0E0,0E0,0E0,0E0,0E0,0E0,0E0,0E0,0E0,0E0,0E0,0E0,0E0,0E0],"parents":[2147483647,0,0,1,1,2,2,3,3,4,4,5,5,6,6,7,7,8,8,9,9,10,10,11,11,12,12,13,13,14,14],"right_children":[2,4,6,8,10,12,14,16,18,20,22,24,26,28,30,-1,-1,-1,-1,-1,-1,-1,-1,-1,-1,-1,-1,-1,-1,-1,-1],"split_conditions":[1.2789211E3,1.4E0,1E-1,2E-1,1.0993978E3,7E-1,1.6338943E3,-6E-1,1E0,2E0,1.4285715E0,1.3685603E3,1.4658368E3,2.4E0,1.9E0,-2.0389883E-2,3.529071E-3,1.668499E-2,4.426196E-2,8.743736E-2,1.7653391E-1,4.8801012E-2,-2.9050162E-2,5.264993E-3,-1.8248143E-2,1.017976E-2,-7.983635E-3,6.661503E-3,3.220691E-2,-3.8183928E-3,1.4125077E-1],"split_indices":[1,3,5,5,1,3,1,5,6,3,4,1,1,3,5,0,0,0,0,0,0,0,0,0,0,0,0,0,0,0,0],"split_type":[0,0,0,0,0,0,0,0,0,0,0,0,0,0,0,0,0,0,0,0,0,0,0,0,0,0,0,0,0,0,0],"sum_hessian":[5.379E3,4.85E2,4.894E3,3.16E2,1.69E2,2.633E3,2.261E3,1.36E2,1.8E2,3.1E1,1.38E2,6.14E2,2.019E3,1.442E3,8.19E2,2E1,1.16E2,1.49E2,3.1E1,2.1E1,1E1,1.32E2,6E0,4.9E1,5.65E2,2.65E2,1.754E3,1.337E3,1.05E2,8.17E2,2E0],"tree_param":{"num_deleted":"0","num_feature":"7","num_nodes":"31","size_leaf_vector":"1"}},{"base_weights":[2.4154333E-3,-2.1539515E-1,3.5131416E-1,-3.555217E-1,-1.0952783E-1,2.4432139E-1,9.896144E-1,-4.3632135E-1,-2.2876729E-1,-1.5698856E-1,2.4677485E-2,6.4473724E-1,1.9142397E-1,4.0819077E0,9.3350905E-1,-2.7725607E-2,-1.9772198E-2,-2.06583E-2,-8.170861E-3,-6.0469504E-3,-1.4119926E-2,2.798397E-2,-1.3446709E-3,2.7260592E-2,9.411418E-2,1.2632501E-2,-0E0,-2.5773881E-2,2.6925617E-1,4.009212E-2,8.0453634E-2],"categories":[],"categories_nodes":[],"categories_segments":[],"categories_sizes":[],"default_left":[0,0,0,0,0,0,0,0,0,0,0,0,0,0,0,0,0,0,0,0,0,0,0,0,0,0,0,0,0,0,0],"id":23,"left_children":[1,3,5,7,9,11,13,15,17,19,21,23,25,27,29,-1,-1,-1,-1,-1,-1,-1,-1,-1,-1,-1,-1,-1,-1,-1,-1],"loss_changes":[4.1243185E2,4.9477707E1,1.4209512E2,1.455101E1,1.215097E1,3.7664536E1,4.7562714E1,3.9179688E0,6.6471844E0,6.2910423E0,1.3808415E1,2.4349808E1,1.8537975E1,3.3219795E1,2.470871E1,0E0,0E0,0E0,0E0,0E0,0E0,0E0,0E0,0E0,0E0,0E0,0E0,0E0,0E0,0E0,0E0],"parents":[2147483647,0,0,1,1,2,2,3,3,4,4,5,5,6,6,7,7,8,8,9,9,10,10,11,11,12,12,13,13,14,14],"right_children":[2,4,6,8,10,12,14,16,18,20,22,24,26,28,30,-1,-1,-1,-1,-1,-1,-1,-1,-1,-1,-1,-1,-1,-1,-1,-1],"split_conditions":[9.022691E1,-1.4633168E2,4.1085013E2,1.4868864E3,1.747503E3,1.241824E3,9.8055743E2,1.2155431E3,-2.9457355E2,1.648007E3,1.7522692E3,1.2238508E3,1E0,1.4298364E3,6.46642E2,-2.7725607E-2,-1.9772198E-2,-2.06583E-2,-8.170861E-3,-6.0469504E-3,-1.4119926E-2,2.798397E-2,-1.3446709E-3,2.7260592E-2,9.411418E-2,1.2632501E-2,-0E0,-2.5773881E-2,2.6925617E-1,4.009212E-2,8.0453634E-2],"split_indices":[2,2,2,0,0,1,1,0,2,1,0,1,6,0,2,0,0,0,0,0,0,0,0,0,0,0,0,0,0,0,0],"split_type":[0,0,0,0,0,0,0,0,0,0,0,0,0,0,0,0,0,0,0,0,0,0,0,0,0,0,0,0,0,0,0],"sum_hessian":[5.425E3,3.34E3,2.085E3,1.436E3,1.904E3,1.787E3,2.98E2,8.75E2,5.61E2,1.407E3,4.97E2,2.07E2,1.58E3,4E0,2.94E2,2.21E2,6.54E2,1.45E2,4.16E2,1.095E3,3.12E2,4.3E1,4.54E2,1.93E2,1.4E1,1.197E3,3.83E2,1E0,3E0,2.48E2,4.6E1],"tree_param":{"num_deleted":"0","num_feature":"7","num_nodes":"31","size_leaf_vector":"1"}},{"base_weights":[-1.540994E-2,-2.3947915E-1,2.570868E-1,-3.544909E-1,-1.6924934E-1,1.7873633E-1,8.3710885E-1,-4.1188824E-1,-2.4989595E-1,-1.3443756E-1,-2.7586642E-1,9.131527E-2,2.8945225E-1,6.681293E-1,1.6908306E0,-1.9927036E-2,-4.394028E-2,-1.7998468E-2,-8.612532E-3,-9.5572835E-3,-3.2020833E-3,-1.2252654E-2,-3.342729E-2,2.9812094E-3,2.7571905E-2,2.5599299E-2,9.860019E-3,5.319205E-2,2.9570261E-2,7.175413E-2,2.0281756E-1],"categories":[],"categories_nodes":[],"categories_segments":[],"categories_sizes":[],"default_left":[0,0,0,0,0,0,0,0,0,0,0,0,0,0,0,0,0,0,0,0,0,0,0,0,0,0,0,0,0,0,0],"id":24,"left_children":[1,3,5,7,9,11,13,15,17,19,21,23,25,27,29,-1,-1,-1,-1,-1,-1,-1,-1,-1,-1,-1,-1,-1,-1,-1,-1],"loss_changes":[3.291021E2,2.378012E1,1.1027109E2,6.554779E0,6.747383E0,2.0687057E1,4.0325974E1,4.0154495E0,3.3034458E0,5.5071526E0,5.201805E0,1.7404163E1,1.9228165E1,6.582947E0,2.2063614E1,0E0,0E0,0E0,0E0,0E0,0E0,0E0,0E0,0E0,0E0,0E0,0E0,0E0,0E0,0E0,0E0],"parents":[2147483647,0,0,1,1,2,2,3,3,4,4,5,5,6,6,7,7,8,8,9,9,10,10,11,11,12,12,13,13,14,14],"right_children":[2,4,6,8,10,12,14,16,18,20,22,24,26,28,30,-1,-1,-1,-1,-1,-1,-1,-1,-1,-1,-1,-1,-1,-1,-1,-1],"split_conditions":[5.183638E1,-1.9227997E2,4.1085013E2,1.4754512E3,1E0,1.984231E2,6.46642E2,1.75E0,-2.9457355E2,1.5964167E3,3.692912E1,1.9552817E3,1.6623058E3,1.6097253E3,1.1E0,-1.9927036E-2,-4.394028E-2,-1.7998468E-2,-8.612532E-3,-9.5572835E-3,-3.2020833E-3,-1.2252654E-2,-3.342729E-2,2.9812094E-3,2.7571905E-2,2.5599299E-2,9.860019E-3,5.319205E-2,2.9570261E-2,7.175413E-2,2.0281756E-1],"split_indices":[2,2,2,0,6,2,2,3,2,0,2,0,0,0,4,0,0,0,0,0,0,0,0,0,0,0,0,0,0,0,0],"split_type":[0,0,0,0,0,0,0,0,0,0,0,0,0,0,0,0,0,0,0,0,0,0,0,0,0,0,0,0,0,0,0],"sum_hessian":[5.388E3,2.957E3,2.431E3,1.119E3,1.838E3,2.143E3,2.88E2,7.2E2,3.99E2,1.388E3,4.5E2,1.199E3,9.44E2,2.42E2,4.6E1,7.02E2,1.8E1,1.63E2,2.36E2,7.67E2,6.21E2,4.19E2,3.1E1,1.123E3,7.6E1,2.75E2,6.69E2,3.7E1,2.05E2,4.3E1,3E0],"tree_param":{"num_deleted":"0","num_feature":"7","num_nodes":"31","size_leaf_vector":"1"}},{"base_weights":[-8.683596E-3,4.2184693E-1,-6.928595E-2,4.99768E-2,8.522014E-1,-2.1317725E-1,7.070037E-2,1.1261193E-1,-8.248307E-1,7.9122305E-1,3.3556626E0,1.0780003E-1,-2.4362913E-1,2.8610936E-1,-8.349372E-2,7.580782E-4,3.0420044E-2,-5.33108E-2,-9.814161E-3,1.9353817E-1,3.7878457E-2,1.8551663E-1,2.8191088E-2,-2.9777612E-3,2.5466133E-2,-1.89019E-2,-9.760915E-3,6.555742E-3,2.4775034E-2,-5.0674885E-4,-1.3150278E-2],"categories":[],"categories_nodes":[],"categories_segments":[],"categories_sizes":[],"default_left":[0,0,0,0,0,0,0,0,0,0,0,0,0,0,0,0,0,0,0,0,0,0,0,0,0,0,0,0,0,0,0],"id":25,"left_children":[1,3,5,7,9,11,13,15,17,19,21,23,25,27,29,-1,-1,-1,-1,-1,-1,-1,-1,-1,-1,-1,-1,-1,-1,-1,-1],"loss_changes":[1.4104282E2,1.0661119E2,9.550625E1,1.9692595E1,4.4101196E1,2.2892303E1,7.985929E1,1.6162199E1,3.3057995E0,2.8007324E1,4.411888E0,1.3716284E1,1.3767502E1,3.242424E1,1.8419456E1,0E0,0E0,0E0,0E0,0E0,0E0,0E0,0E0,0E0,0E0,0E0,0E0,0E0,0E0,0E0,0E0],"parents":[2147483647,0,0,1,1,2,2,3,3,4,4,5,5,6,6,7,7,8,8,9,9,10,10,11,11,12,12,13,13,14,14],"right_children":[2,4,6,8,10,12,14,16,18,20,22,24,26,28,30,-1,-1,-1,-1,-1,-1,-1,-1,-1,-1,-1,-1,-1,-1,-1,-1],"split_conditions":[1.3476182E3,1.4523876E3,1.6263982E3,9.5E-1,2.4E0,1.3952996E3,1.648007E3,1.3952996E3,1.2857143E0,9.8055743E2,2.0553164E3,1.3786919E3,1.3874528E3,1.813956E3,1E0,7.580782E-4,3.0420044E-2,-5.33108E-2,-9.814161E-3,1.9353817E-1,3.7878457E-2,1.8551663E-1,2.8191088E-2,-2.9777612E-3,2.5466133E-2,-1.89019E-2,-9.760915E-3,6.555742E-3,2.4775034E-2,-5.0674885E-4,-1.3150278E-2],"split_indices":[1,0,0,5,5,1,1,0,5,1,0,1,0,0,6,0,0,0,0,0,0,0,0,0,0,0,0,0,0,0,0],"split_type":[0,0,0,0,0,0,0,0,0,0,0,0,0,0,0,0,0,0,0,0,0,0,0,0,0,0,0,0,0,0,0],"sum_hessian":[5.405E3,6.66E2,4.739E3,3.58E2,3.08E2,2.337E3,2.402E3,3.35E2,2.3E1,3.02E2,6E0,2.02E2,2.135E3,1.002E3,1.4E3,2.81E2,5.4E1,1.6E1,7E0,2E0,3E2,5E0,1E0,1.43E2,5.9E1,5.63E2,1.572E3,5.77E2,4.25E2,9.95E2,4.05E2],"tree_param":{"num_deleted":"0","num_feature":"7","num_nodes":"31","size_leaf_vector":"1"}},{"base_weights":[1.1563358E-2,-1.9102196E-1,2.8368008E-1,-3.2058194E-1,-1.1970583E-1,2.1931009E-1,1.0597919E0,-4.065139E-1,-2.673452E-1,4.914049E-1,-1.2494014E-1,1.0826798E-1,3.404109E-1,2.4990666E-1,9.62028E-1,-2.2457851E-2,-1.2910283E-2,-1.0192527E-2,-1.9526443E-2,1.4157929E-3,4.981703E-2,-1.7114192E-2,-5.509449E-3,7.910357E-2,5.0045876E-3,2.859397E-2,1.298052E-2,3.9879587E-2,9.286014E-2],"categories":[],"categories_nodes":[],"categories_segments":[],"categories_sizes":[],"default_left":[0,0,0,0,0,0,0,0,0,0,0,0,0,0,0,0,0,0,0,0,0,0,0,0,0,0,0,0,0],"id":26,"left_children":[1,3,5,7,9,11,13,15,17,19,21,23,25,-1,27,-1,-1,-1,-1,-1,-1,-1,-1,-1,-1,-1,-1,-1,-1],"loss_changes":[2.9747284E2,2.8496025E1,1.1469368E2,4.8424225E0,6.4126434E0,2.8534111E1,6.236049E1,2.450531E0,5.187397E0,3.8444352E0,6.268265E0,1.3073204E1,1.8789093E1,0E0,2.3718704E1,0E0,0E0,0E0,0E0,0E0,0E0,0E0,0E0,0E0,0E0,0E0,0E0,0E0,0E0],"parents":[2147483647,0,0,1,1,2,2,3,3,4,4,5,5,6,6,7,7,8,8,9,9,10,10,11,11,12,12,14,14],"right_children":[2,4,6,8,10,12,14,16,18,20,22,24,26,-1,28,-1,-1,-1,-1,-1,-1,-1,-1,-1,-1,-1,-1,-1,-1],"split_conditions":[6.542232E1,-1.9227997E2,4.7595395E2,-3.5532812E2,1.6666667E-1,2.0560023E2,9.8055743E2,1.4453413E3,1.4E0,2.806016E0,1.3226329E3,1.1044824E3,1.368191E3,2.4990666E-1,7.434934E2,-2.2457851E-2,-1.2910283E-2,-1.0192527E-2,-1.9526443E-2,1.4157929E-3,4.981703E-2,-1.7114192E-2,-5.509449E-3,7.910357E-2,5.0045876E-3,2.859397E-2,1.298052E-2,3.9879587E-2,9.286014E-2],"split_indices":[2,2,2,2,4,2,1,0,3,2,1,0,1,0,2,0,0,0,0,0,0,0,0,0,0,0,0,0,0],"split_type":[0,0,0,0,0,0,0,0,0,0,0,0,0,0,0,0,0,0,0,0,0,0,0,0,0,0,0,0,0],"sum_hessian":[5.394E3,3.092E3,2.302E3,1.096E3,1.996E3,2.127E3,1.75E2,4.16E2,6.8E2,1.6E1,1.98E3,1.111E3,1.016E3,3E0,1.72E2,3.21E2,9.5E1,4.51E2,2.29E2,9E0,7E0,1.24E2,1.856E3,5E0,1.106E3,2.61E2,7.55E2,1.47E2,2.5E1],"tree_param":{"num_deleted":"0","num_feature":"7","num_nodes":"29","size_leaf_vector":"1"}},{"base_weights":[6.0466345E-4,-2.1567024E-1,2.5172752E-1,-3.0211705E-1,-1.3040878E-1,1.758792E-1,8.1163955E-1,-2.6638713E-1,-4.2626145E-1,-8.9880064E-2,-2.0495632E-1,8.8948876E-2,2.9083583E-1,2.104353E-1,7.86039E-1,-2.1249508E-2,-1.145229E-2,-2.1829141E-2,4.4615944E-3,-6.1291507E-3,6.291414E-3,-4.565623E-2,-9.667048E-3,8.496533E-3,-6.5971427E-3,3.2508973E-2,1.1198666E-2,3.5411596E-2,7.728509E-2],"categories":[],"categories_nodes":[],"categories_segments":[],"categories_sizes":[],"default_left":[0,0,0,0,0,0,0,0,0,0,0,0,0,0,0,0,0,0,0,0,0,0,0,0,0,0,0,0,0],"id":27,"left_children":[1,3,5,7,9,11,13,15,17,19,21,23,25,-1,27,-1,-1,-1,-1,-1,-1,-1,-1,-1,-1,-1,-1,-1,-1],"loss_changes":[2.9752234E2,2.1608963E1,1.0741588E2,6.2932587E0,4.435728E0,2.226101E1,2.2456314E1,6.5710754E0,1.7975616E0,6.815447E0,3.9983673E0,2.2815798E1,2.2856544E1,0E0,1.647113E1,0E0,0E0,0E0,0E0,0E0,0E0,0E0,0E0,0E0,0E0,0E0,0E0,0E0,0E0],"parents":[2147483647,0,0,1,1,2,2,3,3,4,4,5,5,6,6,7,7,8,8,9,9,10,10,11,11,12,12,14,14],"right_children":[2,4,6,8,10,12,14,16,18,20,22,24,26,-1,28,-1,-1,-1,-1,-1,-1,-1,-1,-1,-1,-1,-1,-1,-1],"split_conditions":[4.1662243E1,-1.4633168E2,4.1085013E2,1E0,1.6E0,1.984231E2,9.8055743E2,1.2221793E3,1.8510522E3,1.7396588E3,1.3018486E3,1E0,1.5299146E3,2.104353E-1,7.434934E2,-2.1249508E-2,-1.145229E-2,-2.1829141E-2,4.4615944E-3,-6.1291507E-3,6.291414E-3,-4.565623E-2,-9.667048E-3,8.496533E-3,-6.5971427E-3,3.2508973E-2,1.1198666E-2,3.5411596E-2,7.728509E-2],"split_indices":[2,2,2,6,3,2,1,0,0,0,1,6,0,0,2,0,0,0,0,0,0,0,0,0,0,0,0,0,0],"split_type":[0,0,0,0,0,0,0,0,0,0,0,0,0,0,0,0,0,0,0,0,0,0,0,0,0,0,0,0,0],"sum_hessian":[5.476E3,2.942E3,2.534E3,1.459E3,1.483E3,2.233E3,3.01E2,1.136E3,3.23E2,9.63E2,5.2E2,1.273E3,9.6E2,1E0,3E2,2.14E2,9.22E2,3.17E2,6E0,8.37E2,1.26E2,7E0,5.13E2,9.32E2,3.41E2,1.49E2,8.11E2,2.74E2,2.6E1],"tree_param":{"num_deleted":"0","num_feature":"7","num_nodes":"29","size_leaf_vector":"1"}},{"base_weights":[6.994322E-4,-1.17930226E-1,3.9444762E-1,-1.9324674E-1,4.904681E-2,3.4177566E-1,1.3685602E0,-2.9619652E-1,-1.2943362E-1,2.4976027E-1,-1.6914323E-2,2.826528E-1,6.029767E-1,1.1786643E0,2.4017778E-1,-2.2475732E-2,-1.3586636E-2,5.2266937E-2,-6.636591E-3,5.848141E-3,2.2160074E-2,-3.0772972E-3,1.7846745E-2,2.3976363E-2,9.861103E-3,-7.335565E-2,3.1949155E-2,4.4711255E-2,1.4871757E-1],"categories":[],"categories_nodes":[],"categories_segments":[],"categories_sizes":[],"default_left":[0,0,0,0,0,0,0,0,0,0,0,0,0,0,0,0,0,0,0,0,0,0,0,0,0,0,0,0,0],"id":28,"left_children":[1,3,5,7,9,11,13,15,17,19,21,23,25,27,-1,-1,-1,-1,-1,-1,-1,-1,-1,-1,-1,-1,-1,-1,-1],"loss_changes":[2.5338367E2,5.2441193E1,6.380461E1,1.8793411E1,1.7185627E1,1.8164444E1,3.5486656E1,3.924034E0,6.9288597E0,8.138153E0,1.6277472E1,1.6236404E1,1.7178131E1,2.8620766E1,0E0,0E0,0E0,0E0,0E0,0E0,0E0,0E0,0E0,0E0,0E0,0E0,0E0,0E0,0E0],"parents":[2147483647,0,0,1,1,2,2,3,3,4,4,5,5,6,6,7,7,8,8,9,9,10,10,11,11,12,12,13,13],"right_children":[2,4,6,8,10,12,14,16,18,20,22,24,26,28,-1,-1,-1,-1,-1,-1,-1,-1,-1,-1,-1,-1,-1,-1,-1],"split_conditions":[1.984231E2,4.1662243E1,5.941327E2,-1.9227997E2,-1.7777778E-1,4.1085013E2,1.1E0,1.1864841E3,1.0993978E3,1.8333334E0,1.813956E3,1.6640527E3,1.4556854E3,1.2249148E3,2.4017778E-1,-2.2475732E-2,-1.3586636E-2,5.2266937E-2,-6.636591E-3,5.848141E-3,2.2160074E-2,-3.0772972E-3,1.7846745E-2,2.3976363E-2,9.861103E-3,-7.335565E-2,3.1949155E-2,4.4711255E-2,1.4871757E-1],"split_indices":[2,2,2,2,5,2,4,0,1,4,1,0,0,1,0,0,0,0,0,0,0,0,0,0,0,0,0,0,0],"split_type":[0,0,0,0,0,0,0,0,0,0,0,0,0,0,0,0,0,0,0,0,0,0,0,0,0,0,0,0,0],"sum_hessian":[5.422E3,4.167E3,1.255E3,2.872E3,1.295E3,1.192E3,6.3E1,1.097E3,1.775E3,3.2E2,9.75E2,9.74E2,2.18E2,6.1E1,2E0,1.48E2,9.49E2,4E0,1.771E3,1.91E2,1.29E2,8.72E2,1.03E2,2.93E2,6.81E2,3E0,2.15E2,5.4E1,7E0],"tree_param":{"num_deleted":"0","num_feature":"7","num_nodes":"29","size_leaf_vector":"1"}},{"base_weights":[6.839172E-5,-8.313074E-2,5.583086E-1,-2.2132295E-1,7.38555E-2,4.5807937E-1,1.5156982E0,-3.7623718E-1,-1.8670724E-1,1.3583097E0,6.792726E-2,1.2528466E-1,4.4752672E-1,2.2454582E-1,1.3011495E0,1.1504565E-2,-1.9390065E-2,-1.8322261E-2,-8.618702E-3,7.7445164E-2,-6.42579E-3,9.70092E-3,1.7356856E-3,1.8813552E-2,3.590176E-2,-3.3530008E-2,7.422071E-2],"categories":[],"categories_nodes":[],"categories_segments":[],"categories_sizes":[],"default_left":[0,0,0,0,0,0,0,0,0,0,0,0,0,0,0,0,0,0,0,0,0,0,0,0,0,0,0],"id":29,"left_children":[1,3,5,7,9,11,13,15,17,19,21,-1,23,-1,25,-1,-1,-1,-1,-1,-1,-1,-1,-1,-1,-1,-1],"loss_changes":[2.5136191E2,1.0218943E2,6.6471115E1,1.3306442E1,1.655518E1,1.2347443E1,3.570717E1,3.3023071E0,5.1642075E0,3.1748905E0,9.167095E0,0E0,1.1860184E1,0E0,2.384201E1,0E0,0E0,0E0,0E0,0E0,0E0,0E0,0E0,0E0,0E0,0E0,0E0],"parents":[2147483647,0,0,1,1,2,2,3,3,4,4,5,5,6,6,7,7,8,8,9,9,10,10,12,12,14,14],"right_children":[2,4,6,8,10,12,14,16,18,20,22,-1,24,-1,26,-1,-1,-1,-1,-1,-1,-1,-1,-1,-1,-1,-1],"split_conditions":[2.9902307E2,-1.0478415E1,5.941327E2,-3.4503592E2,1.1048319E3,1.352788E3,1.0167668E3,9.9287225E2,1.21906E3,1.1E0,1.3952996E3,1.2528466E-1,1.9198519E3,2.2454582E-1,1.7214255E3,1.1504565E-2,-1.9390065E-2,-1.8322261E-2,-8.618702E-3,7.7445164E-2,-6.42579E-3,9.70092E-3,1.7356856E-3,1.8813552E-2,3.590176E-2,-3.3530008E-2,7.422071E-2],"split_indices":[2,2,2,2,0,0,1,0,0,3,1,0,0,0,0,0,0,0,0,0,0,0,0,0,0,0,0],"split_type":[0,0,0,0,0,0,0,0,0,0,0,0,0,0,0,0,0,0,0,0,0,0,0,0,0,0,0],"sum_hessian":[5.409E3,4.708E3,7.01E2,2.504E3,2.204E3,6.36E2,6.5E1,4.55E2,2.049E3,9E0,2.195E3,2E0,6.34E2,3E0,6.2E1,8E0,4.47E2,1.49E2,1.9E3,8E0,1E0,4.56E2,1.739E3,5.04E2,1.3E2,5E0,5.7E1],"tree_param":{"num_deleted":"0","num_feature":"7","num_nodes":"27","size_leaf_vector":"1"}},{"base_weights":[6.345545E-3,4.550056E-1,-3.8123425E-2,2.2093643E-1,1.0750788E0,-2.0508507E-1,4.1114397E-2,-2.5031183E-2,5.622097E-1,2.4438398E0,8.69667E-1,-1.858938E-1,-5.364328E-1,2.7225506E-1,-4.6210717E-2,4.027624E-2,-5.380604E-3,3.9879393E-2,3.4397063E-3,1.7816463E-1,6.469468E-2,3.450851E-2,1.2800825E-1,-5.0354856E-3,-1.3631276E-2,4.4052403E-2,-2.9066354E-2,8.593002E-3,3.367255E-2,-4.8169824E-3,1.1447914E-2],"categories":[],"categories_nodes":[],"categories_segments":[],"categories_sizes":[],"default_left":[0,0,0,0,0,0,0,0,0,0,0,0,0,0,0,0,0,0,0,0,0,0,0,0,0,0,0,0,0,0,0],"id":30,"left_children":[1,3,5,7,9,11,13,15,17,19,21,23,25,27,29,-1,-1,-1,-1,-1,-1,-1,-1,-1,-1,-1,-1,-1,-1,-1,-1],"loss_changes":[1.0929322E2,7.133204E1,6.593508E1,3.028697E1,3.5499893E1,1.0027855E1,6.823822E1,1.4420386E1,1.7395523E1,1.678804E1,3.4017235E1,1.115044E1,6.0186005E0,3.7137497E1,3.3845303E1,0E0,0E0,0E0,0E0,0E0,0E0,0E0,0E0,0E0,0E0,0E0,0E0,0E0,0E0,0E0,0E0],"parents":[2147483647,0,0,1,1,2,2,3,3,4,4,5,5,6,6,7,7,8,8,9,9,10,10,11,11,12,12,13,13,14,14],"right_children":[2,4,6,8,10,12,14,16,18,20,22,24,26,28,30,-1,-1,-1,-1,-1,-1,-1,-1,-1,-1,-1,-1,-1,-1,-1,-1],"split_conditions":[1.2789211E3,1.5E0,1.4980988E3,1.3952996E3,1.0820828E3,7E-1,1.5163846E3,1.0167668E3,1.5460966E3,1.75E0,1.9198519E3,1.5460966E3,1E0,1.821378E3,1.9241792E3,4.027624E-2,-5.380604E-3,3.9879393E-2,3.4397063E-3,1.7816463E-1,6.469468E-2,3.450851E-2,1.2800825E-1,-5.0354856E-3,-1.3631276E-2,4.4052403E-2,-2.9066354E-2,8.593002E-3,3.367255E-2,-4.8169824E-3,1.1447914E-2],"split_indices":[1,3,0,0,1,5,1,1,0,3,0,1,3,0,0,0,0,0,0,0,0,0,0,0,0,0,0,0,0,0,0],"split_type":[0,0,0,0,0,0,0,0,0,0,0,0,0,0,0,0,0,0,0,0,0,0,0,0,0,0,0,0,0,0,0],"sum_hessian":[5.474E3,4.93E2,4.981E3,3.59E2,1.34E2,1.603E3,3.378E3,2.09E2,1.5E2,1.6E1,1.18E2,1.517E3,8.6E1,9.26E2,2.452E3,1.8E1,1.91E2,1.01E2,4.9E1,7E0,9E0,1.08E2,1E1,7.67E2,7.5E2,2E0,8.4E1,7.42E2,1.84E2,2.075E3,3.77E2],"tree_param":{"num_deleted":"0","num_feature":"7","num_nodes":"31","size_leaf_vector":"1"}},{"base_weights":[8.341889E-3,3.923538E-1,-3.0878298E-2,8.542173E-2,8.3120155E-1,-9.634977E-2,1.9758591E-1,-1.9190872E-1,3.1860486E-1,2.1301141E-1,7.425921E-1,4.010311E-3,-1.763398E-1,6.383228E-1,7.676444E-2,-5.360958E-3,-3.2492507E-2,3.944967E-2,9.386755E-3,4.0282566E-2,-4.4528227E-2,-1.2524257E-2,2.8044505E-3,-1.3787623E-2,-4.9832887E-3,2.6873324E-2,6.439828E-2,8.8602435E-3,-7.2803223E-3],"categories":[],"categories_nodes":[],"categories_segments":[],"categories_sizes":[],"default_left":[0,0,0,0,0,0,0,0,0,0,0,0,0,0,0,0,0,0,0,0,0,0,0,0,0,0,0,0,0],"id":31,"left_children":[1,3,5,7,9,11,13,15,17,-1,19,21,23,25,27,-1,-1,-1,-1,-1,-1,-1,-1,-1,-1,-1,-1,-1,-1],"loss_changes":[8.2236244E1,6.799374E1,7.4080376E1,1.9409779E1,5.953572E1,3.0924995E1,5.8614758E1,5.167869E0,9.788425E0,0E0,2.1718048E1,2.2632088E1,1.6269707E1,1.4653595E1,1.939343E1,0E0,0E0,0E0,0E0,0E0,0E0,0E0,0E0,0E0,0E0,0E0,0E0,0E0,0E0],"parents":[2147483647,0,0,1,1,2,2,3,3,4,4,5,5,6,6,7,7,8,8,10,10,11,11,12,12,13,13,14,14],"right_children":[2,4,6,8,10,12,14,16,18,-1,20,22,24,26,28,-1,-1,-1,-1,-1,-1,-1,-1,-1,-1,-1,-1,-1,-1],"split_conditions":[1.2789211E3,1.2222222E0,1.821378E3,1.3153208E3,9.8055743E2,1.5496257E3,1.5715768E3,1E0,1.0893767E3,2.1301141E-1,1.6E0,1.352788E3,1.5460966E3,1.9512003E3,1E0,-5.360958E-3,-3.2492507E-2,3.944967E-2,9.386755E-3,4.0282566E-2,-4.4528227E-2,-1.2524257E-2,2.8044505E-3,-1.3787623E-2,-4.9832887E-3,2.6873324E-2,6.439828E-2,8.8602435E-3,-7.2803223E-3],"split_indices":[1,3,0,0,1,1,1,4,1,0,4,0,0,0,6,0,0,0,0,0,0,0,0,0,0,0,0,0,0],"split_type":[0,0,0,0,0,0,0,0,0,0,0,0,0,0,0,0,0,0,0,0,0,0,0,0,0,0,0,0,0],"sum_hessian":[5.456E3,5.05E2,4.951E3,2.98E2,2.07E2,3.849E3,1.102E3,1.36E2,1.62E2,4E0,2.03E2,1.707E3,2.142E3,2.36E2,8.66E2,1.16E2,2E1,3.4E1,1.28E2,1.96E2,7E0,2.89E2,1.418E3,9.31E2,1.211E3,2.06E2,3E1,5.97E2,2.69E2],"tree_param":{"num_deleted":"0","num_feature":"7","num_nodes":"29","size_leaf_vector":"1"}},{"base_weights":[1.4681814E-2,-1.10651106E-1,3.1479394E-1,-2.0468514E-1,-3.0411769E-2,2.7666283E-1,1.1379477E0,-3.015948E-1,-1.6751271E-1,7.6978797E-1,-3.8298707E-2,1.6793182E-1,4.4468334E-1,2.3045664E-1,9.66602E-1,-2.0915972E-2,-1.3169634E-2,-6.7736045E-3,-1.3114691E-2,1.1384822E-3,9.3748465E-2,-2.720778E-3,1.418673E-2,2.09419E-2,1.3740048E-3,1.8843355E-2,4.7421526E-2,-3.330684E-2,6.1432462E-2],"categories":[],"categories_nodes":[],"categories_segments":[],"categories_sizes":[],"default_left":[0,0,0,0,0,0,0,0,0,0,0,0,0,0,0,0,0,0,0,0,0,0,0,0,0,0,0,0,0],"id":32,"left_children":[1,3,5,7,9,11,13,15,17,19,21,23,25,-1,27,-1,-1,-1,-1,-1,-1,-1,-1,-1,-1,-1,-1,-1,-1],"loss_changes":[2.0313284E2,2.8710037E1,4.9481644E1,6.217514E0,1.293832E1,2.7669533E1,3.66213E1,1.979866E0,3.7814865E0,1.6279348E1,1.0570062E1,3.257629E1,1.9904907E1,0E0,2.9968819E1,0E0,0E0,0E0,0E0,0E0,0E0,0E0,0E0,0E0,0E0,0E0,0E0,0E0,0E0],"parents":[2147483647,0,0,1,1,2,2,3,3,4,4,5,5,6,6,7,7,8,8,9,9,10,10,11,11,12,12,14,14],"right_children":[2,4,6,8,10,12,14,16,18,20,22,24,26,-1,28,-1,-1,-1,-1,-1,-1,-1,-1,-1,-1,-1,-1,-1,-1],"split_conditions":[1.5377718E2,-1.0035338E2,5.941327E2,-3.4503592E2,1.1048319E3,3.0816272E2,1.5936807E3,1.1864841E3,1E0,1.0993978E3,1.9512003E3,1.6623058E3,1.9512003E3,2.3045664E-1,1.4E0,-2.0915972E-2,-1.3169634E-2,-6.7736045E-3,-1.3114691E-2,1.1384822E-3,9.3748465E-2,-2.720778E-3,1.418673E-2,2.09419E-2,1.3740048E-3,1.8843355E-2,4.7421526E-2,-3.330684E-2,6.1432462E-2],"split_indices":[2,2,2,2,0,2,0,0,6,0,0,0,0,0,3,0,0,0,0,0,0,0,0,0,0,0,0,0,0],"split_type":[0,0,0,0,0,0,0,0,0,0,0,0,0,0,0,0,0,0,0,0,0,0,0,0,0,0,0,0,0],"sum_hessian":[5.398E3,3.808E3,1.59E3,1.752E3,2.056E3,1.521E3,6.9E1,4.83E2,1.269E3,1.9E1,2.037E3,9.25E2,5.96E2,2E0,6.7E1,1.16E2,3.67E2,9.51E2,3.18E2,1.2E1,7E0,1.941E3,9.6E1,3.31E2,5.94E2,5.27E2,6.9E1,9E0,5.8E1],"tree_param":{"num_deleted":"0","num_feature":"7","num_nodes":"29","size_leaf_vector":"1"}},{"base_weights":[-5.109208E-3,-1.3171186E-1,1.9862674E-1,-2.1728194E-1,-6.8831675E-2,1.5043737E-1,7.153157E-1,-2.989854E-1,-1.6101296E-1,3.6454624E-1,-7.568008E-2,3.962848E-1,1.1003569E-1,1.5174134E0,5.3392905E-1,1.0735168E-2,-1.547717E-2,1.685069E-2,-8.436994E-3,1.1627761E-3,8.545833E-2,-3.2515617E-3,-1.48031255E-2,1.5687844E-2,7.280292E-2,2.5468117E-3,1.515711E-2,2.5186596E-2,1.04771785E-1,6.026367E-2,1.2512929E-2],"categories":[],"categories_nodes":[],"categories_segments":[],"categories_sizes":[],"default_left":[0,0,0,0,0,0,0,0,0,0,0,0,0,0,0,0,0,0,0,0,0,0,0,0,0,0,0,0,0,0,0],"id":33,"left_children":[1,3,5,7,9,11,13,15,17,19,21,23,25,27,29,-1,-1,-1,-1,-1,-1,-1,-1,-1,-1,-1,-1,-1,-1,-1,-1],"loss_changes":[1.4000085E2,1.7970882E1,5.159555E1,6.420334E0,5.732773E0,1.8817528E1,2.4736359E1,3.1998978E0,3.2802334E0,1.3554205E1,4.410631E0,2.280571E1,1.8631393E1,1.7434326E1,2.7357143E1,0E0,0E0,0E0,0E0,0E0,0E0,0E0,0E0,0E0,0E0,0E0,0E0,0E0,0E0,0E0,0E0],"parents":[2147483647,0,0,1,1,2,2,3,3,4,4,5,5,6,6,7,7,8,8,9,9,10,10,11,11,12,12,13,13,14,14],"right_children":[2,4,6,8,10,12,14,16,18,20,22,24,26,28,30,-1,-1,-1,-1,-1,-1,-1,-1,-1,-1,-1,-1,-1,-1,-1,-1],"split_conditions":[9.285301E1,-1.4633168E2,4.7595395E2,1.4127769E3,-1.3333334E0,1.2516361E3,1.0820828E3,9.9287225E2,-1.9E0,1.7284725E3,8.135045E1,1.2238508E3,3.0816272E2,1.2222222E0,5.056795E2,1.0735168E-2,-1.547717E-2,1.685069E-2,-8.436994E-3,1.1627761E-3,8.545833E-2,-3.2515617E-3,-1.48031255E-2,1.5687844E-2,7.280292E-2,2.5468117E-3,1.515711E-2,2.5186596E-2,1.04771785E-1,6.026367E-2,1.2512929E-2],"split_indices":[2,2,2,0,5,1,1,0,5,0,2,1,2,3,2,0,0,0,0,0,0,0,0,0,0,0,0,0,0,0,0],"split_type":[0,0,0,0,0,0,0,0,0,0,0,0,0,0,0,0,0,0,0,0,0,0,0,0,0,0,0,0,0,0,0],"sum_hessian":[5.426E3,3.347E3,2.079E3,1.416E3,1.931E3,1.903E3,1.76E2,5.75E2,8.41E2,2.9E1,1.902E3,2.67E2,1.636E3,3.1E1,1.45E2,1.1E1,5.64E2,1.2E1,8.29E2,2.4E1,5E0,1.816E3,8.6E1,2.49E2,1.8E1,1.254E3,3.82E2,1.2E1,1.9E1,4.2E1,1.03E2],"tree_param":{"num_deleted":"0","num_feature":"7","num_nodes":"31","size_leaf_vector":"1"}},{"base_weights":[8.796518E-3,-1.2859051E-1,2.2295974E-1,-2.1890265E-1,-8.1845045E-2,2.7225177E0,2.1086296E-1,-3.7493145E-1,-1.91332E-1,-1.4547774E-1,-3.8107723E-2,-5.7529587E-2,3.291818E0,2.0455031E-1,3.4315095E0,-1.9984702E-2,4.516856E-3,-8.07901E-3,-1.613429E-2,-5.1492504E-3,-1.7699294E-2,7.832905E-2,-2.1585363E-3,7.190742E-2,1.9811472E-1,8.32027E-3,2.6972024E-2,4.9513634E-2,1.9409154E-1],"categories":[],"categories_nodes":[],"categories_segments":[],"categories_sizes":[],"default_left":[0,0,0,0,0,0,0,0,0,0,0,0,0,0,0,0,0,0,0,0,0,0,0,0,0,0,0,0,0],"id":34,"left_children":[1,3,5,7,9,11,13,15,17,19,21,-1,23,25,27,-1,-1,-1,-1,-1,-1,-1,-1,-1,-1,-1,-1,-1,-1],"loss_changes":[1.582469E2,1.3782246E1,6.2689865E1,4.67247E0,5.990427E0,2.6051277E1,4.1486916E1,1.9795685E0,3.6159515E0,7.705858E0,1.0339085E1,0E0,4.9471664E0,2.6538048E1,6.6085815E-2,0E0,0E0,0E0,0E0,0E0,0E0,0E0,0E0,0E0,0E0,0E0,0E0,0E0,0E0],"parents":[2147483647,0,0,1,1,2,2,3,3,4,4,5,5,6,6,7,7,8,8,9,9,10,10,12,12,13,13,14,14],"right_children":[2,4,6,8,10,12,14,16,18,20,22,-1,24,26,28,-1,-1,-1,-1,-1,-1,-1,-1,-1,-1,-1,-1,-1,-1],"split_conditions":[9.022691E1,-1.9227997E2,9.8055743E2,1.1864841E3,1.511681E3,1.1111111E-1,2.7E0,5E-2,1.9198519E3,4.75E-1,-1.6E0,-5.7529587E-2,3.7777779E-1,4.502279E2,1.8903204E3,-1.9984702E-2,4.516856E-3,-8.07901E-3,-1.613429E-2,-5.1492504E-3,-1.7699294E-2,7.832905E-2,-2.1585363E-3,7.190742E-2,1.9811472E-1,8.32027E-3,2.6972024E-2,4.9513634E-2,1.9409154E-1],"split_indices":[2,2,1,0,0,3,5,5,1,5,5,0,5,2,0,0,0,0,0,0,0,0,0,0,0,0,0,0,0],"split_type":[0,0,0,0,0,0,0,0,0,0,0,0,0,0,0,0,0,0,0,0,0,0,0,0,0,0,0,0,0],"sum_hessian":[5.376E3,3.275E3,2.101E3,1.115E3,2.16E3,9E0,2.092E3,1.65E2,9.5E2,8.78E2,1.282E3,1E0,8E0,2.089E3,3E0,1.57E2,8E0,7.77E2,1.73E2,7.31E2,1.47E2,3E0,1.279E3,3E0,5E0,1.877E3,2.12E2,1E0,2E0],"tree_param":{"num_deleted":"0","num_feature":"7","num_nodes":"29","size_leaf_vector":"1"}},{"base_weights":[-4.459897E-3,-1.3307293E-1,1.4052401E-1,-2.3763175E-1,-9.2438616E-2,9.252202E-2,4.8246068E-1,-1.9981751E-1,-3.7412626E-1,-8.261383E-2,-3.909651E-1,2.9879767E-1,6.451363E-2,1.4100927E-1,4.5827076E-1,-1.3861972E-2,-4.155914E-3,-2.1154186E-2,4.850756E-3,-5.2222754E-3,1.1302516E-3,4.465029E-2,-2.3393428E-2,-3.4284834E-3,2.7313873E-2,2.620001E-3,3.180227E-2,1.7871978E-2,4.8463702E-2],"categories":[],"categories_nodes":[],"categories_segments":[],"categories_sizes":[],"default_left":[0,0,0,0,0,0,0,0,0,0,0,0,0,0,0,0,0,0,0,0,0,0,0,0,0,0,0,0,0],"id":35,"left_children":[1,3,5,7,9,11,13,15,17,19,21,23,25,-1,27,-1,-1,-1,-1,-1,-1,-1,-1,-1,-1,-1,-1,-1,-1],"loss_changes":[1.0199742E2,1.2261936E1,4.2097347E1,4.0486183E0,6.0502243E0,1.2978313E1,1.6249344E1,5.696268E0,4.0871162E0,4.662182E0,6.892256E0,2.4541628E1,1.3661374E1,0E0,1.5699745E1,0E0,0E0,0E0,0E0,0E0,0E0,0E0,0E0,0E0,0E0,0E0,0E0,0E0,0E0],"parents":[2147483647,0,0,1,1,2,2,3,3,4,4,5,5,6,6,7,7,8,8,9,9,10,10,11,11,12,12,14,14],"right_children":[2,4,6,8,10,12,14,16,18,20,22,24,26,-1,28,-1,-1,-1,-1,-1,-1,-1,-1,-1,-1,-1,-1,-1,-1],"split_conditions":[4.1662243E1,-2.5431898E2,4.1085013E2,1.4E0,3.424076E1,1.245431E3,9.8055743E2,-3.5532812E2,1.9953765E3,-1.0478415E1,5E-1,1.1306422E3,2.0557307E3,1.4100927E-1,1.9512003E3,-1.3861972E-2,-4.155914E-3,-2.1154186E-2,4.850756E-3,-5.2222754E-3,1.1302516E-3,4.465029E-2,-2.3393428E-2,-3.4284834E-3,2.7313873E-2,2.620001E-3,3.180227E-2,1.7871978E-2,4.8463702E-2],"split_indices":[2,2,2,3,2,1,1,2,1,2,3,1,0,0,0,0,0,0,0,0,0,0,0,0,0,0,0,0,0],"split_type":[0,0,0,0,0,0,0,0,0,0,0,0,0,0,0,0,0,0,0,0,0,0,0,0,0,0,0,0,0],"sum_hessian":[5.468E3,2.898E3,2.57E3,8.09E2,2.089E3,2.255E3,3.15E2,6.36E2,1.73E2,2.024E3,6.5E1,2.68E2,1.987E3,2E0,3.13E2,3.81E2,2.55E2,1.57E2,1.6E1,1.677E3,3.47E2,3E0,6.2E1,1.08E2,1.6E2,1.947E3,4E1,2.63E2,5E1],"tree_param":{"num_deleted":"0","num_feature":"7","num_nodes":"29","size_leaf_vector":"1"}},{"base_weights":[-1.2205283E-2,-1.5940875E-1,1.1537124E-1,-2.7392218E-1,-1.333554E-1,9.304789E-2,1.1482296E0,2.757321E-1,-2.844122E-1,-2.9562613E-1,-1.1937187E-1,8.1743516E-2,8.052034E-1,2.0797823E-1,9.7395444E-1,2.9597295E-2,-2.6033873E-2,-1.9890225E-2,-1.2511856E-2,3.5340306E-3,-1.7895704E-2,3.0103207E-2,-6.2767114E-3,1.9037E-3,1.1148093E-2,7.981445E-2,2.6132016E-2,3.7735038E-2,1.5854771E-1],"categories":[],"categories_nodes":[],"categories_segments":[],"categories_sizes":[],"default_left":[0,0,0,0,0,0,0,0,0,0,0,0,0,0,0,0,0,0,0,0,0,0,0,0,0,0,0,0,0],"id":36,"left_children":[1,3,5,7,9,11,13,15,17,19,21,23,25,-1,27,-1,-1,-1,-1,-1,-1,-1,-1,-1,-1,-1,-1,-1,-1],"loss_changes":[1.01395645E2,7.402279E0,6.644946E1,2.7488976E0,4.563553E0,2.2644413E1,2.7448273E1,2.581861E0,1.5988617E0,3.7274761E0,8.408154E0,1.7164997E1,8.789211E0,0E0,2.5634624E1,0E0,0E0,0E0,0E0,0E0,0E0,0E0,0E0,0E0,0E0,0E0,0E0,0E0,0E0],"parents":[2147483647,0,0,1,1,2,2,3,3,4,4,5,5,6,6,7,7,8,8,9,9,10,10,11,11,12,12,14,14],"right_children":[2,4,6,8,10,12,14,16,18,20,22,24,26,-1,28,-1,-1,-1,-1,-1,-1,-1,-1,-1,-1,-1,-1,-1,-1],"split_conditions":[-1.0478415E1,-3.4503592E2,5.941327E2,9.9287225E2,1.2221793E3,2.0557307E3,1.5936807E3,-6E-1,1.1724862E3,1.1932513E3,1.352788E3,2.9116757E2,1.6640527E3,2.0797823E-1,2.5E0,2.9597295E-2,-2.6033873E-2,-1.9890225E-2,-1.2511856E-2,3.5340306E-3,-1.7895704E-2,3.0103207E-2,-6.2767114E-3,1.9037E-3,1.1148093E-2,7.981445E-2,2.6132016E-2,3.7735038E-2,1.5854771E-1],"split_indices":[2,2,2,0,0,0,0,5,0,1,1,2,1,0,5,0,0,0,0,0,0,0,0,0,0,0,0,0,0],"split_type":[0,0,0,0,0,0,0,0,0,0,0,0,0,0,0,0,0,0,0,0,0,0,0,0,0,0,0,0,0],"sum_hessian":[5.397E3,2.506E3,2.891E3,4.62E2,2.044E3,2.831E3,6E1,8E0,4.54E2,1.6E2,1.884E3,2.788E3,4.3E1,2E0,5.8E1,6E0,2E0,1.02E2,3.52E2,2.3E1,1.37E2,1.5E1,1.869E3,2.131E3,6.57E2,1E1,3.3E1,5.4E1,4E0],"tree_param":{"num_deleted":"0","num_feature":"7","num_nodes":"29","size_leaf_vector":"1"}},{"base_weights":[-3.0985384E-4,-1.2489762E-1,1.5570836E-1,-2.0947337E-1,-7.326065E-2,1.2356034E-1,5.524483E-1,-1.7781484E-1,-3.2229367E-1,-4.4292565E-2,-1.6041583E-1,2.9386947E-1,7.7144E-2,1.8622938E-1,4.7664714E-1,-7.269417E-3,-1.43873785E-2,-1.7203934E-2,3.904583E-2,-3.3963665E-3,2.6444858E-3,-9.3296645E-3,2.6649568E-2,1.0457076E-2,3.3899378E-2,6.3547627E-3,-3.897246E-3,1.3164795E-2,4.5222145E-2],"categories":[],"categories_nodes":[],"categories_segments":[],"categories_sizes":[],"default_left":[0,0,0,0,0,0,0,0,0,0,0,0,0,0,0,0,0,0,0,0,0,0,0,0,0,0,0,0,0],"id":37,"left_children":[1,3,5,7,9,11,13,15,17,19,21,23,25,-1,27,-1,-1,-1,-1,-1,-1,-1,-1,-1,-1,-1,-1,-1,-1],"loss_changes":[1.0486472E2,1.3058086E1,3.0410934E1,3.950161E0,4.6810246E0,1.7465897E1,4.084544E1,3.0874634E0,6.161274E0,3.225323E0,8.487175E0,1.5196072E1,1.3525387E1,0E0,1.5708744E1,0E0,0E0,0E0,0E0,0E0,0E0,0E0,0E0,0E0,0E0,0E0,0E0,0E0,0E0],"parents":[2147483647,0,0,1,1,2,2,3,3,4,4,5,5,6,6,7,7,8,8,9,9,10,10,11,11,12,12,14,14],"right_children":[2,4,6,8,10,12,14,16,18,20,22,24,26,-1,28,-1,-1,-1,-1,-1,-1,-1,-1,-1,-1,-1,-1,-1,-1],"split_conditions":[5.3201427E1,-1.9227997E2,4.7595395E2,1E0,1E0,1.2E0,9.8055743E2,1.4E0,-1.9475096E2,2E0,2.6E0,1.1E0,1E0,1.8622938E-1,7.1428573E-1,-7.269417E-3,-1.43873785E-2,-1.7203934E-2,3.904583E-2,-3.3963665E-3,2.6444858E-3,-9.3296645E-3,2.6649568E-2,1.0457076E-2,3.3899378E-2,6.3547627E-3,-3.897246E-3,1.3164795E-2,4.5222145E-2],"split_indices":[2,2,2,6,6,3,1,3,2,4,3,3,6,0,4,0,0,0,0,0,0,0,0,0,0,0,0,0,0],"split_type":[0,0,0,0,0,0,0,0,0,0,0,0,0,0,0,0,0,0,0,0,0,0,0,0,0,0,0,0,0],"sum_hessian":[5.393E3,2.999E3,2.394E3,1.135E3,1.864E3,2.216E3,1.78E2,8.89E2,2.46E2,1.401E3,4.63E2,4.73E2,1.743E3,3E0,1.75E2,6.89E2,2E2,2.42E2,4E0,1.128E3,2.73E2,4.47E2,1.6E1,3.89E2,8.4E1,1.319E3,4.24E2,1.18E2,5.7E1],"tree_param":{"num_deleted":"0","num_feature":"7","num_nodes":"29","size_leaf_vector":"1"}},{"base_weights":[1.2144122E-2,-5.2705582E-2,3.1398448E-1,-1.6209847E-1,-1.9081885E-3,3.0152702E-1,1.5861244E-1,-1.5429732E-1,-6.4165735E-1,1.2660076E-1,-2.7608113E-2,8.623608E-1,2.5380126E-1,-9.930037E-3,-3.5819777E-3,-5.748402E-3,-3.567524E-2,3.362704E-3,2.9505527E-2,3.4973954E-4,-6.4318194E-3,3.2174688E-2,1.6094689E-1,1.7069591E-2,6.7568044E-3],"categories":[],"categories_nodes":[],"categories_segments":[],"categories_sizes":[],"default_left":[0,0,0,0,0,0,0,0,0,0,0,0,0,0,0,0,0,0,0,0,0,0,0,0,0],"id":38,"left_children":[1,3,5,7,9,11,-1,13,15,17,19,21,23,-1,-1,-1,-1,-1,-1,-1,-1,-1,-1,-1,-1],"loss_changes":[1.0558707E2,2.4650253E1,3.266491E1,5.08514E0,1.0010595E1,2.5124191E1,0E0,5.0343094E0,6.676302E-1,1.3785997E1,8.854123E0,3.5709892E1,9.032101E0,0E0,0E0,0E0,0E0,0E0,0E0,0E0,0E0,0E0,0E0,0E0,0E0],"parents":[2147483647,0,0,1,1,2,2,3,3,4,4,5,5,7,7,8,8,9,9,10,10,11,11,12,12],"right_children":[2,4,6,8,10,12,-1,14,16,18,20,22,24,-1,-1,-1,-1,-1,-1,-1,-1,-1,-1,-1,-1],"split_conditions":[2.4772533E2,-1.4633168E2,2.7E0,8E-1,1.3952996E3,1.0993978E3,1.5861244E-1,-4.888889E-1,5.555556E-1,1.3759705E3,1E0,1E0,1.1E0,-9.930037E-3,-3.5819777E-3,-5.748402E-3,-3.567524E-2,3.362704E-3,2.9505527E-2,3.4973954E-4,-6.4318194E-3,3.2174688E-2,1.6094689E-1,1.7069591E-2,6.7568044E-3],"split_indices":[2,2,5,5,1,1,0,5,4,1,6,4,4,0,0,0,0,0,0,0,0,0,0,0,0],"split_type":[0,0,0,0,0,0,0,0,0,0,0,0,0,0,0,0,0,0,0,0,0,0,0,0,0],"sum_hessian":[5.391E3,4.438E3,9.53E2,1.406E3,3.032E3,9.5E2,3E0,1.385E3,2.1E1,5.04E2,2.528E3,7.3E1,8.77E2,9E2,4.85E2,3E0,1.8E1,4.48E2,5.6E1,1.883E3,6.45E2,6.8E1,5E0,5.03E2,3.74E2],"tree_param":{"num_deleted":"0","num_feature":"7","num_nodes":"25","size_leaf_vector":"1"}},{"base_weights":[-9.01177E-3,-3.240424E-2,3.2525113E-1,-5.2440368E-2,2.5245562E-1,4.5204145E-1,3.3394776E-3,-1.6607232E-1,-2.536027E-2,3.5436085E-1,-7.9645145E-1,3.6847663E-1,1.7188501E0,-8.6401075E-1,2.9374504E-1,-8.630505E-3,8.944765E-2,3.6536043E-3,-2.8535826E-3,2.1586979E-2,-6.16686E-3,-7.0862635E-3,-5.1718015E-2,1.3438351E-2,3.3581577E-2,-3.348468E-5,1.0785597E-1,-6.754812E-2,-1.07783135E-2,2.0795798E-2,-1.3056827E-2],"categories":[],"categories_nodes":[],"categories_segments":[],"categories_sizes":[],"default_left":[0,0,0,0,0,0,0,0,0,0,0,0,0,0,0,0,0,0,0,0,0,0,0,0,0,0,0,0,0,0,0],"id":39,"left_children":[1,3,5,7,9,11,13,15,17,19,21,23,25,27,29,-1,-1,-1,-1,-1,-1,-1,-1,-1,-1,-1,-1,-1,-1,-1,-1],"loss_changes":[4.1368465E1,2.823389E1,1.4075039E1,1.4205453E1,3.4976982E1,2.5411358E1,2.513322E1,1.1509918E1,1.1664217E1,1.1062302E1,4.252983E0,6.7986717E0,1.1521275E1,7.4461517E0,5.208368E0,0E0,0E0,0E0,0E0,0E0,0E0,0E0,0E0,0E0,0E0,0E0,0E0,0E0,0E0,0E0,0E0],"parents":[2147483647,0,0,1,1,2,2,3,3,4,4,5,5,6,6,7,7,8,8,9,9,10,10,11,11,12,12,13,13,14,14],"right_children":[2,4,6,8,10,12,14,16,18,20,22,24,26,28,30,-1,-1,-1,-1,-1,-1,-1,-1,-1,-1,-1,-1,-1,-1,-1,-1],"split_conditions":[1.2857143E0,1.9241792E3,1.8903204E3,1.3874528E3,2.4E0,1.8607504E3,1.9198519E3,1.1571429E0,1.1E0,2.5E0,2E0,1.821378E3,1.4E0,8.5714287E-1,1.1E0,-8.630505E-3,8.944765E-2,3.6536043E-3,-2.8535826E-3,2.1586979E-2,-6.16686E-3,-7.0862635E-3,-5.1718015E-2,1.3438351E-2,3.3581577E-2,-3.348468E-5,1.0785597E-1,-6.754812E-2,-1.07783135E-2,2.0795798E-2,-1.3056827E-2],"split_indices":[5,0,0,0,4,0,0,5,4,3,3,0,5,4,4,0,0,0,0,0,0,0,0,0,0,0,0,0,0,0,0],"split_type":[0,0,0,0,0,0,0,0,0,0,0,0,0,0,0,0,0,0,0,0,0,0,0,0,0,0,0,0,0,0,0],"sum_hessian":[5.292E3,4.947E3,3.45E2,4.623E3,3.24E2,2.47E2,9.8E1,8.88E2,3.735E3,2.96E2,2.8E1,2.33E2,1.4E1,2.4E1,7.4E1,8.86E2,2E0,9.09E2,2.826E3,2.55E2,4.1E1,8E0,2E1,1.77E2,5.6E1,3E0,1.1E1,1.3E1,1.1E1,6.1E1,1.3E1],"tree_param":{"num_deleted":"0","num_feature":"7","num_nodes":"31","size_leaf_vector":"1"}},{"base_weights":[1.0088271E-2,-4.9422797E-2,3.3192235E-1,-1.458459E-1,8.0145355E-3,3.021884E-1,1.249642E0,-1.1166596E-1,-2.664634E-1,9.432409E-1,2.040597E-3,1.4853975E-1,2.9187182E-1,8.6964947E-1,1.9198512E-1,-1.2411702E-2,-4.09025E-3,-1.9243827E-2,-9.916455E-3,6.303137E-2,-5.1528364E-2,-1.0140034E-3,6.4826505E-3,1.9641915E-2,6.3758083E-3,6.151089E-2,1.6129715E-2],"categories":[],"categories_nodes":[],"categories_segments":[],"categories_sizes":[],"default_left":[0,0,0,0,0,0,0,0,0,0,0,0,0,0,0,0,0,0,0,0,0,0,0,0,0,0,0],"id":40,"left_children":[1,3,5,7,9,11,13,15,17,19,21,-1,23,25,-1,-1,-1,-1,-1,-1,-1,-1,-1,-1,-1,-1,-1],"loss_changes":[1.03335106E2,2.5225227E1,2.2443207E1,6.941021E0,1.5843212E1,2.129937E1,2.1779167E1,5.358267E0,2.8827782E0,1.2598448E1,8.091612E0,0E0,1.34223175E1,4.1818733E0,0E0,0E0,0E0,0E0,0E0,0E0,0E0,0E0,0E0,0E0,0E0,0E0,0E0],"parents":[2147483647,0,0,1,1,2,2,3,3,4,4,5,5,6,6,7,7,8,8,9,9,10,10,12,12,13,13],"right_children":[2,4,6,8,10,12,14,16,18,20,22,-1,24,26,-1,-1,-1,-1,-1,-1,-1,-1,-1,-1,-1,-1,-1],"split_conditions":[2.686514E2,-1.073576E2,7.434934E2,1E0,1.1048319E3,1.3160654E3,5.555556E-1,1.2221793E3,-2.8033765E2,7.1428573E-1,2E0,1.4853975E-1,1.1E0,1.9368253E3,1.9198512E-1,-1.2411702E-2,-4.09025E-3,-1.9243827E-2,-9.916455E-3,6.303137E-2,-5.1528364E-2,-1.0140034E-3,6.4826505E-3,1.9641915E-2,6.3758083E-3,6.151089E-2,1.6129715E-2],"split_indices":[2,2,2,6,0,0,4,0,2,4,4,0,4,0,0,0,0,0,0,0,0,0,0,0,0,0,0],"split_type":[0,0,0,0,0,0,0,0,0,0,0,0,0,0,0,0,0,0,0,0,0,0,0,0,0,0,0],"sum_hessian":[5.392E3,4.551E3,8.41E2,1.699E3,2.852E3,8.16E2,2.5E1,1.326E3,3.73E2,1.7E1,2.835E3,2E0,8.14E2,2.3E1,2E0,2.36E2,1.09E3,1.34E2,2.39E2,1.5E1,2E0,2.413E3,4.22E2,5.03E2,3.11E2,1.3E1,1E1],"tree_param":{"num_deleted":"0","num_feature":"7","num_nodes":"27","size_leaf_vector":"1"}},{"base_weights":[3.6110936E-3,-6.7501E-2,2.4220109E-1,-1.122485E-1,4.284907E-2,1.7877892E-1,6.343878E-1,-2.0866874E-1,-8.202309E-2,1.1741538E-2,3.3820906E-1,-1.0197617E0,1.877333E-1,1.7692101E-1,5.613078E-1,-8.365751E-3,-1.8756783E-2,6.256557E-2,-4.2199143E-3,3.2037087E-3,-1.38171455E-2,5.140927E-2,7.0840004E-3,-5.944064E-2,1.589877E-3,1.5397373E-2,4.984739E-3,2.2219075E-2,6.399335E-2],"categories":[],"categories_nodes":[],"categories_segments":[],"categories_sizes":[],"default_left":[0,0,0,0,0,0,0,0,0,0,0,0,0,0,0,0,0,0,0,0,0,0,0,0,0,0,0,0,0],"id":41,"left_children":[1,3,5,7,9,11,13,15,17,19,21,23,25,-1,27,-1,-1,-1,-1,-1,-1,-1,-1,-1,-1,-1,-1,-1,-1],"loss_changes":[9.161971E1,2.0548433E1,3.0648209E1,8.580265E0,1.0986538E1,1.1580944E1,3.4106865E1,4.736227E0,7.1335087E0,1.6384329E1,1.51957855E1,1.5756388E0,1.116819E1,0E0,1.3457947E1,0E0,0E0,0E0,0E0,0E0,0E0,0E0,0E0,0E0,0E0,0E0,0E0,0E0,0E0],"parents":[2147483647,0,0,1,1,2,2,3,3,4,4,5,5,6,6,7,7,8,8,9,9,10,10,11,11,12,12,14,14],"right_children":[2,4,6,8,10,12,14,16,18,20,22,24,26,-1,28,-1,-1,-1,-1,-1,-1,-1,-1,-1,-1,-1,-1,-1,-1],"split_conditions":[1.984231E2,5.183638E1,4.7595395E2,-2.8033765E2,1.813956E3,2.2222222E-1,9.8055743E2,1.4E0,1.0993978E3,2.1E0,1.4285715E0,1.3153208E3,1.7E0,1.7692101E-1,1.4127769E3,-8.365751E-3,-1.8756783E-2,6.256557E-2,-4.2199143E-3,3.2037087E-3,-1.38171455E-2,5.140927E-2,7.0840004E-3,-5.944064E-2,1.589877E-3,1.5397373E-2,4.984739E-3,2.2219075E-2,6.399335E-2],"split_indices":[2,2,2,2,1,3,1,3,1,3,4,1,3,0,1,0,0,0,0,0,0,0,0,0,0,0,0,0,0],"split_type":[0,0,0,0,0,0,0,0,0,0,0,0,0,0,0,0,0,0,0,0,0,0,0,0,0,0,0,0,0],"sum_hessian":[5.397E3,4.158E3,1.239E3,2.959E3,1.199E3,1.068E3,1.71E2,7.04E2,2.255E3,1.086E3,1.13E2,7E0,1.061E3,3E0,1.68E2,5.66E2,1.38E2,3E0,2.252E3,9.2E2,1.66E2,2.4E1,8.9E1,6E0,1E0,4.47E2,6.14E2,1.46E2,2.2E1],"tree_param":{"num_deleted":"0","num_feature":"7","num_nodes":"29","size_leaf_vector":"1"}},{"base_weights":[-1.0221248E-2,-7.2737634E-2,1.9693968E-1,-1.3011041E-1,1.2544745E-2,1.2969877E-1,4.9426314E-1,-2.9466438E-1,-1.172249E-1,2.2794856E-2,-6.829543E-1,8.7215465E-1,1.1610486E-1,1.0447279E0,3.8222185E-1,1.9380959E-3,-1.6887425E-2,-1.6461235E-3,-7.116757E-3,3.65995E-2,7.4195553E-4,-2.1765254E-2,-4.634833E-2,-4.04894E-3,1.0430969E-1,-3.2115526E-2,7.798128E-3,1.9756136E-2,8.0230825E-2,-0E0,2.8009681E-2],"categories":[],"categories_nodes":[],"categories_segments":[],"categories_sizes":[],"default_left":[0,0,0,0,0,0,0,0,0,0,0,0,0,0,0,0,0,0,0,0,0,0,0,0,0,0,0,0,0,0,0],"id":42,"left_children":[1,3,5,7,9,11,13,15,17,19,21,23,25,27,29,-1,-1,-1,-1,-1,-1,-1,-1,-1,-1,-1,-1,-1,-1,-1,-1],"loss_changes":[6.956148E1,2.0206335E1,2.4763916E1,5.157322E0,1.1783597E1,1.0064365E1,1.3581512E1,2.6000252E0,4.8274994E0,9.150697E0,9.1056633E-1,2.1198E1,3.0280228E1,1.2986855E1,1.3060049E1,0E0,0E0,0E0,0E0,0E0,0E0,0E0,0E0,0E0,0E0,0E0,0E0,0E0,0E0,0E0,0E0],"parents":[2147483647,0,0,1,1,2,2,3,3,4,4,5,5,6,6,7,7,8,8,9,9,10,10,11,11,12,12,13,13,14,14],"right_children":[2,4,6,8,10,12,14,16,18,20,22,24,26,28,30,-1,-1,-1,-1,-1,-1,-1,-1,-1,-1,-1,-1,-1,-1,-1,-1],"split_conditions":[1.984231E2,-1.0478415E1,4.369484E2,1.1306422E3,2.6E0,1.0487946E3,1.0993978E3,1.0167668E3,1.5684719E3,-7.4112506E0,1.9241792E3,3.3333334E-1,1.1306422E3,1.7214255E3,1.2155431E3,1.9380959E-3,-1.6887425E-2,-1.6461235E-3,-7.116757E-3,3.65995E-2,7.4195553E-4,-2.1765254E-2,-4.634833E-2,-4.04894E-3,1.0430969E-1,-3.2115526E-2,7.798128E-3,1.9756136E-2,8.0230825E-2,-0E0,2.8009681E-2],"split_indices":[2,2,2,0,4,1,1,0,1,2,0,4,1,0,1,0,0,0,0,0,0,0,0,0,0,0,0,0,0,0,0],"split_type":[0,0,0,0,0,0,0,0,0,0,0,0,0,0,0,0,0,0,0,0,0,0,0,0,0,0,0,0,0,0,0],"sum_hessian":[5.37E3,4.126E3,1.244E3,2.467E3,1.659E3,1.016E3,2.28E2,1.77E2,2.29E3,1.636E3,2.3E1,1.7E1,9.99E2,3.7E1,1.91E2,2E1,1.57E2,5.27E2,1.763E3,1.7E1,1.619E3,1.3E1,1E1,1E1,7E0,4.9E1,9.5E2,1.8E1,1.9E1,6.1E1,1.3E2],"tree_param":{"num_deleted":"0","num_feature":"7","num_nodes":"31","size_leaf_vector":"1"}},{"base_weights":[3.2800422E-3,-4.2040497E-2,3.3219293E-1,-9.904316E-2,4.6992898E-2,2.2974154E-1,6.2837034E-1,-7.314458E-2,-1.8148692E-1,-4.549914E-1,5.83994E-2,7.363824E-2,4.168449E-1,1.6559477E0,5.3748727E-1,-1.1514614E-2,-2.953477E-3,-9.872063E-3,2.4784153E-2,-1.2265345E-2,-5.3524137E-2,6.8411864E-3,1.6952319E-4,1.6512703E-2,-8.039682E-3,7.793818E-2,1.4748431E-2,6.26115E-2,1.6001402E-1,-7.024575E-3,3.2572117E-2],"categories":[],"categories_nodes":[],"categories_segments":[],"categories_sizes":[],"default_left":[0,0,0,0,0,0,0,0,0,0,0,0,0,0,0,0,0,0,0,0,0,0,0,0,0,0,0,0,0,0,0],"id":43,"left_children":[1,3,5,7,9,11,13,15,17,19,21,23,25,27,29,-1,-1,-1,-1,-1,-1,-1,-1,-1,-1,-1,-1,-1,-1,-1,-1],"loss_changes":[8.037416E1,2.4050804E1,1.9584312E1,6.1297874E0,1.0574074E1,1.4144285E1,1.4486633E1,4.8257637E0,7.5118656E0,4.8972435E0,7.7896104E0,1.613248E1,3.011203E1,3.6524315E0,1.2117779E1,0E0,0E0,0E0,0E0,0E0,0E0,0E0,0E0,0E0,0E0,0E0,0E0,0E0,0E0,0E0,0E0],"parents":[2147483647,0,0,1,1,2,2,3,3,4,4,5,5,6,6,7,7,8,8,9,9,10,10,11,11,12,12,13,13,14,14],"right_children":[2,4,6,8,10,12,14,16,18,20,22,24,26,28,30,-1,-1,-1,-1,-1,-1,-1,-1,-1,-1,-1,-1,-1,-1,-1,-1],"split_conditions":[3.0816272E2,4.1662243E1,4.7595395E2,1E0,2E-1,1.821378E3,1.5964167E3,1.1864841E3,2.6E0,2.3469766E2,1.6623058E3,1.6909205E3,1.8341392E3,5.941327E2,1.4E0,-1.1514614E-2,-2.953477E-3,-9.872063E-3,2.4784153E-2,-1.2265345E-2,-5.3524137E-2,6.8411864E-3,1.6952319E-4,1.6512703E-2,-8.039682E-3,7.793818E-2,1.4748431E-2,6.26115E-2,1.6001402E-1,-7.024575E-3,3.2572117E-2],"split_indices":[2,2,2,6,4,0,0,0,3,2,0,0,0,2,3,0,0,0,0,0,0,0,0,0,0,0,0,0,0,0,0],"split_type":[0,0,0,0,0,0,0,0,0,0,0,0,0,0,0,0,0,0,0,0,0,0,0,0,0,0,0,0,0,0,0],"sum_hessian":[5.388E3,4.736E3,6.52E2,2.888E3,1.848E3,4.86E2,1.66E2,2.2E3,6.88E2,4E1,1.808E3,2.66E2,2.2E2,1.2E1,1.54E2,1.79E2,2.021E3,6.73E2,1.5E1,3.1E1,9E0,7.44E2,1.064E3,1.27E2,1.39E2,2E1,2E2,1.1E1,1E0,2.2E1,1.32E2],"tree_param":{"num_deleted":"0","num_feature":"7","num_nodes":"31","size_leaf_vector":"1"}},{"base_weights":[8.904454E-3,-8.584208E-2,1.3879462E-1,-5.940469E-2,-1.7087714E-1,8.5806444E-2,3.8192743E-1,-2.0774344E-1,-4.2733032E-2,-1.7948975E-1,8.9454526E-1,2.377075E-1,2.6821218E-2,2.1513984E0,3.498371E-1,2.566936E-2,-1.128484E-2,-2.8394973E-3,4.650272E-3,-7.4749584E-3,-2.3477597E-2,-1.621501E-2,6.1158717E-2,9.852173E-3,5.7511836E-2,4.5931283E-3,-8.790664E-3,1.4073823E-1,-4.321998E-2,3.734101E-2,1.421427E-2],"categories":[],"categories_nodes":[],"categories_segments":[],"categories_sizes":[],"default_left":[0,0,0,0,0,0,0,0,0,0,0,0,0,0,0,0,0,0,0,0,0,0,0,0,0,0,0,0,0,0,0],"id":44,"left_children":[1,3,5,7,9,11,13,15,17,19,21,23,25,27,29,-1,-1,-1,-1,-1,-1,-1,-1,-1,-1,-1,-1,-1,-1,-1,-1],"loss_changes":[6.646077E1,6.985407E0,2.92683E1,5.8618326E0,6.8701725E0,1.6740137E1,2.2107887E1,3.194314E0,4.0944567E0,6.2530613E0,2.889852E0,1.9045652E1,1.7800243E1,1.6632168E1,1.011977E1,0E0,0E0,0E0,0E0,0E0,0E0,0E0,0E0,0E0,0E0,0E0,0E0,0E0,0E0,0E0,0E0],"parents":[2147483647,0,0,1,1,2,2,3,3,4,4,5,5,6,6,7,7,8,8,9,9,10,10,11,11,12,12,13,13,14,14],"right_children":[2,4,6,8,10,12,14,16,18,20,22,24,26,28,30,-1,-1,-1,-1,-1,-1,-1,-1,-1,-1,-1,-1,-1,-1,-1,-1],"split_conditions":[6.99082E1,1E0,3.7629877E2,-4.0027374E2,1.9953765E3,1.3979741E3,9.8055743E2,9.9287225E2,3.930607E1,3.692912E1,2E0,2.2E0,1E0,1E0,1.0993978E3,2.566936E-2,-1.128484E-2,-2.8394973E-3,4.650272E-3,-7.4749584E-3,-2.3477597E-2,-1.621501E-2,6.1158717E-2,9.852173E-3,5.7511836E-2,4.5931283E-3,-8.790664E-3,1.4073823E-1,-4.321998E-2,3.734101E-2,1.421427E-2],"split_indices":[2,6,2,2,0,1,1,0,2,2,3,3,6,6,1,0,0,0,0,0,0,0,0,0,0,0,0,0,0,0,0],"split_type":[0,0,0,0,0,0,0,0,0,0,0,0,0,0,0,0,0,0,0,0,0,0,0,0,0,0,0,0,0,0,0],"sum_hessian":[5.398E3,3.121E3,2.277E3,2.383E3,7.38E2,1.871E3,4.06E2,2.39E2,2.144E3,7.33E2,5E0,5.22E2,1.349E3,6E0,4E2,5E0,2.34E2,1.944E3,2E2,6.66E2,6.7E1,1E0,4E0,5.01E2,2.1E1,1.022E3,3.27E2,5E0,1E0,5.5E1,3.45E2],"tree_param":{"num_deleted":"0","num_feature":"7","num_nodes":"31","size_leaf_vector":"1"}},{"base_weights":[-1.767833E-2,-1.04197405E-1,8.264682E-2,2.6137617E-1,-1.090346E-1,2.1246548E0,7.439913E-2,9.5484984E-1,-9.156742E-2,-9.246112E-1,-1.05825804E-1,6.5774286E-1,1.720009E-1,6.9847584E-2,2.8698263E0,7.239302E-3,1.1009973E-1,-3.655093E-2,6.5909433E-3,-1.737586E-2,-5.4254092E-2,-9.724927E-3,-4.3755756E-3,7.276314E-2,-3.9916355E-3,2.9249557E-3,3.4209322E-2,3.1027613E-2,1.6897003E-1],"categories":[],"categories_nodes":[],"categories_segments":[],"categories_sizes":[],"default_left":[0,0,0,0,0,0,0,0,0,0,0,0,0,0,0,0,0,0,0,0,0,0,0,0,0,0,0,0,0],"id":45,"left_children":[1,3,5,7,9,11,13,15,17,19,21,23,-1,25,27,-1,-1,-1,-1,-1,-1,-1,-1,-1,-1,-1,-1,-1,-1],"loss_changes":[4.7004494E1,5.155634E0,4.184453E1,9.47453E0,7.3125763E0,1.6622791E1,3.1288927E1,1.2579975E1,3.870242E0,4.9832916E-1,4.6009827E0,3.7831078E0,0E0,1.7280365E1,2.087597E0,0E0,0E0,0E0,0E0,0E0,0E0,0E0,0E0,0E0,0E0,0E0,0E0,0E0,0E0],"parents":[2147483647,0,0,1,1,2,2,3,3,4,4,5,5,6,6,7,7,8,8,9,9,10,10,11,11,13,13,14,14],"right_children":[2,4,6,8,10,12,14,16,18,20,22,24,-1,26,28,-1,-1,-1,-1,-1,-1,-1,-1,-1,-1,-1,-1,-1,-1],"split_conditions":[4.1662243E1,1.1932513E3,9.8055743E2,-7.2301414E1,1.2155431E3,5.1111114E-1,2.7E0,1.0677825E3,-5.3333336E-1,1.1048319E3,1.3361613E3,-2.75E-1,1.720009E-1,2.0557307E3,1.8903204E3,7.239302E-3,1.1009973E-1,-3.655093E-2,6.5909433E-3,-1.737586E-2,-5.4254092E-2,-9.724927E-3,-4.3755756E-3,7.276314E-2,-3.9916355E-3,2.9249557E-3,3.4209322E-2,3.1027613E-2,1.6897003E-1],"split_indices":[2,1,1,2,1,5,5,0,5,0,0,5,0,0,0,0,0,0,0,0,0,0,0,0,0,0,0,0,0],"split_type":[0,0,0,0,0,0,0,0,0,0,0,0,0,0,0,0,0,0,0,0,0,0,0,0,0,0,0,0,0],"sum_hessian":[5.413E3,2.907E3,2.506E3,3.7E1,2.87E3,9E0,2.497E3,1.2E1,2.5E1,1E1,2.86E3,5E0,4E0,2.494E3,3E0,8E0,4E0,6E0,1.9E1,3E0,7E0,4.87E2,2.373E3,2E0,3E0,2.45E3,4.4E1,1E0,2E0],"tree_param":{"num_deleted":"0","num_feature":"7","num_nodes":"29","size_leaf_vector":"1"}},{"base_weights":[1.2774545E-2,-9.06186E-2,1.1650622E-1,-7.009334E-2,-1.579425E-1,1.893285E0,1.0849958E-1,5.5257913E-2,-8.53138E-2,5.6149323E-2,-1.6191699E-1,5.850332E-1,1.5436824E-1,1.028787E-1,2.2339227E0,3.3935484E-2,1.2837811E-3,-4.409813E-2,-4.1530873E-3,-1.2846949E-2,-5.7454403E-3,-5.1559027E-2,5.2146614E-2,2.355887E-2,4.5453194E-3,5.1969435E-2,1.7234194E-1],"categories":[],"categories_nodes":[],"categories_segments":[],"categories_sizes":[],"default_left":[0,0,0,0,0,0,0,0,0,0,0,0,0,0,0,0,0,0,0,0,0,0,0,0,0,0,0],"id":46,"left_children":[1,3,5,7,9,11,13,15,17,-1,19,21,-1,23,25,-1,-1,-1,-1,-1,-1,-1,-1,-1,-1,-1,-1],"loss_changes":[5.8025444E1,3.7095318E0,3.801889E1,3.9742498E0,3.298152E0,1.6572426E1,3.1673296E1,4.0618396E0,3.1582937E0,0E0,2.7473793E0,6.2570653E0,0E0,1.1735748E1,6.110859E0,0E0,0E0,0E0,0E0,0E0,0E0,0E0,0E0,0E0,0E0,0E0,0E0],"parents":[2147483647,0,0,1,1,2,2,3,3,4,4,5,5,6,6,7,7,8,8,10,10,11,11,13,13,14,14],"right_children":[2,4,6,8,10,12,14,16,18,-1,20,22,-1,24,26,-1,-1,-1,-1,-1,-1,-1,-1,-1,-1,-1,-1],"split_conditions":[1.852407E1,1E0,9.8055743E2,8.888889E-1,1.0993978E3,5.1111114E-1,2.5E0,1.1864841E3,1.1044824E3,5.6149323E-2,-6E-1,4.2857143E-1,1.5436824E-1,1.0859171E3,1.2155431E3,3.3935484E-2,1.2837811E-3,-4.409813E-2,-4.1530873E-3,-1.2846949E-2,-5.7454403E-3,-5.1559027E-2,5.2146614E-2,2.355887E-2,4.5453194E-3,5.1969435E-2,1.7234194E-1],"split_indices":[2,6,1,4,1,5,5,1,1,0,5,4,0,1,1,0,0,0,0,0,0,0,0,0,0,0,0],"split_type":[0,0,0,0,0,0,0,0,0,0,0,0,0,0,0,0,0,0,0,0,0,0,0,0,0,0,0],"sum_hessian":[5.408E3,2.708E3,2.7E3,2.078E3,6.3E2,1.1E1,2.689E3,2.24E2,1.854E3,1E0,6.29E2,6E0,5E0,2.683E3,6E0,9E0,2.15E2,4E0,1.85E3,2.06E2,4.23E2,1E0,5E0,8.3E1,2.6E3,4E0,2E0],"tree_param":{"num_deleted":"0","num_feature":"7","num_nodes":"27","size_leaf_vector":"1"}},{"base_weights":[1.3165392E-2,9.759537E-2,-5.5810716E-2,5.70027E-2,4.3837667E-1,-1.127439E-2,-1.9149055E-1,-1.8000749E-1,8.953412E-2,4.01094E-1,2.7085142E0,-8.9682475E-2,1.064563E-1,-2.145154E-1,1.9498383E-1,-6.330357E-2,-8.117882E-3,9.7688705E-2,4.0844083E-3,2.3994764E-2,-2.3074843E-2,2.8952679E-2,1.5959917E-1,-2.3259697E-2,-3.7011362E-3,1.1226363E-2,1.7749753E-3,-8.755124E-3,-1.8252816E-2,-5.9271514E-2,1.4807016E-2],"categories":[],"categories_nodes":[],"categories_segments":[],"categories_sizes":[],"default_left":[0,0,0,0,0,0,0,0,0,0,0,0,0,0,0,0,0,0,0,0,0,0,0,0,0,0,0,0,0,0,0],"id":47,"left_children":[1,3,5,7,9,11,13,15,17,19,21,23,25,27,29,-1,-1,-1,-1,-1,-1,-1,-1,-1,-1,-1,-1,-1,-1,-1,-1],"loss_changes":[3.1806763E1,3.389987E1,1.8135818E1,1.6938837E1,2.0692863E1,2.090694E1,6.6464825E0,4.731353E0,2.7895704E1,1.7760414E1,1.8926792E0,7.90901E0,7.5480595E0,4.041279E0,6.126913E0,0E0,0E0,0E0,0E0,0E0,0E0,0E0,0E0,0E0,0E0,0E0,0E0,0E0,0E0,0E0,0E0],"parents":[2147483647,0,0,1,1,2,2,3,3,4,4,5,5,6,6,7,7,8,8,9,9,10,10,11,11,12,12,13,13,14,14],"right_children":[2,4,6,8,10,12,14,16,18,20,22,24,26,28,30,-1,-1,-1,-1,-1,-1,-1,-1,-1,-1,-1,-1,-1,-1,-1,-1],"split_conditions":[1.5556858E3,1.821378E3,1E0,1.2221793E3,2.7E0,1.7467399E3,1.9953765E3,9.8055743E2,9.8055743E2,2.6E0,1.8903204E3,1.5694525E3,1.7E0,1.8903204E3,1.6145188E3,-6.330357E-2,-8.117882E-3,9.7688705E-2,4.0844083E-3,2.3994764E-2,-2.3074843E-2,2.8952679E-2,1.5959917E-1,-2.3259697E-2,-3.7011362E-3,1.1226363E-2,1.7749753E-3,-8.755124E-3,-1.8252816E-2,-5.9271514E-2,1.4807016E-2],"split_indices":[1,0,6,0,5,0,0,1,1,3,0,1,3,0,1,0,0,0,0,0,0,0,0,0,0,0,0,0,0,0,0],"split_type":[0,0,0,0,0,0,0,0,0,0,0,0,0,0,0,0,0,0,0,0,0,0,0,0,0,0,0,0,0,0,0],"sum_hessian":[5.459E3,2.455E3,3.004E3,2.195E3,2.6E2,2.263E3,7.41E2,2.64E2,1.931E3,2.57E2,3E0,1.359E3,9.04E2,7E2,4.1E1,3E0,2.61E2,7E0,1.924E3,2.36E2,2.1E1,1E0,2E0,5.3E1,1.306E3,3.38E2,5.66E2,5.57E2,1.43E2,2E0,3.9E1],"tree_param":{"num_deleted":"0","num_feature":"7","num_nodes":"31","size_leaf_vector":"1"}},{"base_weights":[6.8599065E-3,-6.961368E-2,1.2631497E-1,-1.6443495E-1,-5.5351406E-2,8.7524846E-2,4.2564785E-1,4.4942755E-1,-1.7437063E-1,7.555587E-1,-5.790455E-2,2.769394E-1,5.0915502E-2,-8.423304E-2,4.68434E-1,4.2448208E-2,-1.6647134E-2,-1.6029127E-2,-7.645858E-3,-6.0718213E-3,5.1888127E-2,-2.5325366E-3,-1.4860707E-2,1.7251259E-2,-7.681001E-3,8.955956E-3,-7.834296E-4,1.3278656E-2,4.0932786E-2],"categories":[],"categories_nodes":[],"categories_segments":[],"categories_sizes":[],"default_left":[0,0,0,0,0,0,0,0,0,0,0,0,0,0,0,0,0,0,0,0,0,0,0,0,0,0,0,0,0],"id":48,"left_children":[1,3,5,7,9,11,13,15,17,19,21,23,25,-1,27,-1,-1,-1,-1,-1,-1,-1,-1,-1,-1,-1,-1,-1,-1],"loss_changes":[4.968231E1,4.452017E0,2.4561909E1,2.6856918E0,5.94493E0,1.2996611E1,2.2608498E1,2.5223575E0,1.2398853E0,2.4450774E0,4.942631E0,8.983892E0,1.3489469E1,0E0,1.6654217E1,0E0,0E0,0E0,0E0,0E0,0E0,0E0,0E0,0E0,0E0,0E0,0E0,0E0,0E0],"parents":[2147483647,0,0,1,1,2,2,3,3,4,4,5,5,6,6,7,7,8,8,9,9,10,10,11,11,12,12,14,14],"right_children":[2,4,6,8,10,12,14,16,18,20,22,24,26,-1,28,-1,-1,-1,-1,-1,-1,-1,-1,-1,-1,-1,-1,-1,-1],"split_conditions":[9.022691E1,-3.505817E2,4.369484E2,9.9287225E2,-1.9E0,-1.7777778E-1,1.4672421E3,1.75E0,1.2E0,-3.3087613E2,2.6E0,2.8059506E2,1.6623058E3,-8.423304E-2,7.1428573E-1,4.2448208E-2,-1.6647134E-2,-1.6029127E-2,-7.645858E-3,-6.0718213E-3,5.1888127E-2,-2.5325366E-3,-1.4860707E-2,1.7251259E-2,-7.681001E-3,8.955956E-3,-7.834296E-4,1.3278656E-2,4.0932786E-2],"split_indices":[2,2,2,0,5,5,0,4,4,2,4,2,0,0,4,0,0,0,0,0,0,0,0,0,0,0,0,0,0],"split_type":[0,0,0,0,0,0,0,0,0,0,0,0,0,0,0,0,0,0,0,0,0,0,0,0,0,0,0,0,0],"sum_hessian":[5.436E3,3.314E3,2.122E3,4.31E2,2.883E3,1.88E3,2.42E2,6E0,4.25E2,8E0,2.875E3,3.03E2,1.577E3,4E0,2.38E2,4E0,2E0,5.2E1,3.73E2,2E0,6E0,2.792E3,8.3E1,2.62E2,4.1E1,5.39E2,1.038E3,1.52E2,8.6E1],"tree_param":{"num_deleted":"0","num_feature":"7","num_nodes":"29","size_leaf_vector":"1"}},{"base_weights":[8.440572E-3,2.2831905E-1,-1.3626856E-2,4.5182507E-2,6.56719E-1,1.1318634E-2,-9.5675014E-2,9.6907467E-1,1.7500782E-2,7.706315E-1,-2.6052603E-1,-4.765275E-3,2.2157621E-1,2.4278082E-1,-1.2858905E-1,1.0023232E-2,1.3311717E-1,7.768488E-3,-7.5233267E-3,4.9291696E-2,1.4998025E-2,-7.708115E-2,1.22275865E-2,3.639322E-4,-8.014226E-3,-3.877225E-2,1.39873875E-2,5.054816E-3,6.443283E-2,-6.9056526E-3,2.2590814E-2],"categories":[],"categories_nodes":[],"categories_segments":[],"categories_sizes":[],"default_left":[0,0,0,0,0,0,0,0,0,0,0,0,0,0,0,0,0,0,0,0,0,0,0,0,0,0,0,0,0,0,0],"id":49,"left_children":[1,3,5,7,9,11,13,15,17,19,21,23,25,27,29,-1,-1,-1,-1,-1,-1,-1,-1,-1,-1,-1,-1,-1,-1,-1,-1],"loss_changes":[2.6332952E1,3.8735703E1,1.0095813E1,8.784459E0,1.5715664E1,1.2802422E1,1.2830737E1,1.2194647E1,7.8742547E0,1.2945923E1,1.1506624E1,6.592785E0,1.5768891E1,1.4845552E1,5.8296795E0,0E0,0E0,0E0,0E0,0E0,0E0,0E0,0E0,0E0,0E0,0E0,0E0,0E0,0E0,0E0,0E0],"parents":[2147483647,0,0,1,1,2,2,3,3,4,4,5,5,6,