tree
version=v2
num_class=1
num_tree_per_iteration=1
label_index=0
max_feature_idx=12
objective=regression
feature_names=home_team away_team tournament is_neutral elo_home elo_away elo_diff elo_norm_diff form_home_5 form_away_5 form_diff momentum_home momentum_away
feature_infos=-1:37:12:180:106:267:86:97:274:301:127:137:192:167:140:285:17:27:75:275:82:205:130:248:220:58:250:270:145:59:150:303:224:221:259:166:65:231:96:310:4:21:292:131:299:187:227:291:203:83:139:323:132:232:16:41:218:138:111:197:107:125:129:207:297:60:293:189:45:284:216:116:266:253:136:33:81:89:126:122:162:170:169:142:213:72:91:128:70:118:154:73:42:46:2:8:158:101:325:62:272:307:67:322:69:160:289:276:273:24:36:71:188:194:261:308:95:164:174:68:298:304:22:29:155:120:157:262:44:19:199:200:177:193:103:233:26:104:156:219:114:93:35:254:13:90:105:117:182:190:113:10:141:191:240:257:144:48:159:196:317:271:280:7:77:246:176:30:241:244:168:263:210:43:153:119:212:87:185:108:78:282:151:281:305:99:255:195:15:223:215:51:52:163:294:54:235:61:324:148:309:28:40:76:115:1:38:264:3:50:245:184:269:20:25:31:302:112:319:326:9:279:209:290:186:134:135:260:288:88:242:5:256:0:202:295:63:109:206:34:278:208:100:204:236:283:92:133:179:296:315:6:85:222:277 -1:299:269:88:128:214:108:13:218:317:98:260:39:270:245:204:78:229:286:43:59:192:228:280:138:180:19:29:99:216:293:264:202:306:67:167:247:109:197:288:62:140:287:252:219:133:84:47:141:169:139:85:113:244:126:120:60:146:279:76:271:151:131:316:211:319:297:225:129:91:75:86:166:187:118:266:303:35:284:4:132:295:222:18:48:123:44:161:194:198:143:155:71:206:23:130:137:267:248:163:189:9:70:170:64:103:72:188:254:217:259:73:300:2:74:127:159:177:251:294:156:28:93:182:107:173:31:106:255:276:176:21:210:38:199:122:165:209:157:37:312:95:190:318:195:145:158:24:92:191:196:46:14:160:305:230:265:301:168:240:115:116:304:154:275:26:237:45:105:193:277:8:49:256:242:119:142:152:289:11:80:97:236:101:1:121:249:89:221:3:32:63:42:213:164:185:16:33:257:40:117:81:55:110:53:30:184:10:79:283:231:52:90:114:149:298:238:262:274:285:186:314:250:253:22:65:241:135:309:6:290:27:178:291:36:313:102:136:307:310:94:232:320:200:208:224:183:203:272:281:134:124:205:278:179 -1:94:89:184:11:88:54:10:2:185:31:33:127:28:36:1:96:100:108:183:19:47:6:142:112:32:16:134:167:169:17:34:186:160:115:35:53:144:82:51:30:194:102:23:44:196:4:139:97:3:22:114:146:103:149:15:76:182:37:165:170:126:50:7:192:193:151:87:12:195:120:41:74:153:168:27:188:38:18:145:189:91:59:81:63:48:8:64:117:128:66:71:118:113:157:164:0:72:104:70:85:106:110:163:58:62:65:84:68:80:116:130:150:187:95:141:5:56:105:26:67:111:129:155:177:190:20:152:159:161:175:24:29:57:90:176:79:191:40:55:92:123:171:107:119:121:133:178:61:69:131:135:137:154:181:45:83:125:13:14:39:49:73:77:78:98:99:109:124:136:138:143:162:42:46:101:140:148:156:174:180:197:198 [0:1] none none none none none none none none none
tree_sizes=8033 7574 7575 8548 8454 7684 7535 8530 8480 8600 8491 8404 8376 8291 7653 7698 8486 7564 8381 7600 7742 3101 7645 3024 7418 8275 8292 7820 8375 8452 7582 8411 8396 8353 7560 7629 7530 6055 7741 8513 7522 8366 8454 7743 8536 7612 7647 8608 7530 8417 8678 8634 7685 8453 7666 8602 7508 8562 8515 7603 7598 7744 3307 5426 8566 7636 8506 7627 7396 8439 7527 8483 8325 8463 8340 7587 7550 7276 7407 7590 7509 7426 7590 8396 7749 8618 8316 7654 8309 7629 7473 7460 7378 7152 8537 7672 7548 8665 8722 8471 7307 8412 8600 7590 7286 4177 7564 8502 8512 7350 8396 8439 7575 7495 7584 7600 8461 8573 7125 7405 7516 7705 4104 8671 7230 7505 8544 7497 7463 7171 8562 7527 7113 8557 7290 8424 7532 8590 7570 8485 8466 7460 7232 7498 8661 8521 7564 7692 7389 7350 7498 7457 7570 7538 8383 7506 7558 7496 8503 8434 8695 8439 7801 7499 4159 7546 7442 8347 7392 8712 8604 7186 8227 8486 7480 7461 7242 8250 7356 7671 7739 7620 8291 8495 8352 7484 8496 8294 7675 7432 7620 7439 7624 8394 8369 7465 8621 8484 8604 7524

Tree=0
num_leaves=63
num_cat=62
split_feature=0 1 0 1 1 0 1 0 2 1 0 0 1 0 1 1 0 0 1 0 0 1 1 2 2 1 0 1 0 0 2 0 1 1 0 0 1 0 2 1 2 2 1 1 0 2 0 0 0 1 0 2 0 2 0 0 0 2 1 0 2 2
split_gain=4129.73 2519.51 1312.92 975.217 933.7 678.361 612.239 753.882 568.145 531.742 440.021 417.454 383.757 350.621 290.206 262.807 255.816 242.226 223.155 127.582 108.808 104.143 87.6304 75.2379 74.834 63.5282 60.2502 53.0492 51.4755 49.4252 43.5228 41.5377 41.4009 41.3693 38.3549 38.2985 37.1702 35.7211 34.9215 32.4578 30.4575 29.7607 25.2832 25.182 23.7321 23.0372 21.7895 21.4367 19.0944 18.7686 18.1685 17.1591 16.9126 14.9978 13.5108 13.3173 13.2026 13.0696 10.3915 9.51017 8.98071 8.97009
threshold=0 1 2 3 4 5 6 7 8 9 10 11 12 13 14 15 16 17 18 19 20 21 22 23 24 25 26 27 28 29 30 31 32 33 34 35 36 37 38 39 40 41 42 43 44 45 46 47 48 49 50 51 52 53 54 55 56 57 58 59 60 61
decision_type=9 9 9 9 9 9 9 9 9 9 9 9 9 9 9 9 9 9 9 9 9 9 9 9 9 9 9 9 9 9 9 9 9 9 9 9 9 9 9 9 9 9 9 9 9 9 9 9 9 9 9 9 9 9 9 9 9 9 9 9 9 9
left_child=4 5 9 11 25 33 34 15 38 43 21 36 -12 27 29 40 -10 32 23 -20 39 -9 -17 -15 31 37 -26 54 -25 -11 -22 -19 55 44 -5 -21 60 -1 -6 -16 -8 42 -29 -3 45 -2 -43 -38 61 -50 -41 -46 -34 -36 -7 -13 -37 -51 -27 -44 -4 -35
right_child=1 2 3 6 8 13 7 10 16 14 12 17 -14 18 20 22 -18 24 19 35 30 -23 -24 28 26 58 -28 41 -30 -31 -32 -33 52 48 53 56 47 -39 -40 50 -42 46 59 -45 51 -47 -48 -49 49 57 -52 -53 -54 -55 -56 -57 -58 -59 -60 -61 -62 -63
leaf_value=0.31443313915547011 0.30936789072092291 0.30278465431442747 0.31772484778654314 0.30771665682895788 0.3323241416722158 0.31520538253259445 0.31783522591251523 0.30700477343675314 0.36143602107713124 0.32155908111250603 0.31164855539879316 0.31517176851834283 0.30742836592972445 0.31878296594826028 0.32073393482222906 0.30786794393942052 0.33919215446281903 0.31003689874559431 0.32823012496985055 0.31583036110361307 0.31569372777862742 0.30354482909942004 0.31381347022366962 0.31840158833768589 0.31051945565533146 0.31364294068784371 0.31402112415539651 0.31238684611596329 0.33107069117107973 0.33007764075143925 0.32309931088777449 0.31938761783129777 0.30885975730243909 0.31431863479909322 0.30020542146977508 0.31762801758547621 0.3194255753570821 0.32594084875996548 0.32302954947349644 0.3086019865423516 0.32359763663984992 0.31507320044789444 0.31406802964104713 0.30877855407858879 0.31796582835066733 0.31579823882095054 0.30972871459781781 0.32467249395163539 0.30645308786320058 0.3147704825843991 0.31395745703433231 0.31302161143603718 0.30590105235564224 0.30289642873820455 0.32065448070329583 0.31025035081746744 0.32158058836620013 0.30980111200069305 0.30825102715742081 0.31947630498450841 0.31225750582541828 0.30979522989488806
leaf_weight=107 272 221 120 229 239 161 418 2492 213 291 5440 110 12008 175 102 584 403 101 331 524 240 4352 1549 102 1275 113 2551 220 852 498 538 503 630 243 1341 359 482 114 279 123 422 211 113 330 293 136 318 382 264 100 662 243 945 1256 408 442 823 542 114 297 109 102
leaf_count=107 272 221 120 229 239 161 418 2492 213 291 5440 110 12008 175 102 584 403 101 331 524 240 4352 1549 102 1275 113 2551 220 852 498 538 503 630 243 1341 359 482 114 279 123 422 211 113 330 293 136 318 382 264 100 662 243 945 1256 408 442 823 542 114 297 109 102
internal_value=0.31148 0.310785 0.309523 0.308855 0.332353 0.31803 0.307787 0.308395 0.338753 0.317892 0.307629 0.313055 0.308744 0.32076 0.320518 0.314652 0.347627 0.311792 0.323381 0.320639 0.317307 0.304795 0.312175 0.32819 0.313546 0.315885 0.312854 0.315911 0.329812 0.327119 0.320907 0.317824 0.308148 0.311927 0.301954 0.319068 0.320554 0.320779 0.327665 0.314072 0.320851 0.31423 0.316154 0.306249 0.313995 0.311565 0.311888 0.321884 0.310359 0.309358 0.313088 0.315803 0.307057 0.301465 0.319215 0.311286 0.320449 0.31062 0.310917 0.318095 0.315283 0.312967
internal_weight=49417 47835 40746 37741 1582 7089 30091 27265 1134 3005 24292 7650 17448 4894 2454 2973 616 6557 3166 2037 1665 6844 2133 1129 4430 448 3826 1728 954 789 778 604 2127 2195 2826 1706 1093 221 518 887 840 1159 630 551 944 408 529 864 1251 906 785 536 1575 2597 569 552 1182 642 227 410 229 345
internal_count=49417 47835 40746 37741 1582 7089 30091 27265 1134 3005 24292 7650 17448 4894 2454 2973 616 6557 3166 2037 1665 6844 2133 1129 4430 448 3826 1728 954 789 778 604 2127 2195 2826 1706 1093 221 518 887 840 1159 630 551 944 408 529 864 1251 906 785 536 1575 2597 569 552 1182 642 227 410 229 345
cat_boundaries=0 10 20 31 42 52 62 71 81 87 97 107 117 127 138 148 158 168 179 189 199 210 220 228 234 240 248 259 266 274 283 290 299 309 319 328 338 348 355 361 371 377 383 392 400 410 416 427 437 444 453 460 463 473 479 487 497 507 513 523 531 534 538
cat_threshold=2148565544 2147483972 268439552 524304 2181038080 83886092 1074008064 6291456 256 16773 135012352 128 16777216 8394752 25041 0 2170883 2097280 38281488 270663680 1342177408 528386 536879168 16912385 0 4195328 2281766920 2147880960 41984016 134348800 16 536870912 268435456 23616 1318920 8391684 1572864 201330692 67108897 8 603994112 1 16778306 19728 2 2097152 134217734 2705326354 33556480 1344290816 134218240 1028 69632 268435488 4194312 514 4211352 538050560 536903809 1140850944 18528 33824 18875660 1282 2147484162 16384 1073741824 2168522009 536870912 33947648 671089218 20980738 5242880 100663296 1074003976 68157443 2147614977 1064976 1116160 138412104 537395200 2147485700 16 1073741824 0 0 50331648 1365249280 1074791682 2147549184 2097184 0 2218787865 50462720 537133056 0 33792 69632 8224 4458496 2050 536 135266304 553648165 553648392 543744 107536 608182272 16392 2248802304 1048576 201525507 131264 2105348 0 536870920 96 16 1073774592 2097416 1224736768 32 134217728 20971616 1099956240 2164342785 2181300833 67108864 201342976 2147615106 2147484672 78080 167772177 16777222 16777344 18088960 2147549184 68 0 268437536 4210760 1209532424 266248 537927680 201854976 16777266 1074792448 67584 0 34848 0 1140850688 33312 8224 1077952704 2148597778 3240150016 2147483843 40 2147483904 0 524288 0 16777224 0 4194304 0 16384 4112 8240 4456458 3616 9736 135266304 536870944 1610612992 19456 590864 8 134217728 128 16777216 4096 400 0 2170882 0 524544 268435456 2097152 0 33554496 4097 0 1024 2048 1 8 524288 1342177280 0 8256 16908289 0 1024 2281701384 0 8192 131072 16 268435472 3357605888 1048841 150994944 32768 134217728 4194336 1099956226 2147500033 66049 84482 2147500032 135332096 2097152 2768371712 262144 33685504 12288 2 0 0 1073741824 0 58720256 525312 6815744 16777216 2147483665 262144 33554576 2 2064 0 2097152 134217734 553648400 33554432 1344290816 136315140 201327616 134218112 2684354560 4194320 1073758208 293636224 83886208 1048578 4229120 32 262144 128 16777216 4096 1 0 1 0 8 0 0 0 0 335544320 9 0 2 0 16777217 0 4194304 0 0 32768 0 0 1073741828 2147483712 0 1 16 131072 0 256 0 4112 536870912 2 0 262144 0 0 64 8 1024 0 0 0 0 2048 134217728 128 16777216 4096 1 0 1 128 0 268435456 2105344 65536 0 128 256 2181169168 0 1073741824 65536 131076 522 537135104 32768 0 4194304 67109120 0 33554432 10256 0 0 4096 1048584 4 0 4 0 0 8192 0 256 0 524288 33554432 16777224 262144 2147483652 16 0 0 0 16777216 0 0 256 4194304 1024 0 0 1342177280 16777216 33 2048 2 1073741824 2147483664 2048 16777216 2 134217728 1073741824 2147483648 64 128 0 0 0 0 16 0 2097152 0 532752 6292736 1282 0 2097152 0 1041 0 262144 69632 32 4194304 0 512 0 0 0 16416 32768 0 4194304 1107296256 0 0 8388608 0 134217728 131072 2147483648 4096 0 0 16777344 1048576 2147549184 64 536879104 16392 0 1048576 67585 131264 2105344 0 0 32 0 0 4194304 2 4194432 536870912 536903680 262144 0 0 2048 8192 0 0 2097152 524288 0 0 0 1 0 0 8 0 0 1073741824 16 8192 262154 2592 9216 0 32 1073742080 0 65552 2147485700 0 33554432 0 0 16777216 0 201326592 0 1024 256 0 0 16777216 0 0 0 1024 0 1048576 0 0 2048 1024 134217744 4096 0 0 67108864 128 268435456 8 0 2097152 524290 0 129 2147483648 0 41943040 16778240 17664 0 0 0 2147483648 0 0 0 4 0 0 0 2147483648 256 0 0 128 0 0 1107296256 268435456 0 1107296256 4096
is_linear=0
shrinkage=0.263555


Tree=1
num_leaves=63
num_cat=52
split_feature=0 0 0 2 0 2 0 2 0 0 0 2 0 2 3 2 2 3 0 0 0 2 2 0 3 2 0 2 0 3 0 2 2 2 0 3 2 0 2 0 2 0 0 2 0 0 3 2 2 3 3 0 0 0 3 2 0 0 0 2 0 3
split_gain=3745.49 1515.02 921.896 588.906 576.367 500.026 360.282 333.591 325.845 212.471 211.808 204.829 202.31 202.087 169.107 137.962 91.154 82.1009 78.732 78.6294 76.2697 72.7333 71.0416 62.821 54.5848 54.06 46.2627 42.5957 111.587 35.0818 31.9467 31.2625 29.8521 28.3596 28.7647 27.6798 26.5891 26.5674 25.7641 20.7782 19.3176 16.2884 15.6136 14.9886 13.5041 12.1547 11.599 10.3825 9.77287 9.2316 8.47614 6.85997 5.29042 5.03772 4.56551 4.50618 4.22521 3.66996 3.582 3.48983 3.43677 3.24504
threshold=0 1 2 3 4 5 6 7 8 9 10 11 12 13 1.0000000180025095e-35 14 15 1.0000000180025095e-35 16 17 18 19 20 21 1.0000000180025095e-35 22 23 24 25 1.0000000180025095e-35 26 27 28 29 30 1.0000000180025095e-35 31 32 33 34 35 36 37 38 39 40 1.0000000180025095e-35 41 42 1.0000000180025095e-35 1.0000000180025095e-35 43 44 45 1.0000000180025095e-35 46 47 48 49 50 51 1.0000000180025095e-35
decision_type=9 9 9 9 9 9 9 9 9 9 9 9 9 9 2 9 9 2 9 9 9 9 9 9 2 9 9 9 9 2 9 9 9 9 9 2 9 9 9 9 9 9 9 9 9 9 2 9 9 2 2 9 9 9 2 9 9 9 9 9 9 2
left_child=5 13 11 4 21 29 33 12 24 16 44 37 48 14 19 -14 -9 -10 31 53 -11 26 -16 36 -7 39 35 -21 42 40 52 -15 -25 34 -5 -4 -12 -3 55 43 -1 50 -29 -13 -6 -40 -32 -43 -8 -28 -35 -30 61 -2 -39 -20 -36 -48 -41 -46 -45 -27
right_child=1 2 3 6 10 8 7 9 17 20 23 25 15 18 22 -17 -18 -19 38 27 -22 -23 -24 32 -26 30 49 28 51 -31 46 -33 -34 41 56 -37 -38 54 45 58 -42 47 -44 60 59 -47 57 -49 -50 -51 -52 -53 -54 -55 -56 -57 -58 -59 -60 -61 -62 -63
leaf_value=0.0063628879217809114 -0.00070211656471305976 -0.0061977277331079113 0.004276334405875006 -0.0029196356462682671 -0.0053658755066977107 0.021464782819864987 -0.0013398675694805771 0.0020213794393729263 0.010343108491119517 -0.00073577549030248821 0.00022259632857879645 0.001753761706556092 0.014210766594721983 0.006680051872286979 0.017585610250215582 0.0057129569471597646 0.0055806959787635287 0.017026868247458086 5.5147743823399859e-05 0.010638624012965739 0.00076415781298603646 -0.0020446661864820369 0.0081635371130016395 -0.0020976295642643767 0.028780454679875528 -0.0016415540623806173 0.0017474262763549607 0.0025771514606576329 0.0052419210586224958 0.010424108327429616 -0.0037586929542566257 0.0027081501625098514 -0.0045245041179445538 -0.0031762313597114111 0.00069633338384887601 0.0087571433798055483 -0.0015923036114367194 -0.0045977474904605247 0.00062847151532574022 0.0033312449070765993 0.001366717643044039 -0.0039963134028177388 -0.0015575187645171242 -0.00071654713484833573 -0.0060641606870664921 0.0027550402264347098 -0.0020415743048020807 -0.0013145719542109917 0.0014505243385115826 0.0043018877219182412 -0.0014266272123666152 0.0083936727841165942 -0.0021733295147920487 0.0018462525626796386 -0.0033625461486998837 -0.0024091692019040851 0.0032287962163864855 -0.003317151684363891 0.00082986305640940939 -0.0038009232941219185 -0.0026565939628490944 -0.00025862560799102847
leaf_weight=341 110 1391 546 107 1121 195 131 3101 382 3844 1381 103 217 467 139 632 694 240 127 189 8473 220 256 4373 173 369 883 135 252 148 1917 307 449 830 105 136 1150 1535 319 104 100 113 130 144 115 774 650 3022 316 127 299 477 1874 115 300 101 162 431 116 2026 223 210
leaf_count=341 110 1391 546 107 1121 195 131 3101 382 3844 1381 103 217 467 139 632 694 240 127 189 8473 220 256 4373 173 369 883 135 252 148 1917 307 449 830 105 136 1150 1535 319 104 100 113 130 144 115 774 650 3022 316 127 299 477 1874 115 300 101 162 431 116 2026 223 210
internal_value=2.10282e-06 -0.000441491 -0.000910544 -0.000243493 -0.00177347 0.013352 0.000626283 0.0012097 0.0172652 0.000860417 -0.00257861 -0.00336932 0.0055076 0.00483334 0.00701644 0.00803997 0.00268676 0.0127421 0.00292725 0.00561289 0.000295735 0.00268523 0.0121677 -0.00174049 0.024316 -0.00241082 0.00330998 0.0064999 0.00560425 0.00657734 -0.00270742 0.00516578 -0.00233357 -0.00156098 0.000765817 0.00510789 -0.000605006 -0.00517926 0.00158316 -6.06632e-05 0.0054125 -0.00176672 0.000564383 -0.00110765 -0.00445539 0.00214763 -0.0033322 -0.00142515 0.000618288 0.00205313 -0.00269151 0.00739949 -0.001932 0.000621981 -0.0043744 -0.00109344 0.00230302 -0.00260309 0.00211848 -0.00395328 -0.00194072 -0.00112344
internal_weight=49417 47838 43940 34573 12527 1579 22046 17408 990 16112 10615 9367 1296 3898 1803 849 3795 622 2095 1408 12317 1912 395 7353 368 6141 1692 1183 994 589 5451 774 4822 4638 374 682 2531 3226 1321 690 441 4264 265 470 3262 1093 2998 3135 447 1010 1129 729 2453 225 1835 228 267 1081 220 2141 367 579
internal_count=49417 47838 43940 34573 12527 1579 22046 17408 990 16112 10615 9367 1296 3898 1803 849 3795 622 2095 1408 12317 1912 395 7353 368 6141 1692 1183 994 589 5451 774 4822 4638 374 682 2531 3226 1321 690 441 4264 265 470 3262 1093 2998 3135 447 1010 1129 729 2453 225 1835 228 267 1081 220 2141 367 579
cat_boundaries=0 10 21 32 38 48 54 64 71 81 92 103 110 121 127 134 140 151 160 170 176 182 192 197 207 212 219 230 233 239 246 253 257 267 273 283 286 296 300 305 313 322 325 331 341 350 352 358 368 378 387 393 402
cat_threshold=2148532776 2148008260 268439552 524304 2181038080 83886092 1074008064 6291456 256 16773 32896 4098 536879168 143361 0 4195584 2281768960 2147880960 176193688 134348800 16 4369 8224 262146 4196384 17944 134742528 132128 536871168 19458 66576 8 2147747925 1090551848 44302340 1078329409 2147483648 84017955 1430791170 4194304 100663312 16777216 68223233 2718040065 280 1048576 8192 537395200 2180 80 1073741824 65536 0 33554977 524292 671156224 4194456 603980544 1078001696 571490304 536871168 1090519552 32 2147516426 1212679168 137171520 1049600 2621440 580911104 144 10 40 2147483904 268439552 524288 0 0 262144 4194304 0 16513 1765934082 1310720 2248278272 1090584576 8388611 17 8194 2048 17301504 541065216 68 2162688 402718720 4326280 1026 4096 1048576 536903815 16779265 17039360 43520 36 67588 516 33816576 606208 8388608 88080384 4 131072 335544320 2155873056 2147483648 536875008 0 130 1 21037056 0 4 268959748 4194352 33554432 2147487746 81920 16777344 134217728 791040 0 0 0 144 2 8392704 2 1090519040 4096 264192 41943040 32768 4096 536879104 1 0 0 2147483648 393216 142639104 0 16 0 2 0 0 0 256 2147483648 131072 32896 100663360 268436496 134218240 9438336 536881152 3221225536 18907272 67109001 68157440 3145728 2116 8 33554432 1 0 83886080 0 4194304 33554432 0 0 16777216 536870916 537922056 16793600 3296756608 411041792 1073741952 8396800 65536 268435488 1048680 134348800 136839168 25165961 2097153 33818624 273162242 0 33554432 16777216 0 2684485632 8 1048576 8192 524288 268435456 0 0 0 16384 0 0 0 1 0 0 2048 272 8192 262146 4194336 1024 512 131072 256 2050 16 8 2048 2 1073741824 2147747845 32776 33554432 1 0 16777216 1073872896 2097152 16777217 65536 2048 8388608 4 0 0 4194304 0 0 0 536870912 2147483652 0 33554432 65 0 8224 0 0 1544 134217728 0 536871168 18432 16 80 0 0 1090519040 2097153 513 4096 32 0 0 528 134217728 0 256 16384 16 0 16 1073741824 524288 536872960 144 536871680 1073807360 0 256 1073741824 0 32768 0 0 0 1 0 134742016 137 0 262144 65536 134217728 4194568 2 0 1048576 32769 16779264 128 0 64 4096 0 4194560 0 0 33554448 1024 2 134217728 0 0 0 0 2097152 128 0 4096 8192 131072 0 4194304 0 0 33554440 131072 0 8192 0 4194336 0 0 0 256 2 0 2 64 0 0 1073741824 0 512 0 134217728 0 0 0 537919488 0 0 0 32768 4096 32 0 2048 528 0 0 0 16384 65536 0 0 262144 0 16392 0 0 0 3072 4 0 0 0 0 256 4096 0 0 0 0 0 0 256 16384
is_linear=0
shrinkage=0.00884139


Tree=2
num_leaves=63
num_cat=50
split_feature=0 0 0 2 0 2 0 0 2 2 0 3 2 0 0 2 0 0 3 2 0 2 2 0 3 2 2 0 3 2 0 2 2 0 0 3 2 0 0 0 2 0 2 0 0 3 2 0 3 3 0 3 0 3 0 0 3 3 0 0 2 2
split_gain=3383.41 1384.21 831.76 526.633 523.221 392.935 334.619 301.598 295.377 199.685 193.282 190.561 186.242 175.333 164.262 82.4455 77.1661 72.5879 69.3357 68.5526 67.7573 60.8904 60.758 76.5732 59.6556 51.5701 47.6397 47.638 47.6025 37.3279 104.162 33.8019 30.8096 28.5993 24.8929 23.4908 19.54 18.7486 16.6015 15.9695 15.0482 14.2054 13.9147 18.7018 13.7543 13.4504 9.43378 9.41734 14.9045 8.94495 8.88123 14.1339 8.75241 14.8547 8.52448 8.47974 8.45563 8.36893 8.03762 6.88045 5.93751 5.67877
threshold=0 1 2 3 4 5 6 7 8 9 10 1.0000000180025095e-35 11 12 13 14 15 16 1.0000000180025095e-35 17 18 19 20 21 1.0000000180025095e-35 22 23 24 1.0000000180025095e-35 25 26 27 28 29 30 1.0000000180025095e-35 31 32 33 34 35 36 37 38 39 1.0000000180025095e-35 40 41 1.0000000180025095e-35 1.0000000180025095e-35 42 1.0000000180025095e-35 43 1.0000000180025095e-35 44 45 1.0000000180025095e-35 1.0000000180025095e-35 46 47 48 49
decision_type=9 9 9 9 9 9 9 9 9 9 9 2 9 9 9 9 9 9 2 9 9 9 9 9 2 9 9 9 2 9 9 9 9 9 9 2 9 9 9 9 9 9 9 9 9 2 9 9 2 2 9 2 9 2 9 9 2 2 9 9 9 9
left_child=5 9 12 4 25 28 36 24 13 11 19 16 34 40 58 -15 59 -12 -9 -10 31 -13 23 -16 -7 27 37 35 -1 -18 41 -11 50 61 57 -4 39 -14 -32 -5 -8 -31 56 -44 -27 -41 -39 48 -33 -35 -22 -52 53 -34 -29 -48 -38 -3 -6 -2 -51 -28
right_child=1 2 3 6 14 7 8 18 10 20 17 21 26 15 22 -17 29 -19 -20 -21 32 -23 -24 -25 -26 44 33 54 -30 30 38 47 52 49 -36 -37 42 46 -40 45 -42 -43 43 -45 -46 -47 55 -49 -50 60 51 -53 -54 -55 -56 -57 -58 -59 -60 -61 -62 -63
leaf_value=0.0084864589925145555 -0.0013247042072945811 -0.0069429298252238888 0.0066123382300845432 -0.0019170701419130524 -0.0086170895796053443 0.032192665634759421 -0.0025170769497639819 0.015671394987296795 0.0031988114254572699 -0.0024731972130401427 -0.0011310722419558843 0.01059652164793789 0.005156686959096702 0.018597731826418069 -0.00024503101049980317 0.0086043432143477171 0.016267754615688756 0.0012159067460855936 0.025544726478656882 0.0081263385473042873 -0.00078122923309908055 0.024962062363393774 -0.0077949243332773102 -0.0035113954117970444 0.044377045339721782 0.0027192136260378616 0.0001688848240655444 0.0012907125922055347 0.018450809211261077 0.0039449863230902058 0.014459828444743823 0.0040343565302547102 0.013401305124526003 -0.0056580912648361015 -0.0091334688449360348 0.0135373382027698 -0.0069172971188284898 0.002422928580310707 0.0086340689187675568 -0.0013772006114650345 0.0027971538526640818 -0.0023845125876198049 -0.00074229142933080828 -0.0030019792943503515 -0.0034154662294880673 0.0044785313600014739 0.0010792992280332259 0.0022485410981558035 0.011891032894902218 -0.0018496696959453894 0.00099179585557178157 0.011518396433799271 0.0068590170540314792 0.0057236893950529137 0.0039473719869770442 -0.0031106939903502266 -0.0033302560860897375 -0.0043348401828523413 -0.0063081931272902575 0.0033442802306717519 -0.0046126551997084002 -0.0030617744749459508
leaf_weight=440 127 1275 527 461 599 195 157 388 2945 247 3875 159 103 277 2103 607 189 8361 237 717 106 220 463 4689 170 100 122 447 125 135 326 258 217 1879 1735 123 239 113 381 129 290 130 1065 2594 217 200 130 632 60 256 63 43 450 70 641 353 309 320 2450 109 811 2258
leaf_count=440 127 1275 527 461 599 195 157 388 2945 247 3875 159 103 277 2103 607 189 8361 237 717 106 220 463 4689 170 100 122 447 125 135 326 258 217 1879 1735 123 239 113 381 129 290 130 1065 2594 217 200 130 632 60 256 63 43 450 70 641 353 309 320 2450 109 811 2258
internal_value=4.38159e-06 -0.000666984 -0.00138859 -0.000372508 -0.00271943 0.020529 0.000933159 0.0260523 0.00187081 0.0073984 0.0013299 0.010936 -0.00513999 0.00826686 -0.00402355 0.0119274 0.00856378 0.000472181 0.0191466 0.00418543 0.00442922 0.0199186 -0.00285153 -0.00250227 0.0369672 0.00380549 -0.00363472 0.00476789 0.010536 0.0100287 0.00864566 0.00213526 0.00726355 -0.0040941 -0.00784212 0.00782355 -0.00229648 -0.000123308 0.0115027 -0.000229349 0.000911911 0.000863524 -0.0026827 -0.00234885 -0.00144962 0.00211685 -0.00111504 0.00334953 0.00538502 -0.00504752 0.00214745 0.00488635 0.0086801 0.0111721 0.00288103 -0.00198116 -0.00481923 -0.00638361 -0.0067916 0.000878888 -0.00401394 -0.00289556
internal_weight=49417 47862 43940 34585 12359 1555 22226 990 17229 3922 15898 1776 9355 1331 10304 884 1397 12236 625 3662 2146 379 7255 6792 365 2055 6025 1738 565 1161 972 1197 949 5326 3330 650 4997 699 707 790 447 265 4207 3659 317 329 596 950 318 2946 212 106 737 287 1088 483 548 1595 3049 236 1067 2380
internal_count=49417 47862 43940 34585 12359 1555 22226 990 17229 3922 15898 1776 9355 1331 10304 884 1397 12236 625 3662 2146 379 7255 6792 365 2055 6025 1738 565 1161 972 1197 949 5326 3330 650 4997 699 707 790 447 265 4207 3659 317 329 596 950 318 2946 212 106 737 287 1088 483 548 1595 3049 236 1067 2380
cat_boundaries=0 10 21 32 39 49 55 65 75 82 88 99 106 117 128 135 144 155 161 170 176 182 192 198 203 213 218 225 231 237 248 259 266 275 282 289 295 299 305 315 321 326 335 346 357 364 373 381 388 395 401
cat_threshold=2148565544 2148008260 268439552 524304 2181038080 83886092 1073745920 6291456 256 16773 128 4098 536879168 143361 0 4195584 2282031104 2147880960 176193688 134348800 16 4369 8224 262154 4196352 17944 134742528 132128 536871168 19458 66576 8 2147747925 1090519082 44302340 1074135104 2147483648 218235683 16 1414013954 541065216 100663296 1090519040 68223233 2718040065 280 1048576 8192 537395200 2196 80 1073741824 0 0 33554944 34078724 134285312 4194432 536871712 1078001696 1645215744 536903936 1090519552 32 2147524618 40 2147483904 268439552 524288 0 8 0 4194304 0 16513 1212679168 137171520 1049600 19398912 580911104 144 10 268961796 4194336 33554432 2147487744 81920 16777344 1765934082 1048576 2181169408 1090584584 8388611 17 8194 2048 17301504 541065216 68 67588 33284 33816576 606208 8388608 88080384 4 196608 67109888 8389408 2147483648 536875008 0 130 1 21037056 0 4 2162688 402718720 4326288 1058 4096 1064960 536903815 16779265 262144 43520 4 0 790528 0 524288 2097152 144 2 0 2 0 131072 0 256 2147483648 131072 8421504 67108928 805307408 142606880 76547200 536870912 2147483712 18874500 67109001 68288512 3145728 32 8392704 32768 1090519040 4096 264192 41943040 128 2 64 4096 0 4195584 134481920 2147483648 33554568 0 0 0 2147487744 0 128 2147485765 10 33554432 262144 0 16777216 553648132 1049096 2164277280 2155873160 142606342 1073741968 8396800 65536 16908288 1048672 2116 8 33554432 0 0 83886080 134348800 136839168 25165961 2097153 33818624 273162242 0 33554432 16777216 0 2684485632 0 1048576 8192 524288 268435456 0 0 0 16384 0 0 0 1 0 0 2048 80 0 0 1090519040 2097153 545 2147483664 3 0 0 0 33554433 272 8192 262154 4194304 1024 512 131072 256 2050 16 8 272 0 262154 4196352 16400 512 0 0 2 66560 8 1342768128 2149842944 16777233 65680 2048 268435456 4 0 0 262144 0 16392 0 32 0 2048 128 0 536870912 4096 0 1024 134479872 0 134283264 4194304 0 4194304 537919488 536870912 4718592 0 0 0 2097152 128 0 0 0 1 2 4227088 134217728 524291 0 1024 33554432 134217728 0 0 4194304 1610612736 536870912 0 0 8192 1073742848 536870912 0 0 0 2147483648 0 134742016 129 0 33816576 0 2 0 0 0 0 262144 0 8 0 0 0 131073 0 0 0 0 32768 0 16 0 0 0 1 0 0 2147483648 0 32784 0 16 0 536870912 0 1073741824 257 33554432 16 16 8192 2 0 0 0 0 0 17408 65536 0 4194304 0 0 1048576 1 16779264 0 2 0 0 0 0 2147483648 0 4194304 0 16 0 33554432 8 528386 4096 0 0 0 8388608
is_linear=0
shrinkage=0.01419


Tree=3
num_leaves=63
num_cat=62
split_feature=0 1 1 1 0 0 0 1 0 1 0 1 0 0 0 0 1 1 2 0 1 0 0 0 0 0 1 1 2 1 1 1 1 1 2 0 0 1 2 2 1 0 1 2 1 1 0 0 0 0 1 0 2 1 0 0 0 2 2 0 1 2
split_gain=3059.85 2203.72 1046.57 878.823 738.031 581.787 545.013 509.817 482.171 474 454.922 389.125 290.027 252.43 251.397 216.166 200.153 140.173 131.903 97.5009 94.3517 85.8167 92.8999 85.7477 65.2552 60.4185 50.7524 49.7763 49.2856 45.8257 44.7784 36.803 35.3716 34.6564 32.9531 36.2551 31.6814 29.3468 27.9666 24.9061 22.2554 22.2545 22.2474 21.8852 20.2284 19.1175 46.1756 19.0359 19.022 17.7484 17.0678 16.5773 14.5517 14.2722 14.2546 13.7414 13.458 12.9464 12.5213 12.3383 11.8279 11.3061
threshold=0 1 2 3 4 5 6 7 8 9 10 11 12 13 14 15 16 17 18 19 20 21 22 23 24 25 26 27 28 29 30 31 32 33 34 35 36 37 38 39 40 41 42 43 44 45 46 47 48 49 50 51 52 53 54 55 56 57 58 59 60 61
decision_type=9 9 9 9 9 9 9 9 9 9 9 9 9 9 9 9 9 9 9 9 9 9 9 9 9 9 9 9 9 9 9 9 9 9 9 9 9 9 9 9 9 9 9 9 9 9 9 9 9 9 9 9 9 9 9 9 9 9 9 9 9 9
left_child=3 6 5 25 9 34 32 39 28 40 20 13 27 -12 31 -13 23 24 -10 -18 48 29 26 -14 -11 -1 -23 56 -5 -16 -19 51 47 -22 35 44 -21 -24 -32 -6 -4 -37 -38 -27 -3 -25 -47 57 -9 53 -41 -7 55 -34 60 -29 -8 -2 -31 -54 -33 -49
right_child=1 2 4 8 7 14 12 10 18 17 11 15 16 -15 21 -17 19 30 -20 36 33 22 37 45 -26 43 -28 52 -30 58 38 54 49 -35 -36 41 42 -39 -40 50 -42 -43 -44 -45 -46 46 -48 61 -50 -51 -52 -53 59 -55 -56 -57 -58 -59 -60 -61 -62 -63
leaf_value=0.0064192592914718571 0.0031354936198123599 0.0021322536376965325 -0.0055607416964342819 0.0060665859737548938 -0.0073329360047653712 -0.0015394162145005125 0.0025026293929704445 -0.003835504563845332 0.011594211524173725 0.0051871359056303405 0.005230153991683255 0.00061170288651757917 0.0064176576064190948 -0.00012012603855005119 0.001640602313100739 -0.0025195246558706408 0.01011927492558322 7.2172810280193785e-05 0.026753659310823182 0.0028285204722494155 -0.003956903211832296 -0.00080542920275245553 0.0021052077436903146 0.01013577450652528 0.011461715706992077 -0.0036853585175938967 0.0022318049662381784 0.0026605354699736142 0.01284098992566444 -0.0026239490799613401 -0.00024334063699299645 0.00078725117612655408 -0.00051665315209075162 -0.0058191634852310572 0.0041849919108643482 0.0074672104928458823 0.0075324896284478422 0.005149754580644858 0.0046670795192774311 -0.0036480600364417639 -0.0020606339818773109 0.013395074404392276 0.0044823099748290815 0.00106078904649902 0.0076090834075976501 0.0074907659264933707 0.01792127687985964 0.0047254858911776358 -0.0020511559018501855 0.0005247626673253224 -0.0062427163328109565 0.0010420217072134275 0.0011647676810933958 -0.0034080168922799876 -0.0037145474407725013 0.0064543252708900191 -6.4212313373616662e-05 -0.0001324368486163969 -0.00045045837550275301 0.0041447151849945624 -0.0024147111314357667 0.001322031261274329
leaf_weight=124 121 109 333 198 1293 469 273 817 119 356 861 2099 357 4309 942 13338 365 316 382 547 1717 644 415 424 317 121 1491 168 440 303 115 123 389 2238 228 225 428 1040 824 505 346 241 698 195 239 104 244 220 1544 653 668 347 228 222 786 357 417 409 766 298 384 168
leaf_count=124 121 109 333 198 1293 469 273 817 119 356 861 2099 357 4309 942 13338 365 316 382 547 1717 644 415 424 317 121 1491 168 440 303 115 123 389 2238 228 225 428 1040 824 505 346 241 698 195 239 104 244 220 1544 653 668 347 228 222 786 357 417 409 766 298 384 168
internal_value=3.37925e-06 -0.000407846 -0.00121997 0.0123792 -0.00198001 0.00155752 0.00425417 -0.00239046 0.0165942 0.00263733 -0.00202694 -0.00137258 0.00593083 0.000779935 0.00069263 -0.00209357 0.00757595 0.00492774 0.0234811 0.00579336 -0.00415567 0.00169697 0.00253672 0.010706 0.00828074 0.0013274 0.0013158 0.00290897 0.0108784 0.000191768 0.00307263 -0.00196919 0.000471594 -0.00502414 0.00788205 0.00884689 0.0047891 0.00430431 0.00406889 -0.00633232 -0.00383978 0.010773 0.00570416 -0.00081663 0.00601406 0.0125699 0.0151317 0.00181636 -0.00268392 -0.000511597 -0.0051707 -0.000441317 0.0041556 -0.00161035 -0.00292087 0.00532152 0.000973405 0.000660545 -0.00108781 0.00290503 -0.00163593 0.00333117
internal_weight=49417 47838 40748 1579 31996 8752 7090 29389 1139 2607 26923 20607 4908 5170 7710 15437 3167 1928 501 2038 6316 5601 3590 1129 673 440 2135 1741 638 2011 1255 2109 2182 3955 1042 814 1673 1455 939 2466 679 466 1126 316 348 772 348 918 2361 1264 1173 816 1051 611 1293 525 690 530 1069 526 507 388
internal_count=49417 47838 40748 1579 31996 8752 7090 29389 1139 2607 26923 20607 4908 5170 7710 15437 3167 1928 501 2038 6316 5601 3590 1129 673 440 2135 1741 638 2011 1255 2109 2182 3955 1042 814 1673 1455 939 2466 679 466 1126 316 348 772 348 918 2361 1264 1173 816 1051 611 1293 525 690 530 1069 526 507 388
cat_boundaries=0 10 20 30 40 51 60 70 80 90 100 110 121 132 141 152 162 172 182 185 195 205 216 227 237 248 258 268 277 283 293 303 313 323 333 339 348 358 368 374 380 389 395 404 410 420 430 439 449 459 469 479 488 494 504 515 524 534 540 546 557 565 568
cat_threshold=2148532776 2148008260 268439552 524304 2181038080 83886092 1074008064 6291456 256 16773 135012352 128 16777216 8394752 25041 0 2170883 2097280 38281488 270663680 536870912 268435456 23616 135266312 8389632 1581056 201330692 83951664 1073743880 603985920 16778306 19712 2 2097152 134217734 2705326354 33556480 270532608 671089152 1028 272662656 4098 536879104 143360 0 4195585 134283272 2147883008 44072984 536870912 80 1140891776 0 2785157184 16781321 201457667 4326528 2281701380 131072 16777224 67178496 268435488 4194312 514 4211608 537001984 536903809 1140850944 18528 33824 18875656 1282 3221225986 16384 0 2164327705 537001984 393216 671089218 17301504 2147484160 524356 4096 16 2147483648 67108868 1073741824 0 256 256 287311104 2147501314 2147483648 2097188 67108864 2168456473 587333632 33816576 512 16777216 4096 8224 4458496 514 536 135266304 822084645 536871176 805888 99344 16 1073776656 2097160 1074012192 2596 134217728 20971584 9437187 2147500032 2181046337 1 0 201342976 2147615106 2147484672 77824 168820753 16777222 16777344 18088960 2147549184 68 603987968 1048576 235405424 1149239297 335740935 4026663040 3145728 0 536870976 4112 48 4456970 536874528 1544 135266304 538968064 1610612992 19456 590864 8 1090520066 5242880 52428864 1073807360 75497474 2684485632 2156939280 1114112 155197440 655360 134217728 128 16777216 4096 400 0 2170882 0 524544 268435456 0 2081 4194312 524288 17044010 536870944 1078476864 1052674 17874944 65633 4 18 1073741824 2097152 0 33554496 4097 1 1024 2048 1 8 524288 268435472 1210056704 265 2168464000 16812032 167772672 1077936160 1083179008 2147500032 8707 134217984 8704 134220192 1140850688 4212752 1073758720 16812065 67109000 1048576 4235272 32 196612 469778432 16 2148565250 268435460 536870912 335544448 16777217 269418592 536873472 4 4 520 64 32768 1 1024 343932928 9 0 4325376 128 2 0 0 0 1025 0 2147614720 8 536870912 16 2147483680 0 0 0 2147483648 4 4096 4194304 0 1 0 268435456 64 134217728 8389632 8192 4 65536 1073743872 4096 524288 0 0 2048 16 0 2097152 2097152 532752 2048 0 1073741824 0 0 33554432 536870912 0 2112 134217736 1024 1048576 67108864 32 8 2048 1140852742 1073741824 65664 67371008 131072 2 128 8192 142606336 32768 536870912 0 2112 8 1024 0 0 16 0 2048 0 128 16777216 4096 1 0 1 128 0 268435456 16384 39008 269484032 4 1610612738 536871104 16793600 2 278955008 262240 4 4194320 1107296256 0 16384 16777216 67117056 0 33685504 8 134348801 4194304 4 131072 8 131076 522 537135104 32768 67108864 4194304 67109120 0 33554432 10256 0 0 0 134217728 0 532480 4100 67108880 2056 67108864 2155872256 2 0 16777280 0 1 2148007940 0 33554432 0 64 16777344 1280 17666 0 2097152 0 2164261905 0 33816576 512 0 0 0 16777217 0 1152 794624 0 0 8388608 24577 0 0 0 4194304 0 16 33816576 0 131072 32 0 268435456 64 0 0 8192 201326596 0 2048 536870912 134217728 0 0 4096 272 0 8192 0 256 268435456 0 2 2048 0 0 0 8192 0 524416 69632 32 4194312 0 512 131072 0 67108864 16416 32768 0 32 4194304 0 0 134217728 1 536871168 1024 65552 4096 32 0 512 16896 0 1 1073742080 18432 33824 18875400 0 512 16384 0 264 131072 0 134217730 16777216 4096 32 4194312 512 0 0 536870912 1073741824 16384 4194304 0 1073741824 0 0 144 532480 0 0 0 0 0 0 0 8448 131072 16 0 262666 536873504 1024 0 2097152 1073741824 1024 65552 8 0 0 0 1024 0 1048576 16777216 0 16777216 0 201342976 0 2147483648 4096 0 0 16777216 0 65536 268435456 0 16777344 0 0 33554432 0 1 33554432 1 0 16777216 0 201326592 2147614976 1024 0 0 4 128 0 0 64 0 0 0 0 0 1048576 201326592 16777216 0 0 1073741824
is_linear=0
shrinkage=0.00906818


Tree=4
num_leaves=63
num_cat=55
split_feature=0 1 1 1 0 0 1 0 1 1 0 1 0 3 0 0 0 1 1 3 3 0 3 0 1 0 0 0 1 1 0 1 1 0 1 0 1 1 1 0 0 0 1 1 3 1 1 1 0 1 0 3 1 0 1 0 1 0 0 3 0 0
split_gain=2793.93 1993.64 962.294 705.359 703.127 545.739 489.904 487.798 449.586 433.838 413.089 297.427 265.659 251.578 248.058 226.067 207.989 183.778 163.296 131.237 122.324 101.722 98.7186 99.2063 91.1701 90.013 84.0912 80.221 63.7186 58.2348 55.292 52.5902 48.2059 39.0835 37.3197 36.4439 35.982 35.6073 35.1238 32.6846 32.4558 31.3536 31.1013 30.9303 50.0384 29.1711 24.8965 23.5336 21.6295 19.402 19.3749 18.1811 17.1059 16.6099 23.1291 15.6827 15.2879 14.5371 13.5832 12.3523 12.1006 11.8379
threshold=0 1 2 3 4 5 6 7 8 9 10 11 12 1.0000000180025095e-35 13 14 15 16 17 1.0000000180025095e-35 1.0000000180025095e-35 18 1.0000000180025095e-35 19 20 21 22 23 24 25 26 27 28 29 30 31 32 33 34 35 36 37 38 39 1.0000000180025095e-35 40 41 42 43 44 45 1.0000000180025095e-35 46 47 48 49 50 51 52 1.0000000180025095e-35 53 54
decision_type=9 9 9 9 9 9 9 9 9 9 9 9 9 2 9 9 9 9 9 2 2 9 2 9 9 9 9 9 9 9 9 9 9 9 9 9 9 9 9 9 9 9 9 9 2 9 9 9 9 9 9 2 9 9 9 9 9 9 9 2 9 9
left_child=3 7 5 20 6 43 46 42 41 40 24 15 31 27 34 -12 -13 19 35 28 -1 47 25 56 50 37 51 -11 -14 -28 -27 57 -21 -23 61 -8 -35 -16 -26 -30 59 -6 55 44 -3 -25 -4 58 -45 -50 -10 -20 -33 -44 -55 -2 -24 -9 -19 -5 -15 -7
right_child=1 2 4 9 8 14 18 12 10 13 11 16 17 60 22 -17 -18 21 26 32 -22 33 23 45 38 30 29 -29 39 -31 -32 52 -34 36 -36 -37 -38 -39 -40 -41 -42 -43 53 48 -46 -47 -48 -49 49 -51 -52 -53 -54 54 -56 -57 -58 -59 -60 -61 -62 -63
leaf_value=0.034529438531754351 0.00091745067625850297 0.012600341489598547 -0.0088980278054830303 0.0021189487868197403 -0.0050948362129560332 0.0034114900800445904 0.0074100970808877332 0.0034147118636420003 -0.0015846118106004523 0.018634704140873058 0.007332656524090422 -0.0054576595705438553 0.0024108262950240373 0.034966097873352767 0.0011020692913683262 -0.00035489310371500279 -0.0019360325657056044 -0.0021629974089663593 0.0081758405038494554 0.012055553787145616 0.057411394221614953 0.0070712925396805223 -0.0037795562352941061 0.011433910948301849 -0.0092411866579775494 0.0011198882365982012 0.007422881125362951 0.0085579308934002393 0.0088766293853604801 0.0015104599580745615 0.0046008332201392908 0.0040355739576701678 0.029096154403974523 0.0081639095373218264 -0.0039764126181933857 0.019426639242678762 0.015628046283775635 -0.0031374505393266931 -0.0062064705041907364 0.016238985914632707 -0.0032831256549890756 -0.0094986486739283126 0.0016351478206979488 0.014074146594171541 0.025193132815907817 0.0058394329587587255 -0.0034935956443567368 0.0062733396596166054 0.0016459879734395254 0.008507280835999248 -0.0043988511156603472 0.014243118907380753 0.0077514047846854103 -3.8886623377913159e-05 -0.0044533633752340922 0.0044334891886134622 0.0017668090423235065 -0.00035805087983101339 0.0033087238098646055 0.010917222092380977 0.020854104792819524 -0.0010259876787028931
leaf_weight=142 530 429 229 73 434 120 113 296 647 285 787 3938 116 110 595 4027 11411 105 178 106 63 463 106 337 1023 1819 456 403 265 816 1434 544 140 285 1527 212 413 800 3117 508 200 2038 356 106 64 506 551 502 123 270 1529 181 514 552 324 394 322 423 256 45 249 510
leaf_count=142 530 429 229 73 434 120 113 296 647 285 787 3938 116 110 595 4027 11411 105 178 106 63 463 106 337 1023 1819 456 403 265 816 1434 544 140 285 1527 212 413 800 3117 508 200 2038 356 106 64 506 551 502 123 270 1529 181 514 552 324 394 322 423 256 45 249 510
internal_value=7.45456e-06 -0.000562671 -0.00168665 0.0172663 -0.00277127 0.00210205 0.0036139 0.00588884 -0.00337589 0.013578 -0.00287052 -0.0019455 0.00817644 0.0176898 0.000960108 0.000915457 -0.0028429 0.0104871 0.00713216 0.0148285 0.0398767 0.00798492 0.00235566 0.00561749 -0.00581478 0.00146748 0.00534429 0.0131497 0.0125694 0.0036765 0.00266511 0.00402879 0.0235034 0.0105779 -0.00286133 0.0156319 0.0127562 -0.00133378 -0.00697917 0.0138767 -9.45471e-05 -0.00875201 0.00063601 0.0112849 0.014002 0.00819591 -0.00518362 0.00440589 0.00835377 0.00646641 -0.00357486 0.010965 0.00590323 -0.000735053 -0.00170811 0.00245265 0.000329886 0.00122137 0.00169678 0.00511871 0.0268175 -0.000134657
internal_weight=49417 47847 40755 1570 31687 9068 2736 7092 28951 1365 26479 20163 4936 1047 8076 4814 15349 3159 1956 1135 205 2024 5919 1271 6316 4648 1631 688 889 1272 3253 1777 246 1161 2157 325 698 1395 4140 773 318 2472 2156 992 493 843 780 863 499 393 2176 359 1058 1232 876 924 428 719 361 118 359 630
internal_count=49417 47847 40755 1570 31687 9068 2736 7092 28951 1365 26479 20163 4936 1047 8076 4814 15349 3159 1956 1135 205 2024 5919 1271 6316 4648 1631 688 889 1272 3253 1777 246 1161 2157 325 698 1395 4140 773 318 2472 2156 992 493 843 780 863 499 393 2176 359 1058 1232 876 924 428 719 361 118 359 630
cat_boundaries=0 10 20 30 40 51 60 70 80 90 100 110 121 132 143 152 162 172 182 192 202 212 223 232 242 249 259 270 279 289 299 309 319 329 337 347 357 367 376 386 396 406 414 423 430 438 448 458 465 475 485 494 504 514 520 530
cat_threshold=2148565544 2148008260 268439552 524304 2181038080 83886092 1073745920 6295552 256 16773 135012352 128 16777216 8394752 25041 0 2170883 2097280 38281488 270663680 536870912 268435456 23616 135274504 8389632 1581056 201330692 16842800 1073743880 603985920 524288 0 16777216 142610440 20481 0 2097154 4128 524289 8192 272629888 4098 536879104 143360 0 4195585 134545416 2148927488 44081176 536870912 16 1140859008 0 2785157184 16781321 201457666 4326528 2281701380 131072 536870920 354419970 2147501314 2147549312 2097152 67108864 2164262161 587333632 33816576 512 16809984 67178496 268435488 4194312 514 4211600 537002000 536903809 1140850944 18528 33824 18874696 1049858 3225420290 0 0 2164262169 537001984 33947648 671089218 524288 16778304 19712 2 2097152 134217728 88080402 33556480 0 134218240 1028 4112 134217760 4458624 2147483650 536 134217728 536871973 553648392 805888 99344 0 1073776656 2097152 1074004000 2099748 134217728 1094713408 1150287875 2147500032 2147491905 1 0 201342976 2147615106 2147484672 77832 168820737 16777222 16777344 18088961 2147549184 68 4112 65584 4456458 536874528 520 135266304 538968064 1610612992 19456 590864 8 603987968 1049600 235405376 1140850689 335609863 4026728576 3145856 512 536870912 134414593 335880192 131594 4230176 1073759232 1049088 285220992 129 0 8194 134217728 128 16777216 8392704 400 0 2170882 0 524544 268435456 0 2048 4194312 1074266112 295458 0 540672 1048578 1081344 1 134348820 522 537135104 32768 67108864 4194432 335544576 8 33554432 10256 196608 134243328 2176 68321280 5136 16448 268435489 0 1310720 33280 268435472 1207975936 301989896 16777344 2129920 134218240 4718624 1074790402 2424324096 33825281 134217984 335552514 944 1140850688 4212752 528 16812064 67109000 0 4237320 32 4194304 4096 0 0 0 256 327680 2147876864 32784 512 256 0 0 2181038080 8 0 4194304 0 16384 0 0 0 0 16 0 2097154 16384 134217760 135266816 2151678976 134217732 131104 4195392 3221225472 16793600 96 131076 134219264 134219776 2148565250 1342178304 1342193664 335544321 16777217 268894274 2 4 524288 0 0 2048 272 0 2097152 2097152 532752 0 0 16777216 8392704 0 0 2 0 256 268435456 524288 4096 0 1073741824 6 0 8192 0 524288 6291456 0 0 2112 8 1024 0 0 0 0 2048 128 2 0 0 0 1025 0 131072 0 536870912 524288 0 0 0 16448 0 0 128 37748752 131072 536870912 0 6208 134217736 0 1048576 67112960 16777248 2147483652 8 671088641 16386 2416185352 809566242 33816784 268435456 2097152 16777216 4 514 64 32768 1 1024 335544320 8 0 4194304 1048576 0 0 0 33554432 4 4096 4194304 0 1 1141383170 134234112 33570848 262144 1074921744 2147614720 2097152 1073807361 131072 0 128 16777216 4096 1 0 1 128 0 268435456 0 0 17408 8200 8388608 1048576 201330688 48 1073741832 2048 0 268435456 16384 8192 1024 1048576 134217728 0 1073741824 6144 1280 17666 0 0 0 16777233 0 33816576 262144 0 0 0 8192 0 0 2097152 8208 0 0 2751463424 0 0 1152 2281701376 0 268435456 0 0 0 0 4 16842752 16 134217728 262144 2147483648 8 0 37 16777216 2048 65536 8192 0 0 8388608 8193 0 2 0 0 268435456 67108864 268435456 4194304 0 4194688 536870912 536903680 532480 0 0 0 16 0 0 0 8448 131072 69632 32 4194312 0 512 131072 0 67108864 16416 32768 0 0 4096 8200 0 0 4 0 1073741832 0 201342976 131200 2147483648 4096 0 0 16777216 0 65536 134348800 0 0 0 0 0 0 8 0 2048 2147483648 256 268439552 524288 0 16777224 0 0 0 1024 0 1048576 0 0 2048 1024
is_linear=0
shrinkage=0.0131955


Tree=5
num_leaves=63
num_cat=56
split_feature=1 1 1 2 3 1 1 2 1 1 2 1 1 3 1 1 1 2 3 2 1 2 2 2 2 2 3 1 2 2 3 2 2 1 1 2 1 3 1 2 1 1 1 1 2 2 2 1 2 1 1 2 1 1 2 1 1 2 1 2 2 2
split_gain=2054.89 921.309 608.122 415.997 388.703 317.414 225.59 191.324 198.815 159.923 153.334 128.825 96.3006 86.7472 82.2433 74.4427 56.4007 54.2978 53.2294 85.362 63.8439 49.8268 49.7553 48.3878 45.5449 41.3274 51.7191 51.0086 49.4462 37.7115 34.9039 30.4474 29.3414 29.0563 25.0432 24.138 23.9312 22.4762 21.7607 19.8318 17.7634 16.8389 15.7792 15.7342 15.0263 12.1769 12.0477 11.8222 10.8067 10.1472 9.69628 9.41873 14.8814 9.06913 9.05005 8.55234 8.27807 7.75309 7.42535 6.92784 6.1269 5.89077
threshold=0 1 2 3 1.0000000180025095e-35 4 5 6 7 8 9 10 11 1.0000000180025095e-35 12 13 14 15 1.0000000180025095e-35 16 17 18 19 20 21 22 1.0000000180025095e-35 23 24 25 1.0000000180025095e-35 26 27 28 29 30 31 1.0000000180025095e-35 32 33 34 35 36 37 38 39 40 41 42 43 44 45 46 47 48 49 50 51 52 53 54 55
decision_type=9 9 9 9 2 9 9 9 9 9 9 9 9 2 9 9 9 9 2 9 9 9 9 9 9 9 2 9 9 9 2 9 9 9 9 9 9 2 9 9 9 9 9 9 9 9 9 9 9 9 9 9 9 9 9 9 9 9 9 9 9 9
left_child=3 10 32 6 5 24 13 11 17 51 16 35 23 -1 46 44 48 38 20 -20 56 59 -17 -5 -4 50 33 57 -29 42 -18 -16 55 -27 -31 -6 -26 -8 -9 -22 -39 -23 -21 -41 -11 -37 -10 -19 -2 54 -14 52 -7 -53 -34 -3 -12 -28 -35 -13 -45 -38
right_child=1 2 4 12 7 9 37 8 14 15 18 21 25 -15 31 22 30 47 19 29 39 41 -24 -25 36 26 27 28 -30 34 -32 -33 49 58 -36 45 61 40 -40 43 -42 -43 -44 60 -46 -47 -48 -49 -50 -51 -52 53 -54 -55 -56 -57 -58 -59 -60 -61 -62 -63
leaf_value=0.022732952940650294 0.0014405907375458415 -0.0091721768378687715 -0.0057063386612849808 0.012510560767065151 0.0063137682450600556 -0.00394897056731829 0.014009889193877745 9.3714694228929325e-05 -0.0027146833255182723 0.0010044481649284813 -0.0047907112581986782 0.0055294260239984018 -0.0043898946880746789 0.057320072247316008 -0.0026457584860468224 0.0023720420726734636 0.0095519920276777286 0.011906419358923554 0.019500071677665022 0.0035242695600928671 -0.003866611361990754 -0.0031339946534997276 -0.002880268761008351 0.0034354144315739627 0.0018193633277977614 0.0021446178314281123 0.0072185832384631951 0.008062268998155743 0.020897044891603034 0.010075641913219607 0.017501513311117049 0.00051306435253206781 -0.00095879118528183834 0.007462533685211264 0.0038863592691835715 0.011792801973276479 -0.0018889241312341409 0.010740929733784871 0.0046912624468413043 0.004307148951929643 0.024391667340738381 0.0023153341824203892 -0.0017208755995264137 0.0031996459253451287 -0.0054259094428418427 0.022073729535308718 -0.0066447980190183133 0.0064296315081237331 0.007412544050405266 -0.0088344996328678874 0.0018268094502584603 -0.003849485434582931 -0.0081182884333576618 -0.0092659637316879987 -0.0065600522606874181 -0.012539672699803538 -0.00043295987598889054 0.0014730942040957974 0.0052939672210392122 0.011569480748960109 0.0012543462174434965 -2.6955368340249003e-05
leaf_weight=32 213 850 338 1157 141 497 504 615 369 110 126 212 100 72 1294 546 377 221 107 363 106 212 8068 230 2541 676 146 242 188 371 281 2637 115 1048 468 205 581 109 567 2218 159 592 285 911 4295 135 874 516 161 966 193 149 701 1560 620 897 1509 153 1534 155 1043 2756
leaf_count=32 213 850 338 1157 141 497 504 615 369 110 126 212 100 72 1294 546 377 221 107 363 106 212 8068 230 2541 676 146 242 188 371 281 2637 115 1048 468 205 581 109 567 2218 159 592 285 911 4295 135 874 516 161 966 193 149 701 1560 620 897 1509 153 1534 155 1043 2756
internal_value=1.26527e-05 -0.001336 -0.00257311 0.00883754 -0.00181865 -0.00301223 0.0196751 0.00120115 -1.13105e-05 -0.00427653 0.00363509 0.00636641 0.00712711 0.0429239 -0.00173733 -0.00346809 0.0097304 0.00462487 0.00278392 0.00553201 0.00204672 0.00325935 -0.00254455 0.0110458 0.000233435 0.00583176 0.00628781 0.0103812 0.0140589 0.00435304 0.0127769 -0.000530804 -0.00930371 0.00538777 0.00672018 0.0136851 0.000585295 0.015982 0.00232348 0.00312942 0.0202126 0.000853464 0.00122459 0.00331728 -0.00526285 0.0164436 -0.00551349 0.00822513 0.00415414 -0.00753206 -0.000371437 -0.00786982 -0.00644168 -0.00882235 -0.00571299 -0.0109698 -0.000799586 0.00444064 0.00620274 0.00834732 0.00217499 -0.000356786
internal_weight=49417 42874 34335 6543 30887 22142 876 8745 7093 15926 8539 1652 5667 104 5174 13019 1032 1919 7507 1594 5913 1171 8614 1387 6216 4280 3987 729 430 1487 658 3931 3448 3258 839 481 5878 772 1182 4278 268 804 648 4172 4405 340 1243 737 374 1701 293 2907 1198 1709 735 1747 1635 299 2582 367 1954 3337
internal_count=49417 42874 34335 6543 30887 22142 876 8745 7093 15926 8539 1652 5667 104 5174 13019 1032 1919 7507 1594 5913 1171 8614 1387 6216 4280 3987 729 430 1487 658 3931 3448 3258 839 481 5878 772 1182 4278 268 804 648 4172 4405 340 1243 737 374 1701 293 2907 1198 1709 735 1747 1635 299 2582 367 1954 3337
cat_boundaries=0 10 20 30 36 46 55 62 72 82 87 97 107 117 127 136 143 146 156 163 170 176 183 189 199 203 210 217 223 233 243 247 257 267 273 283 292 302 311 318 325 331 341 346 355 365 371 381 386 392 402 407 411 420 427 433 439
cat_threshold=135004160 128 16777216 8394760 25041 0 2171139 0 4727041 337780736 536879104 268435473 19776 135528450 8389632 1581056 201330688 69271712 1073743888 6144 18875720 8389962 2181071362 0 1073741824 2147550233 2048 33816576 578 525312 272629762 528384 0 69632 2113600 144 2048 34848 4104 1074274304 2099726 0 68 1091588114 16793608 536871617 262144 0 0 0 0 0 2097154 0 524288 1216872656 4114 43253760 1589248 33556480 20971521 27 16400 65536 536870912 1140867104 2147649536 671088640 20971616 2155876368 2148548608 2684354659 6 2148548608 339738624 33571328 3019898880 1161822464 131088 671088704 402654208 1090551812 1342701573 140509186 134218880 16 2375680 2 36864 131080 2152210464 285214760 0 540736 1048576 16811008 65536 134217728 128 16777216 4096 0 0 0 0 0 2097152 1073741826 2147649568 1145044992 2752512 352321538 272630016 570425356 268566528 1024 1107558528 3225436672 136450048 135331840 128 16908288 268566722 553927688 268435456 545521664 2 8192 0 256 1048576 1024 1056768 4096 0 2048 33806 1 1090523136 0 0 8389120 4 0 0 33554432 0 268435456 256 262146 8388608 1056768 0 0 1073741824 6144 134217872 4114 8650752 0 0 16777216 2 268435456 4658 4 2147483648 0 33554432 16 0 0 1124073472 2147483648 0 16777216 525314 32771 16777216 851985 0 0 1 0 0 0 1077936128 262144 41943296 786432 0 0 2056 0 0 0 0 8193 139264 524292 0 1090519040 2147483648 2 4 16777216 1 2048 8388608 16 197634 32769 16782336 4098 545521664 109052544 4 2148009988 0 33554432 0 2097216 16777344 262144 0 0 0 8208 0 2097152 0 524289 8192 8192 268435456 0 134217728 0 1048576 201330688 69206016 1073743872 2048 524288 2 0 524288 0 32 4096 532480 512 0 4 1091584016 8 536871104 0 0 536870912 1073741824 163840 671088640 20971616 2147483648 2148532224 536870912 0 5 16777216 0 0 8388608 0 0 0 8388608 8208 0 0 0 0 67239936 0 16384 0 0 67108864 536870912 33685512 268435456 1048576 0 0 19520 1048576 1024 1056768 134217728 32 1073741824 2048 536879104 0 2112 1048576 0 0 67108864 32 2064 0 16 256 0 0 512 17 0 0 33554432 0 2048 4194304 9 2147484672 32768 0 2147483664 65536 8388640 0 0 0 16384 0 536870912 32 0 2148532224 536870944 0 4194306 0 0 262144 18874440 1344 33282 0 0 65560 0 0 2 0 0 0 0 1 0 2 0 1 268443648 208 32792 1073741824 0 0 67108897 4 1048576 268435456 33554944 0 16777216 131072 536870976 268436480 32772 0 0 4194304 0 268435456 327808 32768 262144 0 0 32 8 8388936 2181071362 0 1073741824 65536 0 0 576 525312 0 0 0 0 8388608 0 0 1107296256 2147483648 0 0 0 0 1 0 1 0 256 134217856 18 0 0 0 0 2 0 16 33554432 0 0 50331648 4194308 524292 0 2147483648 0 125829120
is_linear=0
shrinkage=0.0169219


Tree=6
num_leaves=63
num_cat=50
split_feature=0 0 0 2 2 2 0 0 0 0 2 3 0 2 2 0 2 0 0 2 2 3 2 2 0 3 2 0 0 2 0 3 2 2 0 0 2 0 0 3 0 0 3 2 0 0 0 0 3 3 2 0 0 3 3 0 2 2 2 0 3 3
split_gain=2827.66 1126.99 687.299 417.573 380.719 334.863 430.403 281.517 255.727 192.163 177.221 198.584 162.984 162.702 143.775 129.434 117.219 84.6663 75.9527 75.4266 69.9354 63.7527 60.9484 48.9531 45.2597 42.7337 41.7372 41.0857 38.2561 66.3217 47.1788 33.3575 31.3816 27.727 27.3615 25.4194 24.7955 24.4328 22.0068 20.872 18.7183 18.0377 17.2743 16.4709 15.5076 12.9269 10.6024 9.72047 47.2184 8.81552 8.36247 8.1536 7.90813 7.14499 6.85389 6.66118 5.76058 5.34804 5.19249 5.60341 4.55833 4.1655
threshold=0 1 2 3 4 5 6 7 8 9 10 1.0000000180025095e-35 11 12 13 14 15 16 17 18 19 1.0000000180025095e-35 20 21 22 1.0000000180025095e-35 23 24 25 26 27 1.0000000180025095e-35 28 29 30 31 32 33 34 1.0000000180025095e-35 35 36 1.0000000180025095e-35 37 38 39 40 41 1.0000000180025095e-35 1.0000000180025095e-35 42 43 44 1.0000000180025095e-35 1.0000000180025095e-35 45 46 47 48 49 1.0000000180025095e-35 1.0000000180025095e-35
decision_type=9 9 9 9 9 9 9 9 9 9 9 2 9 9 9 9 9 9 9 9 9 2 9 9 9 2 9 9 9 9 9 2 9 9 9 9 9 9 9 2 9 9 2 9 9 9 9 9 2 2 9 9 9 2 2 9 9 9 9 9 2 2
left_child=4 10 13 9 31 8 19 25 22 41 11 18 32 38 55 42 -16 36 -2 27 -14 44 35 -13 -17 -6 40 -7 -20 -30 -31 43 -8 52 56 -5 47 -21 54 -24 -15 60 -10 -1 -9 -38 -35 48 -12 -36 61 -52 -19 -49 -3 -11 -28 -51 -48 -60 -4 -42
right_child=1 2 3 5 7 6 12 21 15 14 17 23 20 26 16 24 -18 33 28 37 -22 -23 39 -25 -26 -27 34 -29 29 30 -32 -33 -34 46 49 -37 45 -39 -40 -41 50 -43 -44 -45 -46 -47 58 53 -50 57 51 -53 -54 -55 -56 -57 -58 -59 59 -61 -62 -63
leaf_value=0.0055533662214696366 -0.00024382429728875217 -0.0040703248256480024 -0.004740675337412863 -0.00043009125496856635 0.019486616868269281 0.0016570582093135737 -0.0014287759985831699 0.0043569653298325328 -0.0021389578088456319 0.0011959161185265176 0.0020023696783944733 0.0061777125642151634 -0.0042181533838687715 0.0034081705218077709 0.0059340506725894188 -0.00048791822258165547 0.016719276958558814 0.0003226515630841375 0.0088631214775902016 0.0016185779971339776 -0.0011844105906225451 0.015041314280159141 0.0044334826831153506 0.015273760812458506 0.00078573932651796092 0.026217832969311888 0.00032184693065253099 0.0044426790074557371 0.0095160307688135545 -0.00169757363552782 0.0044192702548938841 0.0096004031264808332 -0.0039992252972895536 -0.00063429233597887249 -0.0033985057708399357 0.002444984542871901 0.00054241668463906093 -0.001943339834081454 -0.0054068339239411499 0.0087485025057664634 0.0028481157459292685 0.0012031479481894537 -0.00073013850920724838 0.0009122490904908318 0.010255177179158565 0.0045498403418128136 7.0886885128426877e-05 0.0090140303574403145 0.011410978141619215 -0.0010239641485585223 0.0010445322723373731 -0.0018532164048057896 -0.0029603209309440976 0.0054070415246004824 -0.0024832001845580252 0.004224685397903479 -0.001755021307070395 -0.0027085828418467019 0.0034676357767304952 0.0017537327172817627 -0.0015339851323516243 -0.0004573792136004173
leaf_weight=367 211 1202 50 290 195 1028 501 107 2343 104 178 129 694 104 233 3524 180 108 300 249 8101 252 254 231 7132 173 122 856 188 130 546 160 3473 137 1879 2816 153 431 1844 157 75 312 1081 100 300 133 108 195 60 256 100 365 141 71 297 514 2258 798 284 626 156 55
leaf_count=367 211 1202 50 290 195 1028 501 107 2343 104 178 129 694 104 233 3524 180 108 300 249 8101 252 254 231 7132 173 122 856 188 130 546 160 3473 137 1879 2816 153 431 1844 157 75 312 1081 100 300 133 108 195 60 256 100 365 141 71 297 514 2258 798 284 626 156 55
internal_value=6.8726e-06 -0.000404032 -0.000827674 -0.000226943 0.0117974 -0.000447248 -0.00144109 0.015312 0.000419038 0.00442604 0.00431123 0.00651841 -0.00213219 -0.00303878 0.00671741 -0.000136037 0.0109486 0.00254158 0.00495506 0.00199467 -0.00142887 0.0112101 0.00263499 0.0126373 0.000364378 0.0221166 -0.00212389 0.00294164 0.00584955 0.00470385 0.00323327 0.00587451 -0.00368024 0.00116183 -0.00240327 0.00217568 0.00494293 -0.000632714 -0.00467147 0.00595669 2.69984e-06 -0.000177681 -0.00168985 0.00470374 0.00907942 0.0025086 0.00176292 0.00623944 0.00423861 -0.00300804 -0.000642083 -0.00121837 -0.00157943 0.00778692 -0.00373345 0.00374628 -0.00164718 -0.00233703 0.00208975 0.00232465 -0.00222825 0.00134697
internal_weight=49417 47763 43834 34479 1654 32930 15333 1027 17597 1549 3929 1735 12769 9355 1031 14080 413 2194 1375 2564 8795 659 3517 360 10656 368 6012 1884 1164 864 676 627 3974 1404 5313 3106 790 680 3343 411 699 518 3424 467 407 286 1155 504 238 2933 595 465 249 266 1499 618 2380 1054 1018 910 206 130
internal_count=49417 47763 43834 34479 1654 32930 15333 1027 17597 1549 3929 1735 12769 9355 1031 14080 413 2194 1375 2564 8795 659 3517 360 10656 368 6012 1884 1164 864 676 627 3974 1404 5313 3106 790 680 3343 411 699 518 3424 467 407 286 1155 504 238 2933 595 465 249 266 1499 618 2380 1054 1018 910 206 130
cat_boundaries=0 10 21 32 39 45 52 62 72 83 94 100 111 118 125 135 139 150 159 165 171 176 182 192 197 207 214 219 226 232 238 249 259 263 269 280 289 298 301 307 318 327 335 340 349 359 367 373 380 383 392
cat_threshold=2148565544 2148008260 268439552 524304 2181038080 83886092 1074008064 6291456 256 16773 1073741952 4098 536879168 143361 0 2147484928 2281768960 2147880960 176193688 134348800 16 4369 8224 262154 4196352 17944 134742528 132128 536871168 19458 66576 8 1212679168 137171520 135267328 3670016 44040192 144 10 2180 80 1073741824 65536 0 33554977 268665090 4194309 3238072321 2164332288 537151554 541065216 1 340272130 541065216 100663296 1090519040 76611841 574750721 280 1048576 8192 539492352 40 2147483904 268439552 524288 0 0 262144 4194304 0 16513 692191232 1048576 2248278272 1090846728 75497478 17 1056770 2048 285736960 4194304 68 131072 201326592 2155873024 2147483680 1614807072 537919488 130 1 21037056 0 4 268961796 4194352 33554432 2147549186 81920 16777344 65536 402735104 12583680 1049634 4096 1048576 536871045 83888256 786432 10752 36 67588 33284 33816576 610304 8388608 88080384 4 138937344 136380480 1024 0 8388608 0 8 302514180 805308416 138412176 536871712 1073807360 571473920 16810240 1090519552 32 2147516426 1073741824 262656 1048576 2621440 1073741824 4096 8192 8193 0 0 2147549184 397312 134250496 134217728 16 0 2 0 0 0 2147483648 2147483648 0 8421504 2124 24 33554432 16 0 83886080 262168 1073741872 8388612 1073741890 4 67109667 0 0 1090523136 2147487744 264192 0 16 0 2147549184 0 128 66 66576 8388640 75498624 541075456 1073758272 538968200 67109001 1048576 3670112 134348800 136839168 25165961 2097153 33818624 67108864 541065216 67108864 1073741824 76546305 33554433 280 0 0 536870912 128 0 536870912 4096 0 1024 134217728 268435456 0 0 0 16384 0 0 0 0 0 0 2048 0 0 393216 16 0 310378496 16 0 0 1090523136 2097153 545 272 8192 262154 4194304 1024 512 131072 256 2050 16 8 0 0 131072 16777216 0 0 1048576 0 0 4194304 0 2 1073741824 4096 9218 536870912 33554432 16777216 65793 1 272 0 262144 4196352 16400 524800 32 0 2 66560 8 0 0 262144 0 16392 0 0 0 3072 0 134217728 0 0 1077936160 536870912 2 0 16777216 0 16 1073741824 1081344 524352 0 0 0 16777224 0 0 0 1 0 0 0 131072 32768 0 16 128 0 0 4096 0 2147483648 0 0 16 1073741824 4096 8192 8192 0 0 0 393216 0 134742016 129 1 262144 16 8192 2 0 0 0 32 0 16384 0 0 0 0 0 2147484672 134217728 0 0 131072 0 1024 0 0 4096 0 0 16777216 528386 4096 0 0 0 8388608 0 4194304 0 16 0 33554432 8 72 2 4 0 0 536870912 131072 0 0 0 0 8
is_linear=0
shrinkage=0.0092038


Tree=7
num_leaves=63
num_cat=62
split_feature=0 1 0 1 1 1 1 0 1 0 0 0 1 0 1 0 0 0 1 0 1 1 1 1 0 1 2 2 0 1 2 2 2 1 0 1 1 0 2 1 1 0 2 0 0 1 1 2 0 1 1 2 0 0 2 1 1 2 0 0 2 0
split_gain=2542.43 1633.96 829.711 710.827 702.813 450.257 437.047 430.951 403.673 411.173 377.099 258.669 271.988 250.237 245.972 220.799 203.932 201.381 186.003 123.3 83.7776 72.1502 71.8541 66.8689 66.5893 63.2299 62.5533 50.343 43.0011 40.5792 37.8801 37.5312 32.8982 32.7402 31.3408 30.091 27.3161 34.1694 26.7921 23.2515 22.5497 22.221 20.4539 20.3199 18.3621 18.0344 17.8431 17.7642 16.7145 16.3025 15.9874 14.1707 14.1073 13.5059 13.1903 13.0829 13.0472 12.7019 12.6263 11.933 10.6145 9.32813
threshold=0 1 2 3 4 5 6 7 8 9 10 11 12 13 14 15 16 17 18 19 20 21 22 23 24 25 26 27 28 29 30 31 32 33 34 35 36 37 38 39 40 41 42 43 44 45 46 47 48 49 50 51 52 53 54 55 56 57 58 59 60 61
decision_type=9 9 9 9 9 9 9 9 9 9 9 9 9 9 9 9 9 9 9 9 9 9 9 9 9 9 9 9 9 9 9 9 9 9 9 9 9 9 9 9 9 9 9 9 9 9 9 9 9 9 9 9 9 9 9 9 9 9 9 9 9 9
left_child=4 7 5 10 33 40 -6 32 43 18 36 22 -13 29 48 47 25 39 38 35 59 -20 -11 -21 31 57 41 45 -28 56 -17 -22 46 -1 -35 -18 -4 -38 -10 53 -3 -19 -26 55 -41 -27 58 -8 -7 -34 -29 -42 -31 -12 -37 -5 -9 -15 -2 -16 -59 -51
right_child=1 2 3 8 6 14 15 13 9 11 17 12 -14 16 20 30 19 26 21 23 24 -23 -24 -25 42 27 28 50 -30 52 -32 -33 49 34 -36 54 37 -39 -40 44 51 -43 -44 -45 -46 -47 -48 -49 -50 61 -52 -53 -54 -55 -56 -57 -58 60 -60 -61 -62 -63
leaf_value=-0.0026961108827806123 0.0024837107722131633 -0.0080443689285636458 0.01074183351693435 -0.0028953087688909484 0.046177037607012035 0.010728412887166732 0.0074181977260409926 0.0022514201359139833 0.0047091563412376049 -0.0033567390614273611 0.0006750636132694715 1.0744465075587019e-05 -0.0033925148397485521 -0.0020871318460353892 -0.00082444233056911136 0.013353458659090161 0.012269863454173541 0.0010296377714465762 -0.0037303425453640415 0.0081946232481075014 0.012172162449027475 0.0016774189653123619 -0.0064491714320648545 0.017927876154566487 0.0037535444893401085 0.0068247485054328321 -0.00057100845969149778 0.0064587048523181666 0.0021512435193370492 0.0034565144956543196 0.027131911708853429 0.0040490129923891156 0.0010240955406424172 -0.00048061060360416938 0.0093038662294667816 0.010299042392520984 0.0028847511971684873 0.0088804602767837415 0.010052163533565257 -0.0062293225489832033 0.00082317126059696039 0.0081618558815411777 0.011624128138735326 -0.0089198520329028599 -0.0028178451502836742 0.013097506762389024 0.0025965101231047085 0.013981369033361331 0.020920216509301773 -0.0049843881942435771 0.0011002926218163106 -0.0043262413989769884 0.0068378280879136683 -0.0024998166872855099 0.0045577302714117033 -0.0073376195025727708 -0.0013687159204720126 0.0013267858559101288 -0.0023648601699403017 0.0027632701329651814 0.0060964189050965517 -0.0014432806990790001
leaf_weight=202 126 236 460 234 101 138 197 553 382 1955 316 5680 12597 100 255 119 241 113 577 215 103 1354 3988 739 101 235 1480 213 2767 513 404 1015 267 112 101 107 329 376 390 483 124 313 508 1772 727 292 956 418 198 208 187 313 488 740 374 343 228 256 250 372 116 360
leaf_count=202 126 236 460 234 101 138 197 553 382 1955 316 5680 12597 100 255 119 241 113 577 215 103 1354 3988 739 101 235 1480 213 2767 513 404 1015 267 112 101 107 329 376 390 483 124 313 508 1772 727 292 956 418 198 208 187 313 488 740 374 343 228 256 250 372 116 360
internal_value=1.05799e-05 -0.000535792 -0.00152733 -0.00208021 0.0156883 0.00460366 0.0205709 0.00520831 -0.00301666 -0.00256635 0.00130166 -0.00309944 -0.00233543 0.00734366 0.00696467 0.0178769 0.00958535 0.000155703 0.00220307 0.0126645 0.00542839 4.88902e-05 -0.00544019 0.0158541 0.00690397 0.00582555 0.00168621 0.00779948 0.00120326 0.00343963 0.0243389 0.00490984 0.00040874 0.000953204 0.00438226 0.00827367 0.00806083 0.00617157 0.00751329 -0.00299287 -0.00479172 0.00634647 0.0104107 -0.00814133 -0.00422453 0.0104995 0.00166334 0.0120484 0.0172108 -0.00158669 0.00405328 -0.00287786 0.00516263 -0.00155138 0.00603924 -0.00562612 0.00118862 0.00185678 -0.000712324 0.00131307 0.00294984 -0.00281231
internal_weight=49417 47763 40739 37376 1654 3363 1239 7024 29272 26923 8104 24220 18277 4857 2690 1138 3075 6939 2703 1676 2354 1931 5943 954 1727 1399 4673 927 4247 1782 523 1118 2167 415 213 722 1165 705 772 2266 673 426 609 2349 1210 527 1332 615 336 835 400 437 1001 1056 481 577 781 472 376 627 372 568
internal_count=49417 47763 40739 37376 1654 3363 1239 7024 29272 26923 8104 24220 18277 4857 2690 1138 3075 6939 2703 1676 2354 1931 5943 954 1727 1399 4673 927 4247 1782 523 1118 2167 415 213 722 1165 705 772 2266 673 426 609 2349 1210 527 1332 615 336 835 400 437 1001 1056 481 577 781 472 376 627 372 568
cat_boundaries=0 10 20 31 42 52 62 72 82 92 102 110 120 130 141 151 160 170 181 191 201 211 221 231 241 252 262 267 273 284 294 300 306 311 321 328 338 348 356 361 371 379 389 393 403 414 421 431 437 446 456 465 472 481 492 497 507 517 522 531 540 546 555
cat_threshold=2148565544 2148008260 268439552 524304 2181038080 83886092 1074008064 6291456 256 16773 135012352 128 16777216 8394760 25041 0 2170883 2097280 38281472 270663680 1346371712 4098 536879168 16912384 0 2151678977 2281766912 2147880960 41984024 134348800 16 536870912 0 23616 1075060768 8391680 1572864 201330692 8454177 24 603985984 1 16778306 19712 2 2097152 134217732 2235564306 33556480 268451840 134218240 1028 270535938 1074808066 2147549184 2097152 67108864 2164261913 50462720 262144 134218240 32768 0 0 16777216 4096 16384 0 2097154 0 524289 8192 69632 268435488 4194312 514 4211600 537002000 536903811 1140850944 18528 33792 16778496 1282 3221225986 16384 67239936 2164262169 537001984 33947648 671089218 17301504 16786434 5242880 100679680 1074003976 67108867 537002240 9453592 1116160 138412032 537395200 603987968 8 2248802304 67108865 201523463 196816 8198 1114113 4097 32 4458626 2097154 8728 134217728 16777381 536871176 543744 107536 268435472 1342212096 2097416 16777216 262176 134479904 20971552 1091567632 2147565568 2181308961 69206016 201326592 2147615104 2147484672 77832 34603009 16777216 16777353 18088961 2147549216 68 0 268437504 16448 134217728 262144 1048576 134238208 17825810 1081360 4096 32768 2148008004 0 16 2147483648 67108868 1073741824 2097152 256 134348820 16904 264194 2130176 67108867 128 343933188 0 0 2064 528400 8240 4456714 1536 1544 135266304 536870944 536871168 1068034 4719632 8 0 134320128 4325384 201326592 134218276 8224 1078739136 1048578 3238036480 2147483650 0 262146 536870912 1073741824 4 138412032 8192 0 34078720 4325376 83951620 65536 131200 67371046 142606336 4325634 537133192 90112 8389632 83886080 2165254 2147500032 135332096 2149580800 2684354560 608436352 33555456 12288 0 1024 268451856 1075904512 268435464 155189892 32768 134218368 1077936160 1074790400 2415936512 74241 786432 0 0 8 16448 0 0 128 37748736 2228224 0 2 64 16777216 0 2151678977 134217728 131072 41951256 131072 16 0 0 0 8 8208 0 2 2097152 532480 131072 525312 6815744 262144 17 262144 4194304 0 1090519040 0 0 16 134217984 201327616 134217872 541100320 8208 16384 352356352 1090519176 720896 32770 32 524288 0 0 2056 272 0 2097152 2097152 532736 268435456 0 16 1073741824 0 0 128 4 4194320 0 0 0 33554432 268435458 524288 1090519168 0 65536 1088 1280 2 0 0 2151677954 2048 0 134218240 1028 0 256 0 0 33554432 16777224 262144 0 128 16777216 4096 16 0 0 0 524544 268435456 0 0 16384 8192 2048 1048576 67112960 8388640 0 2048 67108864 0 655360 67108865 134283265 64 8192 65537 8390656 2 1073741824 2147483648 2048 536870912 0 6208 0 1024 0 67108864 32 16 2048 1280 17410 0 2097152 0 16777233 33554432 262144 131072 268451840 0 2147485696 16 0 0 0 524288 8192 2052 32768 0 4160 69738498 134220288 33554432 0 1083375894 33685504 0 1073741824 536870912 536871008 4096 32 4194560 0 512 135266304 536870912 536871168 16384 1024 8 0 0 0 2048 1 0 1 262144 0 0 2048 8192 0 0 0 532736 268435456 0 0 1073741824 0 0 33554432 0 2 64 0 0 4195329 0 0 33554432 0 0 16777216 4104 16 0 0 0 256 268435456 8192 0 16777216 6144 16384 0 0 0 256 128 4194306 0 0 0 33554433 16 67108864 201326592 128 1024 8200 1048576 16777216 16777344 1024 524288 8192 262402 0 1032 1048576 32 256 2048 1024 8 268435456 524288 0 2147483648 16384 0 0 2147484160 0 67108864 1032 0 33554432 2 16777216 524288 0 0 8 0 0 0 0 532736 268435456 0 0 50331648 0 65536 65536 0 0 2 256 0 536870914 0 16384 1342177280 0 536870976 131072 0 1024 2281701376 0 8 0 0 1073741824 0 0 16777216 69632 32 0 2 256 0 536870912 1140850944 16384
is_linear=0
shrinkage=0.0129064


Tree=8
num_leaves=63
num_cat=62
split_feature=0 1 0 1 1 1 2 0 0 0 1 0 1 0 1 0 0 2 1 0 0 1 1 0 0 1 0 0 0 1 1 2 0 1 0 1 0 2 1 1 1 0 2 0 2 0 0 1 2 0 1 2 1 0 2 1 0 1 0 2 0 0
split_gain=2286.54 1442.58 799.151 685.204 527.282 436.666 404.68 392.309 353.501 340.548 321.234 238.008 232.423 250.966 222.456 213.592 173.961 164.599 108.006 93.0837 83.2533 77.7954 67.7654 63.609 61.0983 55.8332 52.3437 49.6633 49.1906 48.3301 43.5342 42.6233 40.0304 36.7699 34.9732 33.4565 31.3676 30.7803 27.9225 23.2136 22.9653 21.4172 21.0148 20.9717 19.5251 19.4502 19.1517 19.0658 17.8499 18.366 16.5911 15.3376 15.2603 15.0099 14.8081 14.7539 14.432 13.0223 12.5474 12.0991 9.17923 8.64801
threshold=0 1 2 3 4 5 6 7 8 9 10 11 12 13 14 15 16 17 18 19 20 21 22 23 24 25 26 27 28 29 30 31 32 33 34 35 36 37 38 39 40 41 42 43 44 45 46 47 48 49 50 51 52 53 54 55 56 57 58 59 60 61
decision_type=9 9 9 9 9 9 9 9 9 9 9 9 9 9 9 9 9 9 9 9 9 9 9 9 9 9 9 9 9 9 9 9 9 9 9 9 9 9 9 9 9 9 9 9 9 9 9 9 9 9 9 9 9 9 9 9 9 9 9 9 9 9
left_child=4 7 5 8 38 40 36 37 25 21 15 33 43 -14 26 52 39 32 27 -8 -17 51 46 -20 29 -4 -7 -19 -24 -18 -26 -30 -13 -9 -27 -23 42 47 -1 41 -3 -10 -6 -12 -25 -41 -16 53 50 57 -35 -5 -11 -2 -36 -39 -53 -50 -28 -42 -37 -49
right_child=1 2 3 9 6 14 19 11 16 10 12 17 13 -15 22 20 24 18 23 -21 -22 35 28 44 30 34 58 -29 31 -31 -32 -33 -34 48 54 60 -38 55 -40 45 59 -43 -44 -45 -46 -47 -48 61 49 -51 -52 56 -54 -55 -56 -57 -58 -59 -60 -61 -62 -63
leaf_value=-0.0045615314793138254 0.0028462417252390778 -0.0079113561439412613 0.011316087570475543 -0.0054592741890673608 0.013711086114950061 0.0084984271200855051 0.036033874745241785 -0.00064789099740024977 0.0022406080181834936 0.0097226124702430548 -0.0035056371738255826 0.0090345998043664319 0.0013925181380761112 -0.0032157043437628426 -0.0010064038977366438 -0.0027702428282606879 0.002093606652158765 0.0053344586628983051 0.012268528272028317 0.021255200032893395 0.00081595815129466016 -0.0089168081789237682 0.014079618438594288 0.0023137701045978453 0.0040695850854400046 0.0022913753951242259 0.010700428831206789 0.013317062835688573 0.0091516167147189503 -0.0015787758260270358 0.00093266455218511744 0.0037074806734370015 0.021280473814238011 0.002917612819069177 0.003977563675590867 -0.0047796186008037976 0.015664561895238953 0.00089246071531449511 0.0031743012830499871 -0.0058786416941964282 -0.0046792313238531013 -0.0021603590569425069 0.0058769648126019937 -0.0083531267416714367 0.0058390424644393151 -0.0025378801036801228 0.0033930862026503158 0.00093994223641762867 -0.0027923342843623987 0.0045539335987554884 0.0070489156736914874 -0.00083084256797681427 0.005217569723242819 -0.0028198564285868049 0.0099372618645250169 -0.002776894666158128 -0.0036320428032110066 0.0021931462798023358 0.02095120899563371 -0.00044016467756388878 -0.0065533111729236381 0.0033461063308979355
leaf_weight=108 102 211 433 481 104 244 213 317 217 260 224 123 2271 13460 259 1643 982 215 224 373 2986 937 140 419 1627 378 119 724 406 1442 1352 687 237 313 160 1113 246 266 206 501 228 935 263 1363 965 812 419 441 121 384 500 478 477 237 265 536 942 239 222 227 1995 645
leaf_count=108 102 211 433 481 104 244 213 317 217 260 224 123 2271 13460 259 1643 982 215 224 373 2986 937 140 419 1627 378 119 724 406 1442 1352 687 237 313 160 1113 246 266 206 501 228 935 263 1363 965 812 419 441 121 384 500 478 477 237 265 536 942 239 222 227 1995 645
internal_value=1.29508e-05 -0.000479104 -0.00140105 -0.00192064 0.015484 0.00478421 0.0193815 0.00489462 0.00114462 -0.00289546 -0.00217653 0.00696626 -0.00302633 -0.00254985 0.00724514 0.000566437 0.000138283 0.00927569 0.00804366 0.0271941 -0.000460188 -0.0056289 0.0050572 0.00591692 0.00142657 0.00749189 0.014165 0.0115736 0.00685903 -8.77728e-05 0.00265501 0.00580193 0.0174919 0.00334991 0.00530314 -0.00665038 0.0115632 0.000434197 0.000445287 -0.00267878 -0.0044047 -0.0013169 0.00843478 -0.00769856 0.00479936 -0.00385183 0.00172136 0.00156231 0.0041635 0.00262053 0.00552013 -0.00342895 0.00692819 -0.00107547 0.00785351 -0.00156269 -0.00270364 0.000480904 0.0178238 -0.00262742 -0.00593765 0.00238941
internal_weight=49417 47904 40896 37734 1513 3162 1199 7008 9104 28630 22684 4781 17318 15731 2496 5366 7868 2907 2547 586 4629 5946 1911 1608 5403 1236 585 939 1233 2424 2979 1093 360 1874 803 4045 613 2227 314 2465 666 1152 367 1587 1384 1313 678 1425 1557 744 813 1901 737 339 425 802 1420 360 341 455 3108 1086
internal_count=49417 47904 40896 37734 1513 3162 1199 7008 9104 28630 22684 4781 17318 15731 2496 5366 7868 2907 2547 586 4629 5946 1911 1608 5403 1236 585 939 1233 2424 2979 1093 360 1874 803 4045 613 2227 314 2465 666 1152 367 1587 1384 1313 678 1425 1557 744 813 1901 737 339 425 802 1420 360 341 455 3108 1086
cat_boundaries=0 10 20 31 42 52 62 68 79 88 98 108 119 129 139 149 159 170 176 186 196 207 217 227 236 247 257 266 276 285 295 305 311 321 329 337 347 355 360 370 380 390 401 407 415 421 432 441 451 457 468 478 484 493 500 506 516 526 535 544 550 560 570
cat_threshold=2148532776 2147483972 268439552 528400 2181038080 83886092 1073745920 6295552 256 16773 135012352 128 16777216 8394760 25041 0 2170883 2097280 38281472 270663680 1073774720 528386 536879168 16916480 0 4195584 2282029056 2147876864 41984024 134348800 80 536870912 0 23624 1074798592 8391680 1048576 201330692 83886129 18456 536877120 1 16778308 19712 2147483650 2097152 0 20971539 33556480 0 134218240 1028 291507458 1074808066 65536 2097152 67108864 2164262169 50462720 537133056 512 16778240 2147485700 16 1073741824 4096 0 50331648 69632 32 4194312 514 4211600 538050576 536903811 1140850944 18528 33792 64 606086144 0 2248802320 262153 201457927 131281 14 1048577 131072 135168 32 4456584 2149581826 520 134217728 805306533 536871176 805888 99344 16 1342212112 2097152 134479872 548 8224 20971616 1083244546 3221225472 2248417283 69206016 469762048 2147617152 2147484672 77832 33554433 16777216 16777353 18088961 2147549216 4 20972864 1049858 2147483650 0 0 2164262169 537001984 33947648 671089218 524300 289416194 541065232 119537664 1073741824 67174402 2147614721 8405016 1116160 406847488 537395200 0 268503040 16448 135266304 268701730 8192 134762496 17825810 1074823184 2049 553648130 1048576 201342976 1082130440 335544327 4026531969 1048584 67584 536936448 536870976 50335760 65584 4456586 536874496 1544 135266304 536870944 536871168 1068032 4195328 8 272629760 4718592 1024 4096 16384 144 0 128 16777216 4096 8208 0 73728 0 524544 268435456 40 2147483904 0 524288 0 8 0 4194304 0 16384 20 268443648 8915202 4196896 5136 1049088 83886080 1140850816 2 4205088 4 268435472 1210122240 268435456 16777856 18907136 134218368 1078460448 9437184 2415920128 270851 67190788 0 2281832448 2214855718 134217728 4325506 263304 67198976 142623744 32768 0 16384 33554496 1073741825 0 1024 0 0 536870920 134938880 8192 2336 2147516704 16400 536871424 285214721 1140850824 589824 532496 32 0 0 17416 8192 3072 1048576 134221824 32 16384 2048 1073741824 2 8256 16908288 0 4194304 0 0 32768 4 2 64 0 1 1152 335544324 0 8 4194320 0 4096 8192 0 0 0 262144 262144 32768 536870912 0 2048 0 3072 0 67108864 16777248 8 2048 536870912 0 23616 8192 2048 1048576 67108864 32 16 6208 2052 4194320 33554432 0 0 16777216 0 2 0 0 0 0 8192 0 0 4194304 0 0 0 2056 16 0 2097152 2097152 67108864 0 34209808 262145 134217984 65 0 1 2097408 8 2281701889 16386 268832780 4260867 262224 262144 0 128 0 64 0 4096 2147483648 67108876 0 4096 268435458 524288 1090519169 4096 65536 64 0 2 0 0 4194306 2048 0 134218240 1024 536870912 0 22592 0 1024 0 0 16777232 16400 2048 4195584 17410 0 2097152 0 16777233 0 537133056 0 1024 16 0 262144 0 1032 1048576 32 0 0 4194304 8 0 0 0 0 0 16777216 532482 134217728 33554432 0 1073872912 2147614720 0 1073741824 0 4096 33554432 1073741824 0 16777216 16777216 0 4194304 1024 512 135266304 536870912 536870912 16384 0 8 1073741824 524290 64 0 0 1024 2281701376 0 8 262144 0 0 2048 8208 0 0 0 524544 268435456 4194306 0 1073741824 0 81920 128 0 469762048 2147615104 1024 8 0 0 16777344 0 32 4 8192 0 0 0 0 0 1 0 8448 268435456 2048 0 33554432 0 0 16777216 0 32768 0 0 544 0 64 1048576 3221225472 65536 0 0 2 4194304 0 536870914 2048 2 33554432 2147483648 0 16777216 0 0 16777216 4104 16 0 0 0 256 268435456 131072 0 262152 2147484672 0 0 268435620 8 280576 1024 786432 0 0 0 8192 0 2 0 256 0 0 0 0 0 1024 0 0 33554440 0 16 1107296256 0 0 32 131072 0 136 2147484674 0 0 805306369 0 786432 1040 69632 0 8 512 640 131072 1 0 16384 32768
is_linear=0
shrinkage=0.0128298


Tree=9
num_leaves=63
num_cat=62
split_feature=0 1 0 1 1 1 0 1 0 2 0 1 1 2 1 1 0 2 0 0 0 0 0 1 0 1 1 1 0 0 1 1 0 1 1 0 0 1 1 2 2 0 0 0 2 1 2 1 1 2 1 0 0 0 0 1 2 1 1 0 0 2
split_gain=2335.11 1346.41 795.086 605.814 557.1 376.535 371.113 360.615 342.449 312.567 307.596 235.572 216.325 211.381 207.568 197.565 200.811 186.41 166.676 154.369 154.487 112.098 103.071 82.4305 63.1672 62.7232 59.5506 58.3454 58.0875 56.8821 54.429 54.4138 45.2215 40.9312 33.3687 30.722 29.2316 27.505 26.6843 24.3892 23.9894 22.6263 22.5726 22.1211 21.5512 26.5215 20.5411 19.6061 18.5766 17.9927 17.6531 17.3167 17.2372 17.0544 15.319 15.255 14.3003 14.2822 13.9971 13.1271 12.9811 12.2172
threshold=0 1 2 3 4 5 6 7 8 9 10 11 12 13 14 15 16 17 18 19 20 21 22 23 24 25 26 27 28 29 30 31 32 33 34 35 36 37 38 39 40 41 42 43 44 45 46 47 48 49 50 51 52 53 54 55 56 57 58 59 60 61
decision_type=9 9 9 9 9 9 9 9 9 9 9 9 9 9 9 9 9 9 9 9 9 9 9 9 9 9 9 9 9 9 9 9 9 9 9 9 9 9 9 9 9 9 9 9 9 9 9 9 9 9 9 9 9 9 9 9 9 9 9 9 9 9
left_child=4 6 7 10 -1 43 42 55 11 12 31 32 21 33 24 35 -17 -7 34 27 30 -10 -14 60 61 -22 59 52 40 37 -21 53 50 -8 56 -11 -31 -20 -25 -29 -28 -33 46 -6 45 -44 -2 -32 -41 -30 -5 -19 -15 -4 -36 -3 -12 -48 -46 -16 -13 -9
right_child=1 2 3 8 5 17 13 14 9 15 18 23 22 19 26 16 -18 51 29 20 25 -23 -24 38 -26 -27 28 39 49 36 47 41 -34 -35 54 -37 -38 -39 -40 48 -42 -43 44 -45 58 -47 57 -49 -50 -51 -52 -53 -54 -55 -56 -57 -58 -59 -60 -61 -62 -63
leaf_value=0.0304237472969499 0.0018834560633637972 -0.0017050057534317019 0.0042653853871739665 0.0043595875710201364 -0.0023487311300445226 0.007186085791751032 0.014250550827880631 0.0028326003584472743 -0.0040485826746819598 -0.0025478190207531225 -0.0011411122434241141 -0.0017127849888750107 -0.001837038573339103 0.0018906126762867023 -0.0010763440043684049 -0.0029851076078504808 -0.00057742853367947719 0.010961221172751759 0.0013229559336304466 0.0076237604117127527 0.0040544950183240549 0.00020004685222709911 -0.004678319791196984 0.0018154132317694299 0.012728733018816126 0.0096502905180694907 0.0067795821395148477 0.0042849395295329667 0.0041337939903785181 0.00097060336042591774 0.0013707446138179354 0.0046118535127765573 0.0035467591394933887 0.0074948127822683491 -0.0014265692284108837 -0.0053209967678456635 0.0028545140740120259 -0.00089200170251675615 -0.00041222087001302043 -0.00013360960175736909 0.0022611061819864829 0.0013702952162925081 -0.00063116288730610164 0.0023674948585478825 -0.0020889966201724699 0.0027989734190830653 -0.0044731198226626275 0.0037196681749476022 0.003546460149908432 0.0081328899898578007 0.011092369629108055 0.017502833725944168 -0.0011490521276059935 0.0083232248529765875 -0.0032711052681681364 -0.0048848922269855901 0.0013269558497782479 -0.001013569033973946 0.0006399558023869132 0.0019183494130125926 -0.0047414092918631372 0.0077071519836667962
leaf_weight=101 144 328 224 103 109 475 178 115 694 549 539 243 1259 208 212 3601 11441 227 679 224 271 1624 6296 702 292 725 104 672 245 1355 502 367 476 312 659 1081 1320 1231 1049 252 848 368 252 222 228 599 116 788 183 327 140 373 442 351 965 226 270 464 385 232 300 150
leaf_count=101 144 328 224 103 109 475 178 115 694 549 539 243 1259 208 212 3601 11441 227 679 224 271 1624 6296 702 292 725 104 672 245 1355 502 367 476 312 659 1081 1320 1231 1049 252 848 368 252 222 228 599 116 788 183 327 140 373 442 351 965 226 270 464 385 232 300 150
internal_value=9.66105e-06 -0.000334381 -0.000948555 -0.00130212 0.010871 0.00924055 0.00328396 0.00339083 -0.00189912 -0.00222184 0.000816369 0.000941476 -0.00347706 0.00467831 0.0048167 -0.00147665 -0.00115564 0.0118085 7.48541e-05 0.00401829 0.00544083 -0.00108471 -0.00420831 -0.000456868 0.00960624 0.00818954 0.00341481 0.00196437 0.00425523 0.0010729 0.00358595 0.00475448 0.00534382 0.0102097 -0.00180197 -0.00441084 0.00190845 -0.00010106 0.000486121 0.00320169 0.00282745 0.0030342 0.000243818 0.000786225 0.000877723 0.00178711 -0.00103074 0.00282559 0.00146185 0.00653183 0.00855445 0.0152713 -0.000159738 0.00685369 -0.00253779 -0.00307364 -0.00030957 -0.00177736 -0.000392561 0.000495043 -0.00344858 0.00579221
internal_weight=49417 47910 40965 37886 1507 1406 6945 3079 29558 26545 8328 3013 9873 4757 2525 16672 15042 1075 7018 4267 2510 2318 7555 2294 557 996 1968 1757 1524 4585 1514 1310 719 490 2433 1630 2675 1910 1751 1107 952 735 2188 331 1464 851 724 1290 435 572 243 600 650 575 1624 554 809 580 613 444 543 265
internal_count=49417 47910 40965 37886 1507 1406 6945 3079 29558 26545 8328 3013 9873 4757 2525 16672 15042 1075 7018 4267 2510 2318 7555 2294 557 996 1968 1757 1524 4585 1514 1310 719 490 2433 1630 2675 1910 1751 1107 952 735 2188 331 1464 851 724 1290 435 572 243 600 650 575 1624 554 809 580 613 444 543 265
cat_boundaries=0 10 20 31 42 52 62 73 83 94 100 110 120 130 136 146 156 166 172 183 194 204 214 224 233 239 249 259 268 279 290 294 304 312 321 331 341 352 362 371 376 382 389 399 407 411 421 427 436 443 450 459 468 478 488 498 507 513 522 532 541 547 550
cat_threshold=2148532776 2147483972 268439552 524304 2181038080 83886092 1074008064 6291456 256 16773 671875072 128 16777216 8394760 25041 0 2170883 2097280 38281472 270663680 1077969024 528386 536879168 16920576 0 1024 2281766912 2147880960 41984024 134348800 16 8192 0 23616 1075060736 8391680 1572864 201330692 16777265 65560 603985984 1 0 0 16777216 4096 16384 0 2097154 0 524289 8192 16778306 19712 2 2097152 134217732 2151678226 2048 268435456 134218240 1028 69632 32 4194312 1536 4215440 538050576 536903811 1140850816 18528 33792 64 6294786 1066242 65536 2097152 67108864 2164261905 50462720 537133056 134218240 1024 822084610 542113792 100663296 1074003976 335544320 2151809281 16408 1116160 138412032 537395200 64 264212 56 33816576 266306 2097216 121635617 606085120 8 2248802320 1073741953 201462023 4325569 22 1 0 8 0 134320128 4325385 205521024 134611460 32 1078476800 2148597760 3221258240 2147483779 16 268472321 2097288 151126016 18874400 134217728 1074004000 1150287872 3221274625 262785 272629762 524288 0 4096 2113536 144 0 268503040 16448 135266304 266242 8192 201854976 17825842 1074790416 6656 83886336 2097224 2285895682 0 352452608 2151744771 537133064 270336 536870978 17301512 4113 32 4456576 2147486208 1073742360 134217728 16778404 536871176 281602 99344 2048 16 1073741824 0 0 50332288 33558544 65584 4456458 3074 1544 135266304 536870945 1610612992 1068032 4195328 8 69206020 469762560 2147617152 2 73992 33554433 335544324 16777473 17040384 4259872 4 134348816 16392 262144 2149613824 67108866 128 16787712 8 1572992 2064 65536 134242304 8390914 3072 6664 135266304 268468257 553648520 527360 73744 532484 67111440 25165824 8388736 65859 570441936 92274944 1073742336 1 1048576 18941186 2155888899 35717120 0 2751463424 67437841 537001984 33816576 512 1073741824 2 8256 16777216 0 1024 135004160 0 0 0 64 0 2097154 128 37748736 2228224 83951620 1073741824 2147614720 67371040 134348800 4325634 262152 2147508224 8388608 32768 262144 0 0 2056 8208 0 2097154 2097152 532480 32896 2 536870976 16916480 0 1024 0 131072 8200 131072 16 134217984 134225920 2432 2684355360 24592 1610629632 34816 83886216 589824 41488 32 0 0 16777216 4096 8192 0 17408 8192 1024 1048576 134221824 32 8 536872960 16777218 0 0 1074003968 0 2151678208 8 1050624 262144 0 16777216 0 128 0 2097154 0 524288 8192 0 18496 0 1024 0 0 0 0 2048 69738496 268435456 933920 2147484033 12779782 536871424 69206016 0 537134080 2056 720896 335545856 134217728 4227072 1073741824 0 287309824 0 268697634 2 4 0 0 2048 0 3072 1048576 67108864 16777248 0 2048 8388624 8 0 524324 4104 139842 33817704 276824064 287312896 0 0 1090519040 0 64 0 4194304 0 0 0 16777216 538976256 8 2148007936 1073741824 201326598 4194432 2 69632 32 0 512 16896 0 0 1073741824 16416 32768 0 64 0 524288 0 16777216 262144 2097152 268435456 2097152 1073741824 4096 262144 0 0 2048 8209 0 0 0 524544 268435456 0 524288 16777344 0 0 33554432 536870912 0 0 8 8208 0 2097154 2097152 8192 537395200 128 0 0 1 0 1 2112 32768 1073741824 4160 0 0 16 0 0 0 67108864 4 0 0 0 1073741824 2147484160 64 0 16 2147483648 67108868 1073741824 0 256 2097156 134218240 128 0 0 0 268435456 16777216 16777216 4194304 536870912 8 0 0 67109121 4325441 0 0 0 8 16 65536 262154 2048 1032 0 32 1073741824 1051648 4194304 2099202 1048832 65536 0 67108864 2147484672 16908288 536870912 134218240 0 2147483648 1107296256 0 0 25165824 262144 0 0 0 0 0 1 2097152 532480 537395200 0 0 8 8192 0 2097152 2097152 0 131072 1077936128 524290 536870976 131072 0 0 2147483648 0 8 553649154 537919488 67108864 0 0 2147614720 0 0 1073741824
is_linear=0
shrinkage=0.00889483


Tree=10
num_leaves=63
num_cat=62
split_feature=0 1 0 1 1 1 0 1 0 0 1 0 1 1 2 2 1 0 0 1 1 1 0 1 0 0 0 0 1 0 2 1 2 2 2 1 1 1 2 1 1 0 1 2 1 0 1 0 1 0 2 0 0 1 0 1 0 0 1 1 2 0
split_gain=2103.3 1269.69 734.875 570.849 523.31 423.27 364.598 332.652 374.44 305.692 273.073 238.716 245.103 224.668 192.064 180.205 165.594 144.269 140.613 83.2465 71.2459 70.3318 70.268 66.2865 76.7989 63.829 60.0573 50.9328 46.3566 39.5177 36.6874 35.89 35.4117 35.1981 34.7472 33.0705 32.8446 29.2671 26.0944 26.0339 23.0831 20.025 19.5005 19.4591 19.3207 18.5453 16.3202 16.1177 15.6536 18.1321 15.4754 15.413 14.7369 14.087 13.8913 13.2615 13.1548 13.1513 11.5838 11.5445 11.1744 10.7976
threshold=0 1 2 3 4 5 6 7 8 9 10 11 12 13 14 15 16 17 18 19 20 21 22 23 24 25 26 27 28 29 30 31 32 33 34 35 36 37 38 39 40 41 42 43 44 45 46 47 48 49 50 51 52 53 54 55 56 57 58 59 60 61
decision_type=9 9 9 9 9 9 9 9 9 9 9 9 9 9 9 9 9 9 9 9 9 9 9 9 9 9 9 9 9 9 9 9 9 9 9 9 9 9 9 9 9 9 9 9 9 9 9 9 9 9 9 9 9 9 9 9 9 9 9 9 9 9
left_child=4 6 5 9 -1 25 33 51 16 31 39 21 -13 46 29 52 34 43 28 47 -18 -10 -17 24 -15 30 -21 36 57 -8 -3 61 -29 44 -9 -27 -19 -31 41 -6 -28 -25 -40 58 56 -33 -7 -20 -30 -50 -48 60 -12 -47 -45 -35 -2 -16 -11 -39 -5 -4
right_child=1 2 3 7 10 13 14 8 11 17 15 12 -14 23 18 22 20 27 19 26 -22 -23 -24 38 -26 35 40 32 48 37 -32 45 -34 55 -36 -37 -38 59 42 -41 -42 -43 -44 54 -46 53 50 -49 49 -51 -52 -53 -54 -55 -56 -57 -58 -59 -60 -61 -62 -63
leaf_value=0.027858976351274076 0.0021999310501978238 0.0028732458319877556 0.0055533168008042866 -0.0014503569308119738 -0.0034751709014687617 -0.0058830143473011199 0.0043446267260506448 0.00048700904009764341 -0.002417410185660137 -0.0039567355845094108 0.0046736293064656839 0.00016183778805600672 -0.0024968665652052328 0.0026553378225362863 -0.0023274794309424045 0.010058039686094027 -0.0030983970154518752 0.0014531465573509629 0.0042295980727525872 0.0090120628781695626 0.0013911004803340613 -0.004945279961455165 0.020055117689503289 0.0036836741619537851 0.0097207111015649265 0.0079064301373891165 0.0022020844631376736 0.0015041140167418394 0.0048505910119039011 0.0083475494387812103 0.010455174323011865 0.0074322478920102551 0.0046387249923364833 -0.0029930081615962742 0.0068680176008040859 0.018903949188522222 -0.0010245707223345297 0.010335227633274819 0.00036883304895647174 0.0028231204741527467 0.0050644092576576198 -0.0010479404783630718 0.0043152054033166534 -0.0033558917154728504 0.0019256783668304142 -0.00049603854803236664 0.00099314605112548718 0.010254835573615451 -0.00027899882692461572 0.0034029161872651983 -0.003567265694077964 -0.0065613020349774131 0.0095267928394958262 0.0038383357460174644 0.00070426543525850744 -0.00023373221740264101 -0.0020854670608018953 0.0010994448651778347 -0.0020105605175367233 0.021294571590240806 -0.0051334801991410415 0.0098054405358275649
leaf_weight=204 103 142 252 155 100 242 101 125 1881 554 261 5551 12709 388 219 211 530 1004 110 346 1435 3980 338 122 341 103 563 2118 512 165 226 136 499 352 662 182 1432 105 203 205 926 386 541 112 1135 112 117 604 217 490 265 1777 179 354 386 437 263 263 1162 114 414 296
leaf_count=204 103 142 252 155 100 242 101 125 1881 554 261 5551 12709 388 219 211 530 1004 110 346 1435 3980 338 122 341 103 563 2118 512 165 226 136 499 352 662 182 1432 105 203 205 926 386 541 112 1135 112 117 604 217 490 265 1777 179 354 386 437 263 263 1162 114 414 296
internal_value=1.26743e-05 -0.000373545 -0.00108579 -0.00150235 0.0122806 0.00371482 0.00376764 -0.00219989 -0.00186526 0.000918699 0.0096097 -0.00228623 -0.00168896 0.00178603 0.00543935 0.0123166 0.00181859 0.00011491 0.00469244 0.00626929 0.000169151 -0.00414023 0.0164878 0.00352367 0.00605706 0.0112507 0.00499933 0.00109904 0.00230376 0.0117331 0.00770063 0.00594782 0.00211913 0.000301137 0.00587652 0.0153745 -1.00386e-06 0.0134987 0.00200782 0.000705679 0.00400694 0.000140349 0.0032609 -0.00212502 0.00124749 0.00396822 -0.00369424 0.00940629 0.00339684 0.00228439 -0.0021791 -0.00600603 0.00683453 0.00280697 -0.000259579 -0.00149029 -0.000847667 -0.000472651 -0.00266068 0.0167903 -0.00417852 0.00799973
internal_weight=49417 47919 40894 37636 1498 3258 7025 29219 26873 8417 1294 24121 18260 2605 4735 989 2752 7267 4250 2549 1965 5861 549 1981 729 653 1835 5053 1701 485 368 1150 2617 2290 787 285 2436 384 1252 305 1489 508 744 2214 1501 602 624 714 1219 707 382 2346 440 466 498 789 366 482 1716 219 569 548
internal_count=49417 47919 40894 37636 1498 3258 7025 29219 26873 8417 1294 24121 18260 2605 4735 989 2752 7267 4250 2549 1965 5861 549 1981 729 653 1835 5053 1701 485 368 1150 2617 2290 787 285 2436 384 1252 305 1489 508 744 2214 1501 602 624 714 1219 707 382 2346 440 466 498 789 366 482 1716 219 569 548
cat_boundaries=0 10 20 31 42 52 62 73 83 93 103 113 123 133 143 149 155 165 176 187 196 206 216 225 235 246 255 265 276 285 294 297 307 313 318 323 332 342 352 359 369 379 390 400 406 416 423 431 441 451 461 468 478 484 494 504 514 521 532 542 547 550 560
cat_threshold=2148565544 2147483972 268439552 524304 2181038080 83886092 1073745920 6295552 256 16773 135012352 128 16777216 8394760 25041 0 2170883 2097280 38281472 270663680 1346371712 528386 536879168 16920576 0 2147484672 2282029056 2147876864 41984024 134348800 16 536870912 0 23616 1318944 8391680 1572864 201330692 16777265 16408 603985984 1 526336 0 16777216 142610440 16385 0 136314882 32 524289 8192 0 268437504 4210752 1209532416 299040 1056768 201871360 17825842 1074823184 6145 69632 268435488 4194312 1538 4211344 537002000 536903811 1140850944 18464 33792 64 16778560 1049858 3221225986 16384 0 2164327705 537001984 33947648 536871490 17301504 553649154 5242880 100679680 1074003976 67108866 541196545 9453592 1116160 138412032 536870912 606085120 0 2248802320 68157441 201459975 4325569 6 1 0 8 16778304 19728 2 2097152 134217728 20971538 33556480 0 134218240 1028 135185 262176 4456448 514 8712 135266304 805306405 536871176 805888 74768 268435472 1342277632 2097416 1090520064 262176 134217728 20971552 1150287874 2147549184 2181308449 6294786 1066242 65536 2097184 67108864 2164261905 50462720 537133056 134217728 33792 272629760 528384 1024 4096 2113536 144 2052 16 1073741824 0 0 50331648 8388608 102400 4325377 201326720 134218276 32 1074544704 2156986368 3240132608 2147483651 4112 65584 4456586 3584 1544 134217728 536872992 536871168 1199104 558080 8 69206016 201326592 2147617152 2147483648 78088 34603008 16777220 137 18089024 65568 4 0 128 16777216 4096 16 0 0 0 524544 270600194 2155888641 33620224 2149580800 2751463424 1677983872 0 12288 0 1024 268435472 1207959552 269484288 2164261504 33282 167772672 4194336 1074790400 2415919104 8707 33280 64 0 16 0 67108868 1073741824 2101248 256 536887296 134283265 134219136 2151810048 285343754 536870912 1077936132 1342181376 18876416 66082 268435456 2 64 16908288 0 1024 0 131072 8 0 16 1342177408 2 64 16908288 0 1024 0 131072 33554432 524288 16384 33554496 1073741825 1 134218752 0 0 536870920 524288 134349056 67117056 2304 2684616992 24592 537936384 285212673 1140850824 851968 4194320 32 0 0 0 2056 16 0 2097154 2097152 532480 0 0 2147485952 4096 0 0 8192 0 16777216 0 0 1073741824 0 0 17408 8192 3072 1048576 134221824 32 16384 536872960 2147485702 2 1107427328 331776 0 58720256 268435458 2621440 1090519169 4096 65536 8388608 2 0 2147483664 2048 0 268435456 0 1048576 266240 0 0 0 1048576 536870912 0 2112 0 1024 0 67108864 16777248 0 2048 524288 0 0 8388608 16640 0 0 2097152 0 268435456 2147483664 0 1073745920 16777280 0 32 16 64 0 2 0 0 0 2048 0 134218240 1028 0 0 0 8 0 0 2162690 2097280 8192 2228224 0 4096 0 0 0 0 0 131072 32776 0 16 16842752 1073741824 131072 67371008 134217732 0 262144 81920 512 83886080 3074 2147516416 1107296256 0 0 25165824 262144 0 0 2048 8208 0 0 0 524544 268435456 0 0 2147483648 67108864 67108866 128 4 4195584 17410 0 2097152 0 16777233 33554432 262144 4 0 64 0 1 0 268435456 16777216 128 4194304 134217728 128 16777216 4096 0 0 1 0 0 268435456 0 0 128 0 4360 1048576 16777216 128 1024 32 128 4194306 0 0 0 1 16 69738498 134219776 33554432 262272 1083375890 570556945 0 1073741824 1048576 537919520 32768 0 4096 0 2147483648 67108868 0 0 0 1048576 0 0 4 0 8 4096 0 0 4194304 0 512 0 536870912 0 16384 32768 794624 0 0 2048 1 0 2097152 2097152 532480 131072 65536 0 0 2 4194304 0 536870914 0 0 2304 0 4096 1048576 4 8 262144 32 4 0 0 0 32 8390656 1048576 4 0 8 536877120 0 0 16777216 0 1 65536 0 1073741824 536870912 0 0 68157440 67111169 4194368 0 0 0 8
is_linear=0
shrinkage=0.0105535


Tree=11
num_leaves=63
num_cat=51
split_feature=0 1 0 1 1 0 0 1 0 1 0 0 1 0 1 1 0 0 0 3 3 1 1 3 3 1 0 1 0 1 0 1 0 1 0 1 3 1 0 0 0 1 1 1 0 0 3 3 0 1 1 0 1 3 3 0 3 0 0 0 0 3
split_gain=2296.16 1338.34 711.625 612.308 596.444 390.249 381.542 365.384 340.795 321.918 377.755 231.052 219.548 198.168 187.082 178.438 164.832 145.404 141.332 131.814 83.028 76.0993 71.934 71.2357 66.6613 65.5159 61.7482 53.3931 47.3291 45.6568 47.5966 44.764 41.4062 35.0452 34.2893 32.918 31.7971 27.7881 27.2228 26.3627 21.4797 24.9285 19.4693 18.7189 15.6938 15.6162 15.6071 14.8184 13.1986 11.7408 11.723 11.2982 10.5681 10.2589 10.233 9.58956 8.74799 7.70645 7.39012 6.71861 6.60432 5.72876
threshold=0 1 2 3 4 5 6 7 8 9 10 11 12 13 14 15 16 17 18 1.0000000180025095e-35 1.0000000180025095e-35 19 20 1.0000000180025095e-35 1.0000000180025095e-35 21 22 23 24 25 26 27 28 29 30 31 1.0000000180025095e-35 32 33 34 35 36 37 38 39 40 1.0000000180025095e-35 1.0000000180025095e-35 41 42 43 44 45 1.0000000180025095e-35 1.0000000180025095e-35 46 1.0000000180025095e-35 47 48 49 50 1.0000000180025095e-35
decision_type=9 9 9 9 9 9 9 9 9 9 9 9 9 9 9 9 9 9 9 2 2 9 9 2 2 9 9 9 9 9 9 9 9 9 9 9 2 9 9 9 9 9 9 9 9 9 2 2 9 9 9 9 9 2 2 9 2 9 9 9 9 2
left_child=4 6 7 8 34 23 40 43 33 38 14 21 -13 31 32 54 35 27 37 -7 22 -12 -20 -6 26 -16 -18 -15 -26 48 42 58 -11 39 53 51 44 -19 -5 -4 41 -2 -31 -3 -35 -37 60 -36 -17 -42 59 -10 -32 -1 -9 -40 -43 -52 -8 -33 -45 -50
right_child=1 2 3 9 5 19 13 15 16 10 11 12 -14 17 25 29 24 18 20 -21 -22 -23 -24 -25 28 -27 -28 -29 -30 30 52 50 -34 36 47 45 -38 -39 55 -41 49 56 -44 46 -46 -47 -48 -49 61 -51 57 -53 -54 -55 -56 -57 -58 -59 -60 -61 -62 -63
leaf_value=0.0021162330686084569 -0.0022217766039789124 -0.0041669738359469211 -0.00056413653219831289 -0.0014351788681531178 0.0062662671541563048 0.013901991703664431 -0.0025110383547893439 0.0092170519723058265 -0.0010466219986768905 0.0028579330006074767 -0.0019482016907867816 2.9119742407393849e-05 -0.0018858345328674427 0.001190246670926743 -0.0029645589288582433 -0.00027213332943078244 -0.00087076895091098337 0.0061374517517414446 0.0094902032391113583 0.021971438181118273 0.012470074935321594 -0.003790704156749581 0.0037948912806209413 0.01189480034394632 0.000376241992771201 0.0007641889397230515 0.0011034725111235917 0.0044733089257628852 0.0035583031465823661 0.0046917271267535882 0.008434758098464128 0.0021125963362745451 0.0071364288697529192 0.0017446445210378349 -0.0022698404534744225 -0.0030424191111166304 0.0091560227479910283 0.0030334379145340908 -0.0058321512129855986 0.0038014217005340307 -4.3124916149278683e-05 -0.00017411039357917926 0.0018872676627165619 -0.0004917540130301636 0.0057018505583754263 -0.0015123740686276135 0.0010443136049674191 0.0014812986648756934 0.0015824452481403278 0.0014755687560410844 0.00043749423933520765 0.00085930752867177012 0.0048693689227575828 0.0061797662517691209 0.013103739884897858 -0.0042547125570355452 0.0021651505357862455 0.002256150645688011 1.8810954356595379e-05 0.0041463231718725357 -0.0029391888098300998 0.0037747436793546304
leaf_weight=88 385 217 110 207 515 302 100 247 390 345 2305 5223 12156 532 333 205 1554 340 405 222 281 3708 276 190 463 1733 2516 780 786 222 112 271 301 111 164 710 146 553 547 392 543 453 625 119 389 1171 122 104 230 725 226 349 596 69 60 1710 123 493 200 334 224 109
leaf_count=88 385 217 110 207 515 302 100 247 390 345 2305 5223 12156 532 333 205 1554 340 405 222 281 3708 276 190 463 1733 2516 780 786 222 112 271 301 111 164 710 146 553 547 392 543 453 625 119 389 1171 122 104 230 725 226 349 596 69 60 1710 123 493 200 334 224 109
internal_value=8.83516e-06 -0.000305306 -0.000848037 -0.0011438 0.00902287 0.01179 0.00284091 0.00274949 0.000621375 -0.00170532 -0.00144915 -0.00176913 -0.00131062 0.00408236 0.00130654 0.00417811 4.37348e-05 0.00522596 0.00665694 0.0170331 0.00879258 -0.00308938 0.00738686 0.00769006 0.000833172 0.000150292 0.000350022 0.00316362 0.00241207 0.00332311 0.00401596 0.00183156 0.00493877 0.00457705 0.000923674 -0.00155543 0.0058464 0.00427642 -0.00440046 0.00285172 0.000165257 -0.000710279 0.00267396 -0.00227567 0.00497878 -0.00210465 -0.00131552 -0.000782102 0.00130088 0.000829825 0.00244896 -0.000146085 0.00555489 0.00370065 0.00970421 -0.00466379 0.000321383 0.00170078 -0.00088095 0.00329061 -0.00219598 0.00223299
internal_weight=49417 47763 40743 37655 1654 1229 7020 3088 9087 28568 26104 23392 17379 4791 2712 2406 7939 3167 1855 524 962 6013 681 705 5319 2066 4070 1312 1249 2099 1555 1624 646 1148 425 2620 646 893 2464 502 2229 961 847 682 500 1881 465 268 544 1268 1324 739 708 157 307 2257 576 719 300 605 343 339
internal_count=49417 47763 40743 37655 1654 1229 7020 3088 9087 28568 26104 23392 17379 4791 2712 2406 7939 3167 1855 524 962 6013 681 705 5319 2066 4070 1312 1249 2099 1555 1624 646 1148 425 2620 646 893 2464 502 2229 961 847 682 500 1881 465 268 544 1268 1324 739 708 157 307 2257 576 719 300 605 343 339
cat_boundaries=0 10 20 31 42 52 62 72 82 92 102 112 122 132 143 153 163 174 184 194 204 213 220 231 241 251 261 272 281 291 301 311 321 331 340 350 360 369 379 387 397 408 417 427 435 445 455 465 475 483 492 496
